---BNN 0 weights---
(5, 5, 1, 6)
[[[[-5.73909990e-02  1.11621560e-03  5.16926423e-02 -1.51264563e-01
    -2.91107539e-02 -1.34002298e-01]]

  [[ 1.63058832e-01  4.26379368e-02 -1.10061638e-01 -8.54698941e-02
     1.54840410e-01 -2.06201464e-01]]

  [[-1.84225202e-01 -1.75336450e-01 -1.92660764e-01  1.55970410e-01
     2.19091341e-01 -1.10232167e-01]]

  [[ 4.60261777e-02  2.46536564e-02  9.69237182e-03 -4.37458493e-02
    -1.12849556e-01  3.54821645e-02]]

  [[ 8.05037096e-03 -2.57132147e-02  5.41094504e-02 -1.00903988e-01
     1.14749067e-01  9.40649491e-03]]]


 [[[-1.28983423e-01 -1.61532328e-01 -6.23503840e-03  5.20583168e-02
     3.94880213e-02 -9.77483317e-02]]

  [[-8.83623734e-02 -3.39300446e-02  1.96739033e-01  1.36223853e-01
    -1.14219226e-01 -6.08949270e-03]]

  [[-2.51346286e-02 -5.74530428e-03 -9.84748676e-02 -1.65555820e-01
     8.19206645e-04 -2.43709311e-02]]

  [[-1.34287655e-01 -5.69846630e-02 -5.77575825e-02  1.88713074e-01
     8.03438798e-02  2.09367380e-01]]

  [[-1.28207982e-01 -7.78784230e-02 -1.09495752e-01  1.11314237e-01
     4.72705029e-02 -7.56647736e-02]]]


 [[[ 7.88943991e-02  6.92632422e-02  7.11732432e-02 -1.18967369e-01
    -1.00179929e-02  5.89985214e-02]]

  [[ 1.15092866e-01  2.43356265e-02  3.66386101e-02 -5.31397723e-02
     8.75316188e-02 -5.73133491e-02]]

  [[ 7.39042982e-02  5.07753082e-02  2.00374410e-01  4.06571738e-02
    -7.22443014e-02  1.39289219e-02]]

  [[ 6.27940241e-03 -2.21419688e-02 -1.57434159e-04 -7.67966583e-02
     8.76375362e-02 -9.03082117e-02]]

  [[ 1.02892794e-01 -7.57388398e-02 -3.86687629e-02 -4.30889688e-02
     2.80119475e-05 -4.08715121e-02]]]


 [[[-1.24681473e-01  6.94126114e-02 -4.54027019e-02 -3.73270735e-03
    -1.63529694e-01  2.20606491e-01]]

  [[-1.47537142e-02  9.89912357e-03  1.69037711e-02  1.47291288e-01
    -9.75657403e-02 -3.63812111e-02]]

  [[ 2.66325623e-02  1.33590093e-02 -2.17037369e-02  1.34520531e-01
    -8.31596777e-02  1.17543340e-01]]

  [[ 6.26380816e-02 -2.10300460e-02 -5.03263436e-02  5.24188057e-02
     9.40132961e-02 -3.26407403e-02]]

  [[ 1.45217910e-01  5.05785942e-02  1.69071893e-03 -3.38830613e-02
     4.52835597e-02 -2.46388931e-02]]]


 [[[-6.35651872e-02 -3.41362394e-02  5.57054542e-02  8.34906250e-02
    -1.59061681e-02  1.53634101e-02]]

  [[ 2.04481274e-01 -8.48461017e-02  7.76252672e-02 -1.11345015e-01
    -9.08677205e-02  2.17525121e-02]]

  [[-1.05072260e-01 -4.78819422e-02 -7.96685275e-03 -1.24103479e-01
    -1.15692154e-01  7.89732113e-03]]

  [[-1.71666518e-01 -1.06562652e-01 -1.55960321e-01 -2.61332512e-01
    -3.27359959e-02 -7.30539709e-02]]

  [[-3.89910415e-02  1.41681239e-01 -1.12403203e-02 -2.21799444e-02
    -7.88287744e-02 -3.65392119e-02]]]]
(5, 5, 1, 6)
[[[[-3.1021926 -2.8303866 -2.965788  -2.73943   -2.9382026 -2.9467351]]

  [[-3.1012676 -3.012916  -3.1739755 -2.8574324 -3.0022702 -3.1659856]]

  [[-2.923586  -3.012228  -2.949975  -2.9122374 -2.8337166 -2.9449248]]

  [[-3.0642903 -2.93324   -2.9977596 -2.9329321 -3.0428998 -3.1566133]]

  [[-3.2522728 -3.089208  -3.1072807 -3.095543  -3.0634332 -3.0116475]]]


 [[[-2.967188  -2.9939635 -3.0514827 -3.1710374 -3.0849342 -3.06982  ]]

  [[-3.0157847 -3.0890746 -2.888089  -2.9379296 -2.9964046 -3.2253647]]

  [[-2.8209436 -2.9810193 -2.8283997 -3.1231322 -3.1462991 -2.946898 ]]

  [[-3.1535177 -2.9882166 -2.9906764 -2.9308639 -3.0570276 -2.8563387]]

  [[-2.962491  -2.997049  -2.9469635 -2.9064763 -3.0712914 -2.933006 ]]]


 [[[-3.0641766 -3.000052  -2.9833527 -3.1254754 -2.9329727 -2.9404788]]

  [[-3.1061099 -3.0364404 -2.947253  -2.910158  -2.891453  -3.040662 ]]

  [[-3.0205774 -3.0124578 -3.0808077 -2.914185  -3.085784  -2.97612  ]]

  [[-2.9152381 -2.9734712 -2.932494  -3.0444689 -2.8433676 -2.985734 ]]

  [[-3.061277  -2.8488786 -2.9301612 -2.8772035 -3.0363762 -2.7253244]]]


 [[[-3.21297   -2.9316485 -3.0925698 -2.9659655 -3.047908  -3.166826 ]]

  [[-2.9853127 -3.126991  -3.0839293 -2.817208  -3.1670976 -3.010473 ]]

  [[-3.014882  -2.874089  -3.069847  -3.0475616 -3.0400364 -2.9787712]]

  [[-2.9768317 -3.0094292 -3.058963  -2.9963315 -2.8318226 -3.0415452]]

  [[-3.0977507 -2.9716063 -2.959696  -3.1363058 -2.840016  -3.120969 ]]]


 [[[-3.1819038 -2.9593477 -3.2182946 -3.0323653 -3.1793227 -3.0957046]]

  [[-2.8977387 -3.0752993 -3.1970942 -2.8518298 -3.0754743 -2.8947868]]

  [[-3.0295103 -3.0763955 -3.0123029 -2.7737796 -2.9970493 -2.9997153]]

  [[-2.9070864 -3.0335152 -3.0745547 -2.8049452 -3.034046  -3.089682 ]]

  [[-3.1395996 -3.0151806 -2.8681326 -2.8338375 -3.0351825 -3.0435078]]]]
(6,)
[-0.02181493 -0.08131877 -0.00863406 -0.17008056  0.12851517 -0.01646687]
---BNN 1 weights---
---BNN 2 weights---
(5, 5, 6, 16)
[[[[-5.61736245e-03  1.96905985e-01 -9.13797766e-02 ... -1.20006792e-01
    -1.66829731e-02 -5.40957414e-02]
   [-4.04832400e-02  4.85927006e-03 -1.50649836e-02 ...  5.22276526e-03
    -8.09973385e-03 -4.56597880e-02]
   [ 2.30016485e-02 -3.88322808e-02 -6.27716035e-02 ...  1.62483469e-01
    -1.25614643e-01 -1.37036443e-01]
   [ 2.98820324e-02  8.94902390e-04  3.04393079e-02 ... -5.00781238e-02
    -4.72946186e-03 -9.99974459e-02]
   [-6.69841319e-02  9.52002779e-03 -4.34168391e-02 ... -9.21832398e-02
    -9.07596573e-02 -2.31333990e-02]
   [-4.43274565e-02 -6.34220913e-02  1.09004341e-01 ... -1.90984070e-01
     4.15771194e-02  3.35804150e-02]]

  [[ 5.62127717e-02  5.96374236e-02  7.14630708e-02 ... -3.50224338e-02
    -2.78437175e-02  2.51509901e-02]
   [-4.22522873e-02 -1.06466644e-01  1.15380384e-01 ... -9.88028273e-02
     6.45163003e-03 -6.10484891e-02]
   [ 4.81237434e-02 -1.99935795e-03  1.46700768e-02 ... -1.01091852e-02
     2.31866434e-01 -2.10649893e-01]
   [ 5.40592372e-02  3.07565600e-01 -1.54054746e-01 ...  4.02052067e-02
    -9.46276560e-02 -3.77542786e-02]
   [-5.06629907e-02  1.12606563e-01  2.15035558e-01 ...  8.28282237e-02
     8.38955268e-02 -2.14565232e-01]
   [ 1.61525205e-01  2.74038073e-02 -5.16028367e-02 ... -1.48264110e-01
    -2.36689761e-01  7.11722253e-03]]

  [[ 1.25822335e-01  6.15232475e-02  1.11879921e-02 ... -7.01352581e-02
    -1.33566692e-01 -5.20007312e-02]
   [ 1.49366125e-01  1.10797696e-02 -6.19718395e-02 ... -4.17617261e-02
     2.06076220e-01 -6.15099631e-02]
   [-3.88033204e-02  9.02765393e-02 -5.95162883e-02 ... -1.69863865e-01
    -4.63703349e-02 -6.29663989e-02]
   [ 2.58741807e-02  4.90571111e-02 -1.22822665e-01 ...  1.42172024e-01
     7.60868937e-02 -1.51722496e-02]
   [ 8.99731070e-02 -1.08995952e-01  1.46211861e-02 ... -1.26952608e-03
     6.04034662e-02  6.75375983e-02]
   [-1.43422022e-01 -8.41422454e-02  8.75743106e-02 ... -1.06337769e-02
     7.80549049e-02 -8.72064475e-03]]

  [[ 1.65794536e-01  2.86533423e-02  2.30284333e-02 ...  7.34655112e-02
     5.06158136e-02 -1.14808731e-01]
   [ 5.22147678e-02 -5.01433909e-02 -1.05800830e-01 ...  5.60963526e-02
     8.31287634e-03  4.85754572e-02]
   [-1.42741337e-01 -1.51652679e-01 -6.91409335e-02 ... -1.92479745e-01
    -3.93060297e-02  2.86155846e-03]
   [-6.90812320e-02 -1.36765286e-01  2.61226352e-02 ...  1.65965743e-02
     6.73013702e-02 -2.83330977e-02]
   [ 1.97953045e-01  9.16496739e-02  2.13840678e-01 ...  2.33851187e-02
     1.14877939e-01  1.80736817e-02]
   [ 9.40181911e-02 -3.55909877e-02  7.70487264e-02 ... -1.57377124e-03
     1.42726928e-01 -9.51218978e-02]]

  [[-4.62646149e-02  1.45401228e-02  1.76948737e-02 ... -8.17946792e-02
    -7.97408968e-02 -1.38962138e-02]
   [ 8.79839137e-02  1.72823921e-01  3.23605090e-02 ...  1.39981776e-01
     2.29927376e-01 -7.92038366e-02]
   [ 3.88068222e-02  5.99750467e-02  6.94558397e-02 ...  1.20622352e-01
    -8.48438069e-02  1.25489742e-01]
   [ 9.66631696e-02  1.04154468e-01  9.03334543e-02 ...  7.03330967e-04
     4.93273810e-02 -6.34119613e-04]
   [-3.84506322e-02  3.69332507e-02  1.39302956e-02 ... -4.13702391e-02
     3.67034860e-02 -3.06205396e-02]
   [-1.99512392e-02  1.62995681e-02 -6.99836835e-02 ...  6.72402009e-02
     1.29522383e-02  7.40661398e-02]]]


 [[[ 4.16519754e-02 -4.01996784e-02  1.02019846e-01 ...  8.96687359e-02
    -2.48263851e-02 -4.71005850e-02]
   [ 1.24722026e-01 -9.31746792e-03  8.34512487e-02 ... -1.33375257e-01
     1.19731024e-01  1.64152570e-02]
   [-1.77313790e-01  6.37550801e-02  9.35451686e-02 ...  7.62634873e-02
     9.19545293e-02 -1.49475038e-01]
   [ 1.07345625e-03 -8.05453882e-02  9.17937700e-03 ... -1.04076922e-01
     8.08064789e-02 -8.71533935e-04]
   [ 7.03131482e-02  1.07122518e-01 -1.49887183e-03 ...  3.85069624e-02
     1.11045144e-01  8.26093275e-03]
   [-4.01954027e-03 -2.87001021e-02  9.84993279e-02 ... -3.15334462e-02
     1.06601408e-02 -4.06073891e-02]]

  [[-2.93038855e-03 -5.79712987e-02  4.73694236e-04 ...  7.98769221e-02
    -1.40992433e-01 -1.60354733e-01]
   [ 2.11792812e-01 -1.16898976e-01 -1.31618634e-01 ... -1.77075610e-01
    -3.29448655e-02 -1.51130604e-02]
   [-2.92438000e-01  1.29130229e-01 -3.35947908e-02 ...  5.85457869e-02
    -1.68033659e-01  3.32793524e-03]
   [ 5.77598996e-02 -5.98066859e-02 -6.55796081e-02 ...  2.21503139e-01
     1.74795669e-02 -1.06240109e-01]
   [-9.67641473e-02 -1.14315823e-01 -1.44295037e-01 ...  1.27116218e-01
     1.06144240e-02  2.99579534e-03]
   [-5.42278066e-02 -1.30422071e-01 -3.69120315e-02 ...  2.28054803e-02
    -3.96498963e-02  1.41831309e-01]]

  [[ 1.73888188e-02  1.55918583e-01  1.73164949e-01 ...  1.39818862e-01
    -1.01720668e-01 -9.75893363e-02]
   [ 1.47231311e-01  3.96112651e-02  4.05746810e-02 ...  1.08256400e-01
    -9.13073644e-02  2.69352924e-02]
   [ 2.58072112e-02  1.16795702e-02 -1.72449872e-01 ...  1.88103825e-01
    -2.45566331e-02  3.97727266e-02]
   [-1.36627585e-01  7.29046986e-02  1.00245439e-01 ...  7.93355331e-02
    -1.17379420e-01  1.96072534e-02]
   [-7.02580288e-02  1.41059859e-02  4.64050584e-02 ...  4.48556355e-04
     3.83258946e-02 -8.36731717e-02]
   [ 6.09333813e-02  1.47875200e-03 -2.76039243e-02 ...  5.02707139e-02
    -1.00479595e-01 -1.07124947e-01]]

  [[-6.99584112e-02 -2.59813070e-02  5.85879646e-02 ...  1.33663997e-01
     1.51897043e-01 -1.47484988e-01]
   [ 1.88296312e-03 -1.70519963e-01 -4.62277792e-02 ... -4.17729607e-03
    -4.60264012e-02 -1.28212973e-01]
   [-5.41609786e-02  6.70040399e-02 -1.25157639e-01 ...  1.45504281e-01
     6.87278956e-02  4.83480580e-02]
   [ 1.79407343e-01  2.03687493e-02 -1.49351344e-01 ...  2.13062957e-01
     6.34132028e-02  1.66032255e-01]
   [ 1.47670597e-01 -8.16144571e-02  5.11344103e-03 ... -5.13742939e-02
     5.11323214e-02  1.32707402e-01]
   [ 7.15632960e-02  4.42281999e-02 -4.96783145e-02 ... -3.48217003e-02
     2.65606847e-02 -1.02052212e-01]]

  [[-5.33303386e-03 -2.92377621e-02  5.42732589e-02 ... -1.11834943e-01
    -9.93960425e-02  1.35362118e-01]
   [-2.58788943e-01 -7.55029544e-02 -1.21251903e-01 ... -1.23539068e-01
     1.47865135e-02  1.44213215e-01]
   [ 2.06367690e-02  1.03852525e-01 -1.02729332e-02 ... -1.74654480e-02
     1.87284261e-01  7.11496696e-02]
   [ 6.99347928e-02 -9.36310515e-02  1.37571946e-01 ...  1.42131627e-01
     1.79793373e-01  7.52330348e-02]
   [-4.93491031e-02 -1.52244568e-01  1.29965497e-02 ...  1.88198090e-02
    -5.08708358e-02  5.74069433e-02]
   [ 8.42239782e-02 -2.04683077e-02  7.68602565e-02 ...  1.53319759e-03
    -6.11952543e-02  3.99121922e-03]]]


 [[[ 3.24117057e-02 -6.53900430e-02  3.97893637e-02 ... -1.33785948e-01
    -1.09445356e-01  3.17919627e-02]
   [ 2.46232376e-03 -1.68468971e-02  4.32054475e-02 ...  6.38765842e-02
     6.10911660e-02  9.65432450e-02]
   [ 4.48000953e-02  5.38904853e-02  1.32821873e-02 ...  2.97135618e-02
    -6.61296248e-02 -6.51313961e-02]
   [ 8.99200514e-02 -1.97167657e-02  2.30962839e-02 ...  4.77546714e-02
    -1.55518517e-01 -6.02800436e-02]
   [-2.08474949e-01  1.84391495e-02 -1.64583400e-01 ... -7.28854984e-02
     9.10107791e-02 -1.85714941e-02]
   [ 1.03410438e-01  7.74571970e-02 -3.11878677e-02 ...  1.17834486e-01
     6.64330134e-03  9.68027394e-03]]

  [[ 2.76585855e-02 -3.93905118e-02 -2.72076011e-01 ... -1.22077070e-01
    -3.18116471e-02  1.42898215e-02]
   [ 3.42231989e-03  6.87575107e-03 -1.70476716e-02 ...  9.80744287e-02
    -8.95333439e-02 -1.22080699e-01]
   [-1.03521943e-01  7.60227665e-02  5.34889400e-02 ...  1.30859420e-01
     4.23083864e-02  4.63276869e-03]
   [-2.94365897e-03  7.11742267e-02  2.74670552e-02 ...  4.73984033e-02
     1.31697461e-01  3.58049683e-02]
   [-5.00707095e-03 -1.14165261e-01  5.71239321e-03 ... -1.49312615e-01
    -1.65384468e-02 -5.94600216e-02]
   [-1.84202995e-02  5.06489947e-02  8.43016058e-03 ...  8.57558846e-02
    -2.86019426e-02 -3.53315994e-02]]

  [[ 1.42080009e-01 -3.57806161e-02 -1.07119620e-01 ... -1.31330332e-02
    -7.59361079e-03 -1.76882017e-02]
   [ 1.24272279e-01  3.78132947e-02 -2.23633125e-01 ... -1.08643167e-01
    -4.62166071e-02 -5.32538071e-02]
   [ 1.29758120e-02 -4.70285974e-02 -3.85413431e-02 ... -7.90027529e-02
     1.38087198e-01  2.83808503e-02]
   [ 3.51547860e-02  8.43115449e-02 -9.41007584e-02 ...  1.84128836e-01
     7.23914728e-02  6.97130561e-02]
   [ 6.69257715e-02 -1.83615014e-01  1.81895956e-01 ... -7.17380568e-02
     4.77505215e-02  1.21399939e-01]
   [-4.45579439e-02 -4.69595157e-02 -2.45206021e-02 ... -3.55042294e-02
    -3.83101380e-03  2.55829375e-02]]

  [[ 1.28462717e-01  6.92060357e-03 -7.88459480e-02 ... -6.76206127e-02
     2.02804014e-01  3.28600965e-02]
   [-4.97719459e-02  2.81169545e-02  6.19705813e-03 ... -6.64351135e-03
     1.08686939e-01  9.85316709e-02]
   [ 4.14640345e-02 -7.57648284e-03  6.31716475e-02 ... -1.26487389e-01
     1.35848746e-01  2.28061587e-01]
   [-7.69209191e-02 -1.52261198e-01 -1.07017688e-01 ...  9.22461078e-02
    -8.30922555e-03  1.38555408e-01]
   [-4.00176793e-02 -7.44243562e-02  2.55488437e-02 ... -2.52999403e-02
     3.64336483e-02  9.71346125e-02]
   [ 1.91485450e-01 -2.33011283e-02  1.22159161e-01 ...  6.23220345e-03
    -1.20549807e-02 -4.58531417e-02]]

  [[ 1.83159932e-01 -1.95847109e-01 -1.17359437e-01 ...  2.21035071e-02
    -1.98729262e-02  1.48470327e-01]
   [ 3.86691801e-02 -3.27277780e-02  1.56575322e-01 ... -5.82469292e-02
     1.65749386e-01 -1.16819680e-01]
   [ 2.36034468e-02 -1.64401659e-03 -8.61298852e-03 ...  1.86458156e-01
     2.43603205e-03 -1.30730812e-02]
   [-2.18117356e-01  4.43744920e-02  1.14228092e-01 ...  1.59013644e-01
    -3.10459323e-02  1.13702945e-01]
   [-5.52908890e-02  6.92575937e-03 -3.72487307e-02 ...  9.91681963e-02
    -1.99101847e-02 -7.02114627e-02]
   [-4.71377820e-02 -1.35371491e-01 -1.82256341e-01 ... -1.20027378e-01
    -4.28722017e-02  2.09474117e-01]]]


 [[[ 2.20821619e-01 -4.87207472e-02 -5.82524538e-02 ... -3.47608924e-02
    -3.18639800e-02 -1.55414883e-02]
   [ 1.65952072e-02  3.24954353e-02 -8.99209380e-02 ... -6.87162057e-02
     2.50171181e-02 -2.02420615e-02]
   [-1.72963664e-01 -5.53948246e-02  1.32919746e-02 ...  1.24099478e-02
    -8.45355690e-02  3.01320642e-01]
   [ 4.88816909e-02 -4.51894216e-02 -1.97371170e-01 ...  1.11868910e-01
     6.09016716e-02 -4.08688188e-02]
   [ 1.08181508e-02 -1.17971664e-02 -1.05098836e-01 ...  3.57586481e-02
     2.34644618e-02 -7.56673738e-02]
   [-1.08160950e-01 -1.62829533e-02 -6.13924451e-02 ...  1.18135266e-01
     1.96163338e-02 -5.55640645e-02]]

  [[ 1.60281882e-01  6.05855100e-02  1.37661263e-01 ... -4.04776111e-02
     1.12855351e-02  7.52900392e-02]
   [-4.93304431e-02 -1.14760837e-02  7.49354437e-03 ... -1.33141562e-01
     6.03851788e-02  8.41191858e-02]
   [ 2.31912062e-02  3.87047492e-02  8.85035768e-02 ...  1.50965512e-01
     3.78537998e-02 -9.82332677e-02]
   [ 6.56170473e-02  7.94236511e-02 -5.96417487e-02 ... -1.66768670e-01
    -1.74145207e-01 -1.00194968e-01]
   [ 2.29624715e-02 -3.27468221e-03 -4.17700075e-02 ...  6.89106360e-02
     6.63048252e-02 -8.12302753e-02]
   [-7.74930194e-02  1.17426636e-02  8.37627426e-02 ... -1.93613973e-02
    -5.71375079e-02 -1.43176988e-01]]

  [[ 1.59862861e-01  5.29101193e-02  9.23493803e-02 ...  7.29306266e-02
     2.73141693e-02 -5.51253371e-02]
   [ 1.12468794e-01 -1.35623023e-01  7.49856606e-03 ...  1.44957721e-01
     1.07090771e-01 -4.21949923e-02]
   [ 6.17549084e-02 -2.31974274e-02  3.69053148e-02 ...  6.58998489e-02
    -1.05190717e-01 -3.68555896e-02]
   [-3.46562304e-02  8.19393247e-02  1.68054309e-02 ... -6.66155517e-02
     1.05077147e-01  1.57689508e-02]
   [ 1.89834312e-01 -7.05669448e-02 -8.53205845e-02 ...  9.44191869e-03
     7.65068009e-02 -2.63378816e-03]
   [-2.09535304e-02  1.52203143e-01  9.70399603e-02 ...  1.56511634e-03
    -6.87071905e-02 -1.15523569e-03]]

  [[ 1.09494947e-01  1.60374209e-01  1.26015469e-01 ... -1.05183952e-01
     8.33403841e-02  2.04677388e-01]
   [ 1.82592291e-02 -1.00625396e-01 -1.26302019e-01 ... -4.94321547e-02
    -1.72997758e-01 -1.93088263e-01]
   [-4.04035300e-02 -6.55856356e-02 -1.54153991e-03 ... -1.31293774e-01
    -3.37766260e-02 -2.81781554e-02]
   [ 1.62241518e-01 -1.59505948e-01  1.17838733e-01 ... -8.74925330e-02
     1.48006126e-01  6.33966401e-02]
   [-8.98785219e-02  5.54229394e-02  1.13884769e-01 ...  9.72481817e-02
     1.37498617e-01 -1.23412218e-02]
   [ 1.16866760e-01  4.45573516e-02 -1.44224092e-01 ... -5.36833405e-02
     1.87875435e-01 -9.99412835e-02]]

  [[ 9.47094560e-02  3.12007871e-02  1.60372436e-01 ...  7.47245997e-02
     1.87231183e-01  3.85516398e-02]
   [ 8.03510994e-02 -7.67721981e-02 -5.25333285e-02 ...  7.52757564e-02
    -5.29085882e-02  8.38068277e-02]
   [-2.22129896e-01  1.17118731e-01  9.52386409e-02 ... -9.80357677e-02
    -9.64963809e-02 -2.63550170e-02]
   [ 1.84988957e-02  4.07003574e-02 -9.12797600e-02 ...  1.94249786e-02
     1.11547865e-01  1.28585100e-01]
   [ 7.02836961e-02 -1.87750682e-02 -1.68825090e-02 ... -1.34837672e-01
    -7.05960914e-02  2.39485484e-02]
   [-3.83185572e-03 -1.40727162e-01 -1.29480675e-01 ... -4.16477546e-02
     7.27020726e-02 -1.53515950e-01]]]


 [[[ 1.08969532e-01  7.18452111e-02 -1.44931167e-01 ...  1.21188641e-01
    -3.72485183e-02 -4.81122546e-02]
   [ 5.16828857e-02  9.90825742e-02 -1.19142212e-01 ... -2.77984180e-02
    -8.35022330e-02  8.41204673e-02]
   [-6.53808787e-02 -6.25461806e-03 -1.28135636e-01 ... -5.37650995e-02
    -8.22913200e-02  1.93165436e-01]
   [-1.08639397e-01  5.11577241e-02 -2.92697638e-01 ...  1.23655954e-02
     7.77678117e-02  8.46542716e-02]
   [-6.72387704e-02 -1.34776875e-01 -2.59348452e-02 ... -2.51118327e-03
    -1.05205074e-01  3.55358087e-02]
   [ 2.65869386e-02  1.96065176e-02  1.15200989e-01 ...  3.73724699e-02
    -1.08301714e-02  1.36703029e-01]]

  [[ 3.93444858e-02 -4.29528356e-02 -8.91525596e-02 ... -4.62776423e-02
     1.61277071e-01  7.35769346e-02]
   [-7.07360953e-02 -1.04390122e-01 -1.33152962e-01 ... -1.30953953e-01
    -7.13954493e-02 -6.41020685e-02]
   [ 7.80756399e-02 -1.53868780e-01 -1.92489117e-01 ...  6.19471967e-02
    -3.27792242e-02 -5.91947734e-02]
   [-9.11888927e-02 -2.58352365e-02 -1.70696452e-01 ...  3.01248170e-02
    -3.44470769e-01  7.92028978e-02]
   [ 7.15155974e-02 -8.04119483e-02 -3.90861221e-02 ... -6.53075203e-02
    -9.84964371e-02  1.21115647e-01]
   [ 2.98598595e-02  2.32230499e-01  9.85231325e-02 ... -1.68466177e-02
    -4.11214419e-02  7.37745315e-02]]

  [[ 1.04965046e-01 -1.39833525e-01  3.59223448e-02 ...  3.36330011e-02
    -1.34595083e-02 -3.55837606e-02]
   [-4.27664816e-02  5.05323783e-02  8.04560557e-02 ... -1.65391341e-01
    -3.30304471e-03  1.53087124e-01]
   [ 3.40701117e-05 -5.17448783e-02  1.05735384e-01 ... -1.72173366e-01
     3.78393359e-03  1.58326268e-01]
   [ 3.59886661e-02 -1.85209051e-01 -4.55271862e-02 ... -1.87520057e-01
    -1.06950961e-02  1.09838858e-01]
   [ 3.39024002e-03 -6.17984198e-02 -1.60185784e-01 ... -5.37764840e-02
     3.67531329e-02 -4.76879179e-02]
   [ 2.47591175e-02  3.75135355e-02  9.58880708e-02 ...  1.68811474e-02
    -3.52028869e-02  5.95537312e-02]]

  [[ 1.60231531e-01 -1.41824871e-01  3.91161591e-02 ...  1.16664015e-01
     6.35450110e-02 -4.25905623e-02]
   [ 8.90780166e-02 -8.68997499e-02  5.36309853e-02 ... -6.97266161e-02
    -1.09318448e-02 -3.33829038e-02]
   [ 2.18396960e-03  5.12302592e-02  1.82462424e-01 ... -1.97330937e-01
    -8.41841251e-02 -2.57417709e-02]
   [ 4.67734337e-02 -1.64523423e-01  3.24840397e-02 ...  8.92804936e-02
     3.91983800e-02  2.17133313e-01]
   [-4.91038524e-02 -2.33956769e-01  1.12118401e-01 ...  3.52311134e-02
     1.00161254e-01  5.57913743e-02]
   [ 1.33872017e-01 -2.81356554e-02 -7.40664825e-02 ...  1.17971957e-01
    -4.52051349e-02 -1.90400213e-04]]

  [[-2.65125316e-02  8.81015882e-02  1.09943762e-01 ... -1.57041565e-01
     1.84204474e-01  1.47906393e-02]
   [-7.54571185e-02 -3.32171232e-01  9.06755626e-02 ... -1.42999664e-01
    -1.66526176e-02 -4.46402989e-02]
   [ 2.17034653e-01  9.73499641e-02 -4.98297773e-02 ...  2.23348215e-01
     2.31194198e-02 -2.79257800e-02]
   [-4.98463251e-02  2.30687544e-01 -1.48325879e-02 ... -1.54377548e-02
     3.11893076e-02 -2.44028077e-01]
   [-9.72309262e-02 -3.02588772e-02  5.40302880e-02 ... -3.30465361e-02
    -1.78059433e-02  6.75820932e-02]
   [ 2.36180022e-01  8.69680271e-02 -1.61456913e-02 ...  4.41095233e-02
     1.51692316e-01 -8.33472982e-02]]]]
(5, 5, 6, 16)
[[[[-3.0674863 -3.1183999 -3.1808631 ... -3.0553095 -3.04306
    -2.90077  ]
   [-3.0288408 -2.9479394 -2.879556  ... -2.8663812 -2.9711804
    -3.103893 ]
   [-3.0254025 -3.0853825 -3.181185  ... -3.1180577 -3.0641885
    -3.151791 ]
   [-2.756198  -2.9327204 -2.8825057 ... -2.9838648 -3.0652275
    -3.0109544]
   [-3.064631  -3.0079503 -3.116149  ... -3.0455525 -2.9240441
    -2.894886 ]
   [-3.0020754 -2.9261212 -2.9364777 ... -2.9981987 -3.0105395
    -2.9863355]]

  [[-3.1052532 -3.0012133 -3.2192137 ... -3.0111716 -2.957463
    -3.1018372]
   [-2.880037  -3.2555342 -3.1057332 ... -3.049129  -3.087082
    -2.9054704]
   [-3.1961057 -2.9716485 -3.0201633 ... -3.005091  -3.077239
    -3.1463592]
   [-3.0587466 -2.863475  -3.1118572 ... -3.114164  -3.2258809
    -3.1051278]
   [-3.029296  -2.9204366 -3.009116  ... -3.0396926 -3.0881217
    -3.1598465]
   [-3.0142207 -3.0040603 -2.916884  ... -2.982605  -2.9426506
    -2.9809823]]

  [[-2.930031  -2.9732304 -3.047634  ... -3.004253  -3.0791466
    -2.8622978]
   [-3.0177813 -3.1091955 -3.0140789 ... -2.9695175 -2.9106688
    -2.9954503]
   [-2.9661658 -3.0995104 -2.8491688 ... -2.9926033 -3.0406601
    -3.1782777]
   [-3.1166983 -2.8740602 -2.8301117 ... -3.0511067 -3.0506463
    -3.1721125]
   [-3.0824609 -2.9859765 -2.9772253 ... -3.1692076 -3.08337
    -2.8618805]
   [-2.918745  -2.8675952 -2.9931114 ... -2.9343238 -2.950975
    -2.8327372]]

  [[-2.853822  -2.8278024 -2.9695876 ... -2.8480453 -3.0694406
    -3.1177428]
   [-2.9278178 -2.9961874 -2.8814056 ... -2.917319  -2.9523296
    -3.2661974]
   [-2.9589353 -3.0256538 -2.942817  ... -3.0375018 -2.9427087
    -2.8591964]
   [-3.0435677 -2.839165  -2.8783245 ... -2.9794664 -3.0012407
    -3.0137444]
   [-2.9668753 -3.0604486 -3.167507  ... -2.8087633 -2.987716
    -3.0083246]
   [-2.9960766 -2.906009  -2.8069098 ... -3.131288  -3.1074333
    -2.8942802]]

  [[-3.0770772 -2.9924896 -2.8950593 ... -3.0079565 -3.11784
    -2.9859395]
   [-3.0919461 -3.2323124 -3.1293547 ... -3.164824  -3.0697465
    -3.107863 ]
   [-2.972453  -2.82398   -3.055173  ... -2.9245055 -3.0950897
    -2.8839648]
   [-2.8815668 -3.0385551 -2.8745387 ... -2.9646802 -3.0346344
    -2.9051337]
   [-3.0563366 -2.8172324 -3.009223  ... -2.8865461 -3.0283227
    -3.0389674]
   [-2.904495  -2.778796  -2.8960311 ... -2.9972503 -2.802406
    -3.1671414]]]


 [[[-3.023853  -3.0046794 -3.0027618 ... -2.8573315 -3.058799
    -3.0046837]
   [-3.0369468 -3.0427551 -3.1169627 ... -3.1680634 -2.9164875
    -2.86005  ]
   [-3.156287  -3.0440419 -3.2132614 ... -2.9316545 -3.217146
    -2.8384547]
   [-2.7884805 -2.6249108 -2.993127  ... -3.0405405 -2.9600058
    -2.9049544]
   [-2.8305767 -2.7504857 -3.0094938 ... -3.1454444 -3.1337328
    -2.979853 ]
   [-2.9333866 -2.8447595 -3.04542   ... -3.1333237 -2.8144147
    -3.0017462]]

  [[-2.776405  -3.1264982 -2.7933211 ... -3.1757903 -2.9556558
    -2.9485126]
   [-2.93717   -3.0545423 -3.004275  ... -2.9942968 -3.036001
    -2.844581 ]
   [-2.8499036 -3.0778193 -3.1180923 ... -3.020339  -2.9948854
    -3.2181194]
   [-3.130181  -2.797968  -3.088755  ... -2.9737966 -3.0494826
    -3.1427388]
   [-3.0014632 -2.9703996 -2.798903  ... -3.0026636 -2.9912698
    -2.9736362]
   [-2.9883442 -2.9832237 -2.980806  ... -2.982857  -3.087577
    -3.2020793]]

  [[-3.0042243 -2.8953216 -2.7937396 ... -2.9547682 -3.3100574
    -2.965107 ]
   [-2.9888046 -3.3006854 -3.1285439 ... -3.0059032 -2.856293
    -3.0188081]
   [-3.0423982 -3.0795026 -2.9763174 ... -3.0808127 -2.9882922
    -3.0334175]
   [-3.2476258 -3.0682375 -3.0352788 ... -2.949497  -2.9601574
    -3.0095534]
   [-3.021147  -3.0097408 -3.04588   ... -3.052161  -3.0356777
    -3.0284967]
   [-2.9634378 -2.952456  -2.87002   ... -2.9617972 -2.9065607
    -2.9508536]]

  [[-3.0670316 -3.1784651 -2.9756532 ... -2.9911249 -2.8831127
    -3.1191373]
   [-2.8281999 -3.0869656 -2.862069  ... -3.0741594 -3.0711265
    -3.1300974]
   [-3.0137122 -3.018532  -2.969288  ... -3.0458457 -2.9265463
    -3.0797153]
   [-3.1579444 -2.9985726 -3.1047301 ... -3.1074955 -2.8803377
    -3.0480895]
   [-2.9767427 -3.1394002 -2.9646244 ... -3.1888204 -2.9678931
    -3.0498388]
   [-2.8504353 -2.847712  -2.9044926 ... -2.9559636 -3.0128164
    -3.1620007]]

  [[-3.0001242 -2.8257856 -2.9649851 ... -3.074702  -2.9340713
    -2.8939857]
   [-2.7400625 -3.0049055 -3.0031326 ... -2.9596086 -3.1143854
    -3.0371304]
   [-2.945653  -3.0362732 -3.0387552 ... -3.2083807 -3.0090709
    -2.8065882]
   [-3.078678  -2.9697201 -2.9441435 ... -2.9321175 -3.006023
    -2.9149945]
   [-3.002001  -3.0500343 -3.0221653 ... -3.0729718 -2.9706278
    -3.0262682]
   [-2.8684182 -3.0504315 -2.8906999 ... -2.8006535 -2.9482787
    -2.897843 ]]]


 [[[-2.9506369 -3.181738  -2.970097  ... -3.070053  -3.0011244
    -3.2133563]
   [-2.8186576 -3.1138945 -3.1023893 ... -3.0532062 -3.0971718
    -2.8609934]
   [-2.836189  -3.0192025 -2.9409957 ... -2.9417446 -3.063512
    -3.0669687]
   [-2.9478672 -2.9172513 -2.9398077 ... -3.0080173 -3.0611331
    -2.9550416]
   [-2.8940842 -2.85593   -2.983552  ... -2.9822156 -2.8868744
    -2.8430645]
   [-2.9546978 -3.0972683 -2.9600933 ... -2.8967316 -2.9238422
    -2.9509642]]

  [[-2.9474688 -2.9548917 -3.030054  ... -2.764126  -3.0381212
    -2.983936 ]
   [-2.913219  -3.1322389 -3.214518  ... -2.9957666 -2.9621809
    -2.9108355]
   [-2.9676487 -3.167836  -3.1621554 ... -3.0214782 -3.0145245
    -2.9240167]
   [-2.9554143 -3.1927783 -2.9220464 ... -3.0092483 -3.0901601
    -3.031157 ]
   [-2.910075  -3.0215037 -2.9948673 ... -3.0633354 -3.061585
    -2.9880416]
   [-3.0779023 -2.7937582 -2.95263   ... -3.081852  -2.9099734
    -3.0104644]]

  [[-2.9714222 -3.15807   -3.0747807 ... -2.9862041 -2.7112274
    -2.969409 ]
   [-3.0103676 -2.9213192 -2.9355652 ... -2.917094  -2.95819
    -2.9664063]
   [-2.874601  -2.8941185 -2.997399  ... -2.9849732 -2.8807025
    -2.9837368]
   [-3.0792906 -3.1370227 -2.963147  ... -2.9598405 -2.964175
    -2.9946704]
   [-3.0052152 -3.0829618 -2.9954746 ... -2.8852851 -2.9002044
    -2.7996948]
   [-3.0110383 -2.9128246 -2.9791243 ... -3.155621  -3.1097832
    -3.0108042]]

  [[-2.8589249 -3.137621  -2.704799  ... -3.146568  -2.9555013
    -3.127003 ]
   [-3.0677807 -3.0491376 -3.0195916 ... -2.951384  -2.9498906
    -2.892811 ]
   [-3.043009  -2.9657156 -3.146729  ... -2.9396563 -2.9723659
    -2.9620676]
   [-3.121087  -3.167722  -2.883801  ... -2.941418  -2.8655071
    -2.8561318]
   [-3.1947482 -2.8155737 -2.8524563 ... -3.0063798 -3.1701097
    -2.9819725]
   [-2.932642  -3.0322871 -3.1362424 ... -3.046852  -2.989986
    -3.175012 ]]

  [[-2.9756622 -2.792011  -2.9891808 ... -2.9154997 -2.9098957
    -2.9286065]
   [-3.1713338 -2.8768096 -2.9454768 ... -3.0818276 -3.051323
    -2.9394755]
   [-3.0062943 -2.987986  -2.9496086 ... -2.9067085 -2.9384077
    -3.05436  ]
   [-2.892326  -2.9381282 -2.9508302 ... -3.0753117 -3.063626
    -3.0428808]
   [-2.978798  -2.8648226 -2.9424517 ... -2.8177042 -3.0988297
    -3.1639597]
   [-3.0680811 -2.8656363 -3.1460266 ... -2.8429751 -3.1075103
    -2.9313312]]]


 [[[-2.8776395 -2.90166   -2.9515038 ... -2.8533041 -3.011174
    -3.0213094]
   [-2.978051  -2.985652  -2.96708   ... -3.0347946 -2.831292
    -3.073288 ]
   [-3.0946941 -3.0882254 -2.8478494 ... -3.0240774 -2.8653293
    -2.9068415]
   [-3.0659451 -3.075462  -2.9917371 ... -3.045618  -2.8849277
    -3.041781 ]
   [-3.017927  -3.0749335 -2.9697692 ... -2.7634168 -3.0037637
    -3.0678124]
   [-2.9988036 -3.0327835 -3.1009078 ... -2.9418802 -2.9479342
    -2.8773358]]

  [[-2.8552866 -2.7844276 -2.8991477 ... -3.0236082 -2.9767308
    -2.9786255]
   [-2.922435  -2.888072  -3.0924318 ... -3.0331829 -3.043447
    -3.0836136]
   [-3.0922315 -2.8272488 -3.1354299 ... -2.90447   -3.099653
    -3.112977 ]
   [-3.2147312 -2.9399915 -3.04152   ... -3.1627908 -2.9805474
    -3.1095855]
   [-3.1381316 -3.0947132 -3.0113163 ... -3.0140793 -3.0802007
    -2.9217427]
   [-2.9338002 -2.9982927 -2.8776393 ... -2.9406328 -3.1575944
    -2.8917806]]

  [[-3.1327717 -2.8668888 -3.0413756 ... -2.8792133 -3.020604
    -3.1375039]
   [-2.8917935 -3.1325362 -2.9443862 ... -2.8976917 -3.0198526
    -3.1021938]
   [-3.0681581 -2.9723685 -2.8782163 ... -2.925433  -2.913998
    -2.9444096]
   [-3.0861633 -2.9770186 -3.1070428 ... -3.1280012 -2.9180613
    -3.0182364]
   [-3.061976  -3.0020869 -3.0019922 ... -2.8803244 -2.9935124
    -2.992278 ]
   [-3.1399162 -2.853309  -2.9300528 ... -2.878647  -3.0882134
    -3.0762367]]

  [[-2.975682  -2.9894094 -3.106214  ... -3.177052  -2.9776177
    -2.9534295]
   [-3.087153  -2.99274   -3.0817652 ... -3.0532525 -3.0048103
    -2.9401727]
   [-3.0210092 -2.9709566 -2.9722402 ... -2.9450402 -3.101611
    -2.957022 ]
   [-3.1531959 -2.9730465 -2.862871  ... -3.0899045 -3.080117
    -3.18435  ]
   [-3.126983  -3.057811  -3.0033767 ... -2.8685637 -2.7851484
    -3.0062659]
   [-3.1426973 -2.8442621 -2.9693048 ... -2.9582505 -2.9669385
    -2.9349456]]

  [[-2.9544568 -2.8610458 -3.1791909 ... -2.8140192 -3.014961
    -3.0675168]
   [-2.9075487 -3.026503  -2.956331  ... -2.9867342 -2.9295843
    -3.1335642]
   [-3.0042357 -3.1355202 -2.9534974 ... -2.9723182 -2.9631004
    -3.0400317]
   [-3.0851378 -3.0687382 -3.0601482 ... -3.0566654 -2.9324973
    -3.0695312]
   [-3.0125868 -2.924618  -3.0696743 ... -3.001004  -3.0773296
    -2.8765726]
   [-3.0760431 -3.029913  -2.8177125 ... -3.158977  -2.885222
    -2.823885 ]]]


 [[[-3.0837665 -2.9519577 -2.942076  ... -2.928001  -2.8520458
    -2.9194913]
   [-3.1008391 -3.0233681 -2.9803617 ... -3.1131105 -3.1310933
    -2.8926067]
   [-2.9619405 -3.006198  -2.9303532 ... -2.8269804 -3.0204911
    -3.0913749]
   [-2.9205794 -3.0186074 -3.073786  ... -3.0938308 -3.086485
    -3.0195184]
   [-2.7981055 -2.863795  -3.0942326 ... -3.1649103 -2.9665513
    -2.9497645]
   [-3.0938358 -2.8835192 -3.0268893 ... -3.1763973 -3.0931523
    -2.8694358]]

  [[-3.1000276 -2.9511728 -2.8894727 ... -3.0590982 -3.0103347
    -3.031243 ]
   [-2.93348   -3.055268  -2.8924246 ... -2.9599507 -3.031043
    -3.0098927]
   [-3.0989337 -3.0879197 -3.0898662 ... -3.0232997 -3.136886
    -2.8396232]
   [-2.9718814 -2.8870363 -3.0508804 ... -2.9066525 -3.068317
    -3.1136792]
   [-3.041711  -2.9501147 -2.933671  ... -2.9990005 -3.022244
    -2.8968282]
   [-3.1126223 -3.0477576 -3.0999713 ... -3.0539026 -3.019676
    -3.1386676]]

  [[-3.1145515 -3.089223  -2.898324  ... -2.8087568 -2.9483275
    -2.9995232]
   [-2.9814062 -3.0193655 -3.0144956 ... -2.8512597 -2.9175875
    -3.0542822]
   [-2.990379  -3.074934  -3.1014757 ... -2.910985  -3.0287824
    -2.9540746]
   [-2.8363607 -3.0577328 -3.1052375 ... -3.068142  -2.9724057
    -2.951478 ]
   [-2.8471816 -3.061821  -2.9778547 ... -3.0847604 -3.0119812
    -2.9404857]
   [-3.0036964 -3.0431237 -2.926822  ... -3.0046337 -2.9128885
    -3.0070686]]

  [[-2.9912226 -2.8352501 -2.9624178 ... -3.0412292 -3.183906
    -2.9710658]
   [-2.8485625 -3.0976293 -3.0776336 ... -3.0603185 -3.1095283
    -2.9751658]
   [-3.042077  -3.0490975 -2.9804637 ... -3.150417  -2.9649515
    -2.792414 ]
   [-3.1518412 -2.94643   -3.0918827 ... -3.0326352 -2.8505964
    -3.142891 ]
   [-2.956753  -3.0215194 -3.0684903 ... -2.9735107 -2.8428607
    -2.903303 ]
   [-2.8783927 -2.997074  -2.8597803 ... -2.989762  -2.900208
    -3.014427 ]]

  [[-2.8817346 -3.0875063 -2.9262874 ... -2.9782035 -3.1713207
    -2.8517418]
   [-2.9673626 -3.0599043 -3.0187025 ... -3.0193968 -3.110355
    -2.8390665]
   [-2.9307985 -2.981949  -2.9459    ... -3.123444  -2.807044
    -3.0879302]
   [-2.9716065 -2.8739886 -2.774815  ... -3.195167  -3.1277986
    -3.1156614]
   [-2.8865912 -2.9676466 -3.0381885 ... -2.9588253 -2.9753408
    -2.9794457]
   [-2.8972151 -2.9359167 -2.9564695 ... -3.1707306 -2.8938918
    -2.985417 ]]]]
(16,)
[-0.08858379 -0.02031434  0.20275214  0.0674303  -0.04886208  0.18700074
  0.06809604 -0.01744689 -0.11516847  0.06689873  0.02669333  0.09875266
  0.05405524 -0.18846674 -0.02845131  0.11315054]
---BNN 3 weights---
---BNN 4 weights---
(5, 5, 16, 120)
[[[[-1.13377847e-01  6.71977550e-02  6.36618808e-02 ...  1.11667074e-01
     1.05580829e-01  2.64601503e-02]
   [ 4.83664684e-02  1.57928169e-02  2.51102149e-02 ... -5.47443591e-02
     4.15170603e-02  9.02313925e-03]
   [-5.20723052e-02 -4.76677977e-02  1.63646955e-02 ... -4.08176295e-02
     3.87303866e-02  7.36628100e-02]
   ...
   [ 5.68553396e-02 -2.78512333e-02  2.69332677e-02 ...  6.08022772e-02
    -9.07110199e-02  9.34025571e-02]
   [-4.46358584e-02 -7.78422281e-02  7.41719827e-02 ...  3.55742835e-02
     2.02646524e-01 -5.76074198e-02]
   [ 4.81333993e-02  1.32761868e-02 -8.63276497e-02 ...  1.15651920e-01
    -1.77519307e-01 -3.47135924e-02]]

  [[ 2.49181494e-01 -1.51684824e-02 -4.49980460e-02 ... -9.15752258e-03
    -7.42496625e-02 -8.34004208e-02]
   [ 8.68158266e-02  4.42107506e-02  4.30247225e-02 ... -2.37091213e-01
     6.66404590e-02  9.94401351e-02]
   [ 2.49885004e-02  2.10629217e-02  1.15249649e-01 ... -7.90971220e-02
     3.97318266e-02 -8.62414204e-03]
   ...
   [ 7.30897412e-02  8.86585489e-02 -2.61421334e-02 ... -4.90764305e-02
     1.12861834e-01 -2.41422169e-02]
   [-9.90982577e-02  1.40473485e-01  6.71835393e-02 ...  3.82507034e-02
    -5.80691285e-02 -6.26678094e-02]
   [-7.48968422e-02  5.56974374e-02  4.32873145e-02 ...  1.42099395e-01
     8.65588933e-02  7.11996183e-02]]

  [[ 4.94414242e-03 -1.31671175e-01 -2.88360175e-02 ...  3.35222743e-02
     8.95799175e-02  8.89920723e-03]
   [ 4.93521057e-02  5.54418527e-02  1.93810335e-03 ... -1.62070151e-02
     6.30418733e-02  2.49900650e-02]
   [ 4.85034063e-02 -1.52207956e-01 -1.64759383e-01 ... -1.25213891e-01
     1.12401322e-01  1.57726213e-01]
   ...
   [-1.92010209e-01 -2.87704449e-03  1.40483171e-01 ...  1.60769175e-03
     9.32780281e-02 -3.73285785e-02]
   [-4.10877466e-02 -4.68248315e-02  3.37179266e-02 ...  9.58942622e-02
     8.45285715e-04  8.79507810e-02]
   [-6.95237815e-02  2.18660086e-02  4.08022106e-02 ...  1.78549942e-02
     2.51209084e-02  1.51412142e-02]]

  [[-1.11264810e-02 -2.64670551e-02 -7.61267617e-02 ... -5.73324263e-02
    -1.50251046e-01 -9.11790952e-02]
   [ 3.13668065e-02 -1.08142488e-01 -8.54731575e-02 ...  1.17075779e-02
    -5.87366633e-02 -1.36782005e-01]
   [ 2.04356369e-02 -1.08294999e-02 -9.24364850e-02 ...  1.20194376e-01
    -5.63742928e-02  1.06600933e-01]
   ...
   [ 3.44893150e-02  4.69170548e-02  4.51543294e-02 ... -7.53973871e-02
    -5.53464070e-02 -1.12591639e-01]
   [ 9.84463990e-02  5.25379553e-02  2.74172556e-02 ...  2.21777093e-02
    -9.92305577e-02 -1.61947832e-01]
   [ 1.57157466e-01 -8.81867111e-02 -9.10165235e-02 ... -2.43863370e-02
    -7.95838460e-02  5.56817977e-03]]

  [[-1.35881260e-01  2.16967352e-02 -1.26771852e-01 ... -3.86056043e-02
     4.83919345e-02 -1.59928635e-01]
   [-2.51747761e-02  1.43131046e-02 -6.54289201e-02 ... -4.85740714e-02
     2.91370451e-02 -3.41185890e-02]
   [-1.90416262e-01 -8.63155723e-02 -6.57678694e-02 ...  5.58219962e-02
     6.51164651e-02  1.57022744e-01]
   ...
   [ 4.04347442e-02  2.87373569e-02 -9.61332992e-02 ... -1.08088724e-01
     2.18167831e-03  1.83343574e-01]
   [ 1.15359679e-01  3.97081673e-02  9.00883600e-02 ...  7.23954067e-02
    -2.45811064e-02  7.20057786e-02]
   [ 9.53829512e-02 -7.77436569e-02  3.46727036e-02 ...  9.93180946e-02
     3.52637433e-02 -1.85895916e-02]]]


 [[[ 6.94725737e-02 -3.51764739e-01  4.08694893e-02 ...  5.90010034e-03
     1.23705184e-02  1.26646280e-01]
   [-5.44428416e-02  1.92247942e-01 -2.34393142e-02 ... -7.70774558e-02
    -8.51624236e-02  9.48107429e-03]
   [ 6.37175962e-02 -7.96386525e-02 -6.78724498e-02 ...  5.85099049e-02
    -2.23324373e-02 -9.16907713e-02]
   ...
   [-1.18535263e-02  1.34124622e-01  7.20869601e-02 ...  4.99951839e-02
    -1.69303551e-01 -1.78014562e-01]
   [-2.81969588e-02  4.55332808e-02 -1.12430729e-01 ... -2.67815236e-02
    -1.07525542e-01 -1.29304947e-02]
   [-4.14080694e-02 -5.86796664e-02 -4.36622836e-02 ...  1.70873757e-02
     3.61643545e-02  1.03501633e-01]]

  [[-1.80424452e-02  6.28156215e-02  4.28764243e-03 ...  1.05568349e-01
     1.39731124e-01 -1.13682095e-02]
   [-1.44667374e-02  1.26043424e-01 -5.86731210e-02 ...  7.69976601e-02
    -4.42301407e-02  1.00447975e-01]
   [-8.65117833e-02 -4.99223992e-02  1.79007009e-01 ...  9.40802023e-02
    -2.10913569e-01 -2.82641258e-02]
   ...
   [ 3.11558638e-02  9.08047929e-02 -2.97296923e-02 ... -6.62005171e-02
    -2.57474761e-02 -2.06756480e-02]
   [-1.35112256e-02 -3.87535617e-02  1.11292258e-01 ... -1.11901097e-01
     1.04379617e-01  1.52369916e-01]
   [ 6.22942522e-02  1.65973436e-02 -1.08142093e-01 ...  2.80251838e-02
    -5.54383062e-02  1.19785190e-01]]

  [[-3.72690335e-02 -5.94998300e-02 -1.48119733e-01 ...  7.72128925e-02
     8.62551853e-02 -7.95519818e-03]
   [-2.47870535e-02  2.93064326e-01  1.37014613e-01 ...  1.85756404e-02
     1.51992813e-01  1.15919605e-01]
   [-1.33235240e-03 -1.18557760e-03 -7.98350126e-02 ...  1.82637051e-02
     1.38288578e-02 -4.26831432e-02]
   ...
   [-2.19473094e-02 -1.03510194e-01  8.61861836e-03 ...  2.87363529e-02
    -1.14263050e-01  7.26919994e-02]
   [ 1.41693771e-01  6.85763359e-02 -1.12404600e-01 ...  4.31045853e-02
    -1.00399435e-01  1.44385666e-01]
   [-2.64520049e-02  1.35085031e-01 -8.40700045e-03 ... -2.12702025e-02
     7.03077540e-02  1.50239319e-01]]

  [[ 2.21964996e-02  2.68196221e-02 -1.33382097e-01 ... -7.82619715e-02
     6.39422908e-02 -5.27668074e-02]
   [-8.93831104e-02  1.06715612e-01 -5.68497069e-02 ... -1.03273265e-01
     1.11360885e-01 -1.36993289e-01]
   [-7.62296394e-02 -3.43345734e-03 -2.07041781e-02 ... -9.21983924e-03
     1.18583046e-01 -6.11773543e-02]
   ...
   [ 1.51621744e-01  2.05987409e-01 -1.19553499e-01 ...  1.25902519e-02
     1.15160681e-02  2.73931623e-01]
   [-1.16561018e-02  5.44869713e-02  1.10344782e-01 ... -1.24430709e-01
     1.06195383e-01  3.08599919e-02]
   [ 7.02077672e-02  6.08204678e-02  2.16705874e-01 ...  1.15732871e-01
    -3.67160700e-02 -3.14623825e-02]]

  [[-8.81837755e-02 -1.39085889e-01 -1.97119713e-01 ... -3.98004986e-02
    -3.11294999e-02 -8.54313821e-02]
   [ 3.64408195e-02  5.20204194e-02 -2.20946465e-02 ...  2.03590468e-01
     3.44713032e-02 -1.17481247e-01]
   [ 1.99358668e-02 -2.37953346e-02 -1.23333313e-01 ... -1.27868084e-02
     1.17240265e-01  7.35528469e-02]
   ...
   [-9.27047506e-02  4.16051894e-02 -1.78427756e-01 ... -2.98186974e-03
     8.70185345e-02 -7.79129639e-02]
   [-4.73176651e-02 -6.23275451e-02  3.01126894e-02 ... -3.45354676e-02
     7.40261301e-02  6.79995343e-02]
   [-7.16197044e-02  8.11609626e-02 -1.45350799e-01 ...  4.43783626e-02
     5.59396334e-02  1.70801118e-01]]]


 [[[ 6.64965659e-02  7.26481676e-02 -8.02578703e-02 ... -1.54720649e-01
    -7.77443498e-02  7.45450631e-02]
   [ 1.12166842e-02 -1.93111636e-02 -1.24734476e-01 ... -1.44032300e-01
    -2.50730310e-02 -6.41588792e-02]
   [-1.03038423e-01  1.17949985e-01 -3.29654887e-02 ... -1.44841699e-02
     1.71213731e-01  8.57644007e-02]
   ...
   [ 1.23934709e-01 -2.13958137e-02 -3.57142501e-02 ... -1.76841006e-01
     4.54317266e-03 -2.57290751e-02]
   [ 1.07417516e-01 -7.46474788e-02 -1.04918338e-01 ... -3.60121056e-02
     6.17732182e-02  1.13590278e-01]
   [ 3.27736251e-02 -4.70056199e-02 -9.81599614e-02 ... -1.07339561e-01
    -7.13402703e-02 -7.17346519e-02]]

  [[-5.02019711e-02  2.35954355e-02 -1.86201721e-01 ... -1.26037702e-01
    -3.21327755e-03 -1.76443979e-01]
   [-1.08279146e-01  4.45982479e-02  7.17757493e-02 ... -1.41908154e-01
    -2.03575678e-02  9.18342993e-02]
   [-1.81491617e-02 -1.29994452e-01 -1.52926510e-02 ... -1.06948994e-01
    -6.46372885e-02 -3.67634036e-02]
   ...
   [-7.28567764e-02 -3.58388945e-02 -3.53342071e-02 ...  1.98605172e-02
    -8.00567791e-02  1.97060153e-01]
   [-1.90300122e-02  1.51592061e-01 -4.68477532e-02 ... -1.18063532e-01
     3.15013132e-03 -5.99714592e-02]
   [ 1.08582877e-01  1.99108347e-01 -1.08359508e-01 ...  1.75044402e-01
    -1.66660532e-01  6.43735453e-02]]

  [[ 1.29962310e-01 -2.39502117e-02 -7.26717934e-02 ...  9.67379287e-03
     2.17829347e-02  6.47768229e-02]
   [ 3.64021584e-02 -2.35474631e-02 -6.00372143e-02 ... -3.12505066e-02
    -2.76860711e-03 -1.22018911e-01]
   [ 1.30249888e-01  7.74258375e-02 -1.20645545e-01 ...  7.16167539e-02
    -3.08022201e-02 -2.29448870e-01]
   ...
   [-4.12638411e-02 -1.89420536e-01 -2.04214118e-02 ... -8.27801898e-02
    -3.02383136e-02 -2.09737971e-01]
   [ 1.30168693e-02 -4.77211885e-02 -3.26728001e-02 ...  1.55821070e-01
    -3.97500303e-03 -7.44625777e-02]
   [-2.15430092e-02  5.63184805e-02 -2.32527062e-01 ...  1.34833261e-01
    -2.98390444e-02 -1.65407788e-02]]

  [[-1.24226980e-01 -1.73603565e-01 -1.36443317e-01 ... -4.77247834e-02
    -9.83500108e-02 -2.41401121e-01]
   [ 1.11610452e-02 -2.19574012e-02 -2.15427279e-02 ...  8.41402337e-02
     1.84107877e-04  7.38803074e-02]
   [ 2.92993397e-01 -4.86421026e-02 -1.26203701e-01 ...  1.25417672e-03
    -6.80153295e-02  9.37156603e-02]
   ...
   [ 1.51748015e-02 -1.48035139e-01  7.89518133e-02 ...  9.57912207e-02
    -1.20321484e-02  1.72231216e-02]
   [ 6.38565794e-03  5.42110987e-02  4.26099412e-02 ...  8.31499472e-02
    -1.34297311e-01 -2.30723098e-02]
   [-2.78617032e-02  2.93220133e-02 -1.66558810e-02 ...  6.59722313e-02
    -3.31461690e-02 -1.29993305e-01]]

  [[ 2.16102317e-01  1.18144833e-01 -1.25857862e-02 ... -1.02694988e-01
    -1.86984967e-02 -3.96181606e-02]
   [ 2.96880361e-02  1.03057124e-01  8.07581320e-02 ...  2.41226498e-02
    -5.89648373e-02  7.35907108e-02]
   [-8.83998349e-02 -2.65545189e-01 -2.77409740e-02 ...  1.19851544e-01
     3.90886031e-02  9.03357640e-02]
   ...
   [ 1.15387045e-01  1.11914657e-01  7.67516494e-02 ...  3.71488929e-02
    -1.28654107e-01  1.75155774e-01]
   [ 4.04620320e-02 -3.32509913e-02 -8.95558819e-02 ...  5.16788252e-02
     4.89350855e-02 -8.91038775e-02]
   [ 7.05553815e-02 -7.48660564e-02 -1.90219861e-02 ... -5.17542474e-02
     1.72357723e-01  3.75077501e-02]]]


 [[[ 2.72230804e-01 -1.50509477e-01 -7.55167454e-02 ...  1.91143021e-01
    -7.49826506e-02 -3.07177044e-02]
   [ 1.63863063e-01  2.26192623e-02 -7.87301064e-02 ... -3.75935808e-02
    -3.95792089e-02  2.51680434e-01]
   [-1.17434375e-01  1.63375791e-02 -7.13617820e-03 ...  1.46097675e-01
    -1.62957475e-01  2.45897159e-01]
   ...
   [-1.22894682e-01  7.50287175e-02 -3.12925577e-02 ... -6.05089916e-03
     6.40920699e-02  1.00634014e-02]
   [-9.82023254e-02 -4.77059446e-02  1.45514950e-01 ... -5.44727854e-02
    -1.50243109e-02  3.40762846e-02]
   [-2.20350981e-01 -2.06334125e-02 -6.04035072e-02 ...  1.09521143e-01
     8.79709050e-02 -1.81609597e-02]]

  [[-1.19516114e-02 -2.33559281e-01  1.35755658e-01 ... -7.87063595e-03
     1.44329369e-01 -5.16544394e-02]
   [ 1.24374524e-01  3.01816855e-02 -2.36016996e-02 ... -1.56925887e-01
    -7.72705898e-02  8.42495039e-02]
   [ 1.41929701e-01  5.10567315e-02 -2.40880087e-01 ...  2.06850156e-01
     2.44076088e-01  1.96591452e-01]
   ...
   [-6.02297187e-02  3.43467474e-01 -1.77178904e-02 ...  4.74107973e-02
     4.09839079e-02  1.02079228e-01]
   [ 1.03989676e-01 -1.38708040e-01  2.75351387e-02 ... -5.10273837e-02
    -1.03311218e-01 -4.52187099e-02]
   [ 6.56445250e-02 -3.43011245e-02  8.34362283e-02 ... -2.60570496e-02
     3.56627554e-02  1.38732612e-01]]

  [[ 3.42499204e-02  1.71997443e-01 -2.26336587e-02 ... -6.51285276e-02
     4.77775596e-02 -5.74000143e-02]
   [-3.50218974e-02 -7.29794726e-02 -3.13885137e-02 ...  1.25996932e-01
     2.12337255e-01  1.67702973e-01]
   [-1.81414694e-01  1.03311099e-01 -2.45197937e-02 ... -9.79189202e-02
     1.29463747e-01 -2.74507459e-02]
   ...
   [ 6.34825155e-02  8.73457417e-02 -8.58152732e-02 ... -6.22678362e-02
     8.21969733e-02  1.23818316e-01]
   [ 1.52211919e-01 -1.16269337e-02  1.61201209e-01 ...  6.44865558e-02
     1.50680229e-01 -1.67201776e-02]
   [ 7.48301223e-02 -6.91995844e-02  6.75884709e-02 ... -2.67082095e-01
     1.47862285e-01  7.22704083e-03]]

  [[-1.17203807e-02 -6.15473986e-02 -2.36495938e-02 ... -1.18627146e-01
     8.13074186e-02  3.71055380e-02]
   [ 2.18399793e-01 -8.43958650e-03 -7.34488070e-02 ...  1.39095500e-04
    -1.39225572e-02  1.71015590e-01]
   [-3.33891995e-02  1.28305405e-01 -1.25240162e-01 ...  1.52542949e-01
    -4.40327637e-02 -7.48391226e-02]
   ...
   [-1.03997998e-01 -6.14118055e-02  2.19729781e-01 ... -7.78423175e-02
    -1.77280650e-01  3.99701297e-02]
   [ 4.34870757e-02 -2.13096663e-01  2.04549670e-01 ...  8.57608393e-02
     1.93735018e-01  7.94413313e-02]
   [-3.75804938e-02  4.16212417e-02 -5.44153452e-02 ... -1.53004035e-01
    -4.72391509e-02  1.23490348e-01]]

  [[ 1.64372120e-02 -1.80829596e-02  2.00178191e-01 ... -4.91157584e-02
     4.61736731e-02  1.63693707e-02]
   [ 1.64954606e-02 -1.39506981e-02 -7.44909570e-02 ...  3.30663800e-01
     1.22605942e-01  8.79508182e-02]
   [ 1.64171711e-01 -1.09912075e-01 -3.81138958e-02 ... -2.07021665e-02
     3.11491527e-02  3.54616754e-02]
   ...
   [ 9.01964679e-02  4.96304817e-02  9.95100960e-02 ...  6.09210394e-02
     1.69405492e-03 -6.54265508e-02]
   [-1.56179026e-01 -5.79049252e-02  3.11507937e-02 ...  1.02365673e-01
    -1.24970891e-01 -1.70256887e-02]
   [-1.14861988e-02 -8.89035091e-02  5.81690371e-02 ... -2.18685731e-01
     1.87118098e-01  5.05775996e-02]]]


 [[[-1.11559685e-02 -2.41495892e-01 -5.76753393e-02 ... -8.04379359e-02
    -8.02816078e-02  1.00530602e-01]
   [ 1.74784005e-01  2.39681914e-01  1.38229415e-01 ...  1.35568410e-01
    -2.29596004e-01  3.48845236e-02]
   [ 4.07343172e-02 -6.09076805e-02 -5.63891493e-02 ... -8.50439593e-02
    -7.94772208e-02 -2.35969663e-01]
   ...
   [ 2.43235789e-02 -8.41941163e-02  6.03138171e-02 ... -1.27198309e-01
    -3.80325317e-02 -1.44855097e-01]
   [-9.91564896e-03  9.72766988e-03  5.42763770e-02 ...  1.15130976e-01
     3.79772969e-02  9.25177429e-03]
   [ 4.34224606e-02  9.40158516e-02  7.57932290e-02 ...  2.91639660e-02
     8.59727710e-02  4.00245376e-02]]

  [[ 5.90492450e-02  9.59626138e-02 -1.49879633e-02 ...  1.19549129e-02
    -8.84925276e-02 -7.07819611e-02]
   [ 1.26839522e-02  4.25236188e-02 -2.23612431e-02 ...  2.49332339e-01
     1.69503838e-02  4.72532772e-02]
   [ 6.85805008e-02  4.11887057e-02  1.84119880e-01 ... -5.53538986e-02
     6.61997423e-02 -6.93079159e-02]
   ...
   [ 2.45104786e-02  1.63269162e-01  7.12170526e-02 ...  4.78978734e-03
     1.12995794e-02 -5.60876131e-02]
   [-4.67422530e-02  6.14905125e-03  2.82676127e-02 ... -4.08171229e-02
     1.48085386e-01 -5.29336222e-02]
   [-4.59373929e-02  4.47772704e-02  2.52427291e-02 ...  4.24954593e-02
     1.74074039e-01  1.22416615e-02]]

  [[-8.10730085e-02 -1.20100655e-01  7.36374781e-02 ...  1.16616212e-01
     1.91132680e-01  5.63836806e-02]
   [ 3.07350725e-01 -1.55450599e-02  7.98389614e-02 ...  2.45873984e-02
    -2.53651720e-02  1.33211181e-01]
   [-2.35699825e-02  1.48553848e-02 -8.03183615e-02 ... -1.74499258e-01
     1.25210896e-01 -5.38995974e-02]
   ...
   [ 2.71213800e-02  9.55521986e-02  1.71199098e-01 ... -8.04994162e-03
     1.55379355e-01  1.35478541e-01]
   [ 1.62579134e-01 -4.42916295e-03 -2.24452808e-01 ...  1.42584696e-01
     4.10471819e-02 -1.63686976e-01]
   [-1.95641458e-01 -1.12461843e-01  6.59703761e-02 ... -1.07778549e-01
     1.91213321e-02  1.14877475e-02]]

  [[-2.04578787e-01 -9.09104645e-02 -1.32114753e-01 ...  7.78320655e-02
    -1.04945503e-01 -8.32213368e-03]
   [-1.42743811e-01 -5.37516586e-02  1.12884738e-01 ... -3.98704410e-02
     2.70383488e-02  6.85377568e-02]
   [-1.02613382e-01 -7.41934404e-02 -4.49398980e-02 ...  2.42371075e-02
    -1.10198008e-02 -1.88420519e-01]
   ...
   [ 1.32514462e-01  1.26554251e-01  1.63216278e-01 ...  6.75814971e-02
     1.60864472e-01 -1.55284673e-01]
   [-6.69529364e-02 -2.47506499e-01 -5.54046221e-02 ...  1.02878466e-01
     1.76777062e-03 -3.45941782e-02]
   [-3.91446799e-03  5.33159152e-02  1.04522482e-01 ...  7.12237135e-02
    -7.15675279e-02  7.56274462e-02]]

  [[ 3.84068303e-02 -1.99995235e-01 -1.42125279e-01 ...  1.25149906e-01
    -4.45231870e-02 -1.96281686e-01]
   [-1.13837950e-01 -1.29809231e-01  8.90119821e-02 ... -1.93238482e-01
    -9.76723135e-02 -4.65883724e-02]
   [-9.32055116e-02  5.62588274e-02 -1.10795975e-01 ...  6.17820099e-02
    -5.89337945e-02 -1.74946651e-01]
   ...
   [-5.16687632e-02  1.30673498e-01 -1.07459784e-01 ...  4.87777889e-02
     1.13326155e-01  1.55280650e-01]
   [-2.29679737e-02 -4.48978739e-04 -4.81071174e-02 ... -6.12456501e-02
    -1.72948360e-01 -6.30425736e-02]
   [-2.43145511e-01 -1.34546712e-01 -1.77356079e-01 ... -2.41385102e-02
    -7.35463900e-03 -1.17660753e-01]]]]
(5, 5, 16, 120)
[[[[-3.1378944 -3.0678988 -2.8087409 ... -3.016404  -3.0675848
    -3.0189767]
   [-2.9144323 -2.9754543 -2.9862905 ... -2.9324434 -2.9230359
    -3.0168517]
   [-3.1407285 -3.0550165 -3.037726  ... -3.0901384 -3.0229766
    -2.9878523]
   ...
   [-3.074301  -2.860404  -2.9325743 ... -3.1661704 -3.140466
    -2.9986136]
   [-3.0514185 -3.0410805 -2.9703155 ... -2.766679  -3.1310904
    -2.8953793]
   [-2.969744  -3.0088098 -2.982969  ... -3.104787  -3.1014593
    -3.1647954]]

  [[-3.0969088 -3.0753775 -3.0329318 ... -3.0462809 -2.9569697
    -3.117869 ]
   [-3.1297624 -3.1901915 -3.006025  ... -2.8932493 -2.9991019
    -2.9925804]
   [-3.221595  -3.0574872 -3.0136468 ... -2.941599  -3.0143104
    -3.00747  ]
   ...
   [-3.031413  -2.811414  -3.0957892 ... -2.8556566 -3.061386
    -3.045805 ]
   [-3.1271102 -3.0288267 -3.2155762 ... -3.027194  -2.8788414
    -3.0860791]
   [-2.8427238 -2.901492  -2.9540486 ... -2.9195805 -2.8971977
    -3.0090365]]

  [[-3.0986059 -3.047504  -3.1180513 ... -2.9946692 -3.0792503
    -2.9835343]
   [-2.778635  -3.00751   -2.9937584 ... -2.8444347 -3.114144
    -3.0145926]
   [-2.9076211 -2.96903   -3.1462204 ... -2.9500918 -2.9351578
    -3.0833306]
   ...
   [-2.81639   -3.1864705 -2.9614398 ... -2.9407701 -2.8879144
    -2.9982681]
   [-2.8777978 -2.9835837 -3.00912   ... -2.9448688 -2.915845
    -2.9739475]
   [-3.008324  -2.9906015 -3.0559464 ... -3.0353982 -2.8112068
    -2.8428924]]

  [[-3.086536  -2.9556797 -2.821851  ... -2.9726486 -3.090899
    -2.8661048]
   [-3.054623  -3.0133104 -3.0179112 ... -2.91274   -2.9140468
    -3.1396549]
   [-2.872202  -3.0558765 -2.9666338 ... -3.1582484 -3.0618773
    -3.0281138]
   ...
   [-2.9223294 -2.9088976 -2.9653623 ... -3.0891998 -2.8100648
    -3.152366 ]
   [-3.1143222 -3.0668414 -3.00533   ... -3.0232596 -3.1467814
    -3.1419606]
   [-2.9837143 -3.0221548 -2.9843183 ... -2.9456072 -2.921159
    -2.93985  ]]

  [[-2.867279  -2.953455  -3.1046114 ... -2.9996424 -2.923709
    -2.9163134]
   [-3.146933  -3.052241  -3.011108  ... -3.0354455 -2.9316866
    -3.1301458]
   [-2.8704216 -3.01336   -3.1303632 ... -3.0542805 -3.0076401
    -3.0192146]
   ...
   [-2.9374235 -2.806892  -3.1627831 ... -2.942238  -2.9542513
    -3.0904596]
   [-3.1129503 -2.8833435 -2.8124652 ... -3.1249743 -2.9615307
    -3.1846325]
   [-3.109087  -3.0440245 -2.895796  ... -3.08187   -3.1777864
    -3.1901736]]]


 [[[-3.0579758 -2.9699328 -2.950515  ... -3.1214776 -3.0279074
    -2.9009688]
   [-2.8444254 -2.857078  -2.975458  ... -3.004787  -2.9024456
    -2.9609406]
   [-2.951406  -2.8250456 -2.9771066 ... -3.0226283 -3.061314
    -2.9508052]
   ...
   [-2.9403894 -2.9839377 -2.9167018 ... -3.126898  -3.0421855
    -2.998487 ]
   [-2.8199828 -2.9296894 -2.935716  ... -2.8901238 -2.979755
    -2.859899 ]
   [-2.9088292 -2.9619563 -2.9794724 ... -2.9973528 -2.8480864
    -2.8082223]]

  [[-3.071708  -2.9999118 -3.0886135 ... -2.9899054 -3.0293186
    -3.0043924]
   [-3.0930395 -2.9415019 -2.9100628 ... -3.0306566 -3.0075676
    -3.0232053]
   [-3.0437944 -3.0554025 -3.0769498 ... -2.9107118 -3.0139158
    -2.8273907]
   ...
   [-2.9624262 -2.9962425 -3.1701074 ... -2.9877467 -2.8638692
    -3.0443175]
   [-2.9164226 -3.1619356 -2.8709047 ... -3.1288576 -2.9763484
    -2.9578023]
   [-2.937902  -2.986007  -3.0526419 ... -2.9946377 -3.036579
    -2.9019153]]

  [[-2.8769045 -3.1570761 -3.1084056 ... -2.9282823 -2.9840157
    -2.9620664]
   [-3.097522  -2.8150973 -2.9169102 ... -2.9423404 -3.021198
    -3.1196375]
   [-2.9851565 -2.969814  -2.9530168 ... -2.792913  -2.991666
    -2.9164515]
   ...
   [-2.9180503 -2.9936912 -2.966878  ... -2.8239472 -3.0725744
    -3.0806065]
   [-2.9813519 -3.1807315 -2.8950913 ... -3.1203334 -3.016247
    -2.8305087]
   [-2.9596245 -3.2394984 -3.0445259 ... -2.9551394 -3.106777
    -2.8944688]]

  [[-3.0014195 -3.0423858 -2.8663778 ... -3.0279117 -2.9316156
    -3.0762877]
   [-2.9843986 -2.9644163 -2.9957075 ... -3.0466986 -3.1717956
    -2.9837408]
   [-3.1101027 -3.1331818 -2.856432  ... -2.8426564 -2.8560746
    -3.0634627]
   ...
   [-3.021281  -2.8561566 -2.8562155 ... -3.0053198 -3.059119
    -3.0729496]
   [-3.0388556 -2.9938085 -3.0602248 ... -3.0213697 -2.9178221
    -2.99898  ]
   [-3.004606  -2.887866  -3.0717602 ... -3.0384908 -3.00656
    -3.1111505]]

  [[-3.141618  -3.0732324 -3.14634   ... -2.880026  -2.876044
    -3.0045066]
   [-2.9931617 -2.976983  -3.1716535 ... -2.816157  -3.2190125
    -3.1362867]
   [-2.866311  -3.0514257 -3.2143216 ... -2.9455395 -3.0415728
    -2.8759065]
   ...
   [-3.1463408 -3.0339835 -2.8827631 ... -3.089345  -3.0399325
    -3.0894763]
   [-2.9991453 -2.9947505 -2.8444872 ... -3.1585267 -2.9602733
    -2.8497612]
   [-2.9560544 -2.8965764 -2.9135516 ... -3.115199  -3.0908687
    -2.8921025]]]


 [[[-3.0234554 -3.1088831 -2.877281  ... -3.0625324 -3.126252
    -3.0065997]
   [-3.0427277 -2.8697565 -3.0405529 ... -2.9480813 -2.9576557
    -2.910136 ]
   [-2.9243414 -3.0105488 -2.9778123 ... -2.9255166 -2.8965113
    -3.03536  ]
   ...
   [-3.023025  -3.0600681 -3.0741568 ... -2.7752223 -2.929899
    -3.1009605]
   [-2.978983  -2.9135056 -2.833006  ... -3.0008972 -3.0234683
    -3.1216698]
   [-3.1861608 -3.016298  -2.9139214 ... -2.9379737 -2.9398592
    -2.8667986]]

  [[-3.00609   -3.0420306 -3.0718052 ... -2.9230804 -2.960504
    -3.1833725]
   [-2.8909981 -3.005204  -2.9804127 ... -3.2017422 -3.0725667
    -2.702301 ]
   [-3.04873   -2.9815042 -2.9006195 ... -3.0047534 -3.051692
    -3.1590767]
   ...
   [-2.9143856 -2.9046583 -2.759944  ... -3.118154  -3.0599303
    -2.9912603]
   [-2.850597  -2.9917517 -2.894843  ... -2.9070933 -2.9633033
    -3.032942 ]
   [-2.8038745 -3.0810115 -2.9279356 ... -2.7868822 -3.0594656
    -3.1217105]]

  [[-2.9597256 -3.0742853 -3.0014067 ... -3.1009793 -2.8732426
    -3.0315766]
   [-2.9077084 -3.0597217 -3.0497136 ... -3.0335743 -2.9818776
    -2.730893 ]
   [-2.9698968 -3.0371628 -2.918917  ... -3.068782  -3.0307975
    -3.0385602]
   ...
   [-3.0427957 -3.1265538 -3.1240258 ... -2.9357376 -2.9564903
    -2.9920259]
   [-2.9478672 -2.982976  -2.9286406 ... -2.977939  -2.9847882
    -3.0019622]
   [-3.2615345 -2.9841049 -2.9704368 ... -3.1283646 -2.947837
    -2.9948194]]

  [[-2.8943179 -2.9093683 -3.1900034 ... -2.9807713 -3.0640576
    -2.8385725]
   [-2.964018  -2.974391  -3.0757632 ... -3.0477903 -3.0420294
    -3.0372612]
   [-3.1137784 -2.7461643 -2.9896436 ... -2.9971206 -2.9996738
    -2.9953103]
   ...
   [-3.0285993 -2.930406  -2.811977  ... -2.986425  -3.0248685
    -3.01353  ]
   [-2.954529  -3.0501318 -3.1434424 ... -2.9388738 -2.9552903
    -3.0546079]
   [-2.8989618 -3.0148177 -2.9546163 ... -2.9614134 -3.1092663
    -3.185559 ]]

  [[-3.0434744 -3.0009923 -2.809171  ... -2.8984842 -3.079908
    -3.1460748]
   [-3.0022714 -3.0250714 -3.074851  ... -3.101884  -2.876989
    -3.0656927]
   [-2.9337087 -2.7503595 -3.056     ... -3.1479516 -2.943308
    -2.942936 ]
   ...
   [-2.9298682 -2.973127  -2.9430137 ... -3.050756  -2.8915029
    -2.9193387]
   [-2.9480474 -2.999852  -3.0612726 ... -3.1355884 -3.1836421
    -3.2150948]
   [-2.979083  -3.0020807 -3.0689511 ... -2.8884528 -3.0549378
    -2.9165528]]]


 [[[-3.1686654 -3.1568878 -2.9596696 ... -2.8174472 -2.9754386
    -2.7966313]
   [-3.0604954 -3.075923  -3.075971  ... -3.0160394 -2.9436302
    -3.0806348]
   [-3.0384753 -2.9474213 -3.0767057 ... -2.9557462 -3.047776
    -3.047029 ]
   ...
   [-3.1484287 -2.895324  -2.9758642 ... -3.034007  -2.9712002
    -3.1010182]
   [-3.1463194 -3.0004253 -2.9202523 ... -3.023087  -2.967769
    -2.8618615]
   [-2.8596966 -2.898097  -2.9941573 ... -3.0341752 -3.0352273
    -3.0503957]]

  [[-2.9444873 -3.0577328 -3.0425248 ... -3.0016606 -3.0453112
    -2.8379674]
   [-2.93184   -2.8941305 -2.9604065 ... -3.077292  -2.9972894
    -3.1735668]
   [-3.0608037 -3.1649399 -2.8129334 ... -3.0236473 -2.9414494
    -3.0114815]
   ...
   [-3.1245015 -3.0525506 -2.862545  ... -2.940354  -3.0110261
    -2.918791 ]
   [-3.0555074 -3.0810294 -2.9933226 ... -3.0760686 -2.835229
    -2.9945858]
   [-3.0358677 -2.8708725 -3.0462644 ... -3.1337795 -3.0444841
    -3.0089326]]

  [[-3.2712755 -2.9184103 -2.9722571 ... -2.8039353 -2.9954882
    -3.2063348]
   [-3.2376258 -3.043859  -2.8414567 ... -2.8960352 -2.9526122
    -2.9738235]
   [-2.9429204 -2.9460745 -2.9193196 ... -2.7586105 -3.2511408
    -2.8680487]
   ...
   [-2.8633084 -3.0516946 -3.0907922 ... -2.9762297 -3.062861
    -3.189739 ]
   [-2.7783315 -2.871946  -2.8188615 ... -3.138936  -2.998581
    -3.1164315]
   [-3.00751   -3.182003  -3.025365  ... -2.8204536 -2.944981
    -2.9171817]]

  [[-3.0122442 -2.8608267 -2.9950185 ... -3.098132  -2.945724
    -2.8769054]
   [-2.913686  -3.031393  -2.989618  ... -3.048663  -2.9973896
    -2.9297812]
   [-2.9884772 -2.9710429 -3.0171123 ... -3.0492625 -3.0724108
    -2.9681091]
   ...
   [-3.0252807 -3.1135361 -2.8684106 ... -3.046181  -2.9001644
    -3.1303906]
   [-2.9940581 -3.0204804 -2.9175634 ... -3.0246012 -2.9636776
    -3.0380595]
   [-3.0012183 -3.0015767 -2.989289  ... -2.9059286 -3.0189223
    -2.9981096]]

  [[-3.052323  -2.9496474 -2.9313624 ... -2.9169705 -3.0323253
    -2.9051719]
   [-2.9443743 -3.0823634 -2.9257445 ... -3.3149664 -3.1404965
    -3.072383 ]
   [-3.0828397 -3.0952785 -2.675596  ... -3.0913131 -3.112162
    -2.8115876]
   ...
   [-2.9793901 -3.0324795 -2.9704432 ... -2.9609234 -2.9788818
    -2.9291623]
   [-2.8861175 -3.0652714 -2.870949  ... -2.9337761 -2.851818
    -3.0075414]
   [-2.9394524 -2.9406307 -2.894474  ... -2.7788253 -3.0108662
    -3.113215 ]]]


 [[[-2.956007  -2.852683  -2.8844266 ... -2.8581653 -3.0191522
    -3.1185584]
   [-2.9957042 -3.0809925 -3.0522554 ... -3.109229  -2.8511689
    -2.8801873]
   [-2.912523  -2.8405955 -2.9255884 ... -2.9178739 -2.9249585
    -3.066331 ]
   ...
   [-2.8728125 -2.9654303 -2.9904768 ... -2.9278684 -2.9987674
    -3.2271948]
   [-2.8880417 -2.908522  -2.8504663 ... -2.864478  -3.16059
    -3.04379  ]
   [-2.9023108 -3.0725152 -2.8663404 ... -2.860496  -3.036579
    -2.9403977]]

  [[-2.9303193 -2.9669917 -3.010888  ... -2.9881363 -2.916672
    -3.0070903]
   [-2.8611822 -2.9877443 -3.0765777 ... -3.1117878 -2.9114301
    -3.1269226]
   [-2.9383175 -2.9277225 -2.892676  ... -2.8711233 -2.9230638
    -3.1580937]
   ...
   [-2.9024768 -2.9671273 -3.1001763 ... -3.064089  -2.8523638
    -3.0883741]
   [-2.8344855 -2.9826558 -2.9942575 ... -2.9681337 -3.0306764
    -3.129483 ]
   [-2.93542   -3.154824  -2.9363887 ... -2.8445504 -3.0218246
    -3.1225448]]

  [[-2.8872252 -3.103105  -3.1043634 ... -3.096955  -3.0595894
    -2.891682 ]
   [-2.8634982 -2.968842  -2.9789386 ... -2.955538  -2.8837855
    -2.9407015]
   [-3.0083451 -2.9595568 -2.9883041 ... -3.1204135 -2.946261
    -2.92327  ]
   ...
   [-2.919043  -2.9864612 -3.121954  ... -2.9946947 -3.10371
    -3.0383632]
   [-2.8460686 -3.0927274 -2.9967628 ... -2.9611514 -2.9014645
    -3.0824933]
   [-3.0523057 -2.828456  -2.8353007 ... -3.0161505 -3.1187346
    -2.830485 ]]

  [[-3.0424528 -2.942683  -2.8529987 ... -2.9793997 -3.1406994
    -3.0524502]
   [-2.9528704 -2.8736806 -2.9843242 ... -2.9319248 -3.0524285
    -2.8687942]
   [-2.8788927 -2.8803017 -2.9645126 ... -3.1685739 -3.0287197
    -3.029373 ]
   ...
   [-2.978335  -2.9308903 -2.9938219 ... -2.8838193 -2.9841018
    -3.0091662]
   [-3.0369635 -3.091476  -3.0099206 ... -2.8870988 -3.0944204
    -3.0786903]
   [-3.138902  -2.9787042 -3.2864718 ... -3.0578828 -2.8995922
    -3.0463789]]

  [[-2.9686718 -3.073101  -2.9657435 ... -2.8821397 -3.0412252
    -3.0074072]
   [-2.9101162 -3.0128927 -3.0890937 ... -2.9323392 -3.0778399
    -2.9915507]
   [-2.8340225 -2.9914436 -3.2031524 ... -3.0372791 -2.9685407
    -3.0974264]
   ...
   [-3.2510228 -3.1076455 -3.0033934 ... -3.0741467 -2.9970856
    -3.0608952]
   [-3.0224223 -2.898834  -2.8169498 ... -3.1146543 -2.8544064
    -3.0436168]
   [-3.1110978 -2.9374359 -3.0675035 ... -2.9480438 -3.1236513
    -2.9261389]]]]
(120,)
[ 8.69662166e-02  1.08175211e-01 -1.25475107e-02  9.44163278e-02
 -1.02137521e-01  6.21396713e-02 -8.98569450e-02 -3.09953578e-02
 -1.13351144e-01  7.37231895e-02 -3.64325494e-02 -6.09702244e-02
 -7.53381476e-02  1.50825292e-01  1.82912946e-01  1.12903930e-01
 -9.32685286e-02  1.71266089e-03  2.19346285e-01 -1.15101770e-01
  7.51926750e-02 -7.77245313e-02  1.31497160e-01 -1.09102190e-01
 -6.04593419e-02  2.15301797e-01 -4.55865413e-02  7.02952892e-02
 -1.51805375e-02  1.39580024e-02  4.58385646e-02  2.82310154e-02
 -1.56933799e-01 -1.17284551e-01 -1.16177201e-01 -2.96155848e-02
  2.84792539e-02  3.15596573e-02 -3.90530713e-02  2.46315878e-02
  4.60640527e-03 -2.25230735e-02  4.92383651e-02 -1.33385912e-01
  2.58181065e-01  1.18833736e-01 -2.34461110e-02  6.37943968e-02
 -1.14425849e-02  1.09435916e-01  1.62573159e-01  1.68278720e-02
 -8.87862369e-02 -6.23635612e-02 -2.98708230e-02 -1.07539050e-01
 -1.91871926e-01 -4.09135595e-02  5.06235324e-02 -3.95571105e-02
 -2.45054960e-02  2.05791697e-01  8.51378664e-02  9.31192338e-02
 -4.11606357e-02  1.04668222e-01 -3.21926586e-02 -8.85674283e-02
 -5.42857833e-02 -1.71602532e-01 -2.03277215e-01 -1.51014756e-04
 -1.25792444e-01 -1.82063848e-01 -2.27769464e-03 -4.83585754e-03
 -8.65155756e-02 -8.32733661e-02 -6.10414520e-02 -2.49477085e-02
  2.08703633e-02  1.23036087e-01  5.34855016e-02  4.80019674e-02
  4.03609239e-02  3.10573429e-01 -2.56264567e-01  5.42277806e-02
 -1.29043102e-01  2.53213737e-02 -8.60625505e-02  1.36235720e-02
  1.41756356e-01  3.00325751e-02  1.38141796e-01  3.06831542e-02
  1.08375056e-02  9.32216551e-03 -1.03958003e-01 -8.79796129e-03
  1.23273551e-01 -1.19155064e-01 -1.62407849e-02  1.85932927e-02
 -1.03189744e-01  8.94685313e-02  9.79063958e-02 -1.43304154e-01
 -2.51325010e-03  1.32257923e-01  8.59511718e-02 -4.11064848e-02
 -2.61285100e-02  4.28751148e-02  1.24002043e-02 -1.26035765e-01
  8.89504254e-02  1.38144091e-01 -5.52907959e-02 -1.10521941e-02]
---BNN 5 weights---
---BNN 6 weights---
(5880, 84)
[[ 0.0271978  -0.11304784 -0.01836083 ... -0.11649507 -0.11260175
   0.05724079]
 [-0.01182602  0.10912885  0.06965398 ... -0.06238601 -0.13770838
  -0.07237433]
 [ 0.0260454  -0.004936    0.10686284 ...  0.2237253  -0.06689464
  -0.02420578]
 ...
 [ 0.01042332  0.02563826  0.22335891 ...  0.01061478  0.01416275
  -0.07826623]
 [ 0.00200434  0.02590975  0.00246263 ... -0.03656628 -0.02160138
   0.06091865]
 [-0.02671904 -0.07209607 -0.03179896 ... -0.14472112 -0.23032768
  -0.13872203]]
(5880, 84)
[[-2.872088  -3.106858  -3.03074   ... -2.9737492 -3.0171769 -3.0588632]
 [-3.0960693 -2.971067  -2.9938781 ... -3.160974  -3.2116423 -3.0876827]
 [-3.1008966 -3.0818973 -3.0955083 ... -2.9806962 -3.1079562 -3.0752528]
 ...
 [-3.1050892 -3.2513118 -3.0332692 ... -2.9890907 -3.0765507 -3.0243087]
 [-2.8531373 -2.7437367 -3.0046766 ... -3.0821388 -3.01948   -3.0630567]
 [-2.9737198 -2.9379613 -2.9361815 ... -2.928224  -3.084111  -2.9520195]]
(84,)
[ 0.15757664 -0.05059935  0.1202295   0.11111208  0.194953   -0.04688859
  0.13169675  0.00211133 -0.00863604 -0.07983561 -0.02916838  0.03123039
 -0.05515707 -0.03280102 -0.00563443 -0.01390285  0.05689505 -0.08390655
  0.13711138 -0.06372986 -0.09486355 -0.00734191 -0.08624452  0.14618829
  0.12055134 -0.02986587  0.10545533  0.17893274  0.02759344 -0.05665795
  0.04099699  0.08162203  0.07030484  0.03129123  0.09033278 -0.03376582
  0.19087355 -0.10388312 -0.12112941  0.02875277  0.03293063 -0.1502084
  0.02139552 -0.07226761  0.08131113  0.05540229 -0.02684022  0.07606956
  0.04083377 -0.04485941 -0.07516312 -0.13457999 -0.03400375  0.01307376
 -0.01594785 -0.02103942  0.08676371  0.0077687   0.00483475  0.08415429
  0.070864    0.05430056  0.05114364 -0.02711104 -0.05049247  0.07320083
  0.07997953  0.08986899 -0.04101966 -0.01283138 -0.05156242  0.01648617
 -0.17112063 -0.06674563  0.12836003  0.03513571  0.19724195 -0.11198652
  0.05389397  0.04751537 -0.06413291 -0.02674369  0.03040236 -0.04626681]
---BNN 7 weights---
(84, 10)
[[-0.02095291  0.11704206 -0.03261908 -0.16765955 -0.0322866   0.04515624
  -0.0486065  -0.02204163 -0.03123528 -0.15000032]
 [-0.09921842  0.13139257 -0.09371818 -0.00076959  0.1542106   0.00208906
  -0.08605027 -0.01914386  0.04685947 -0.12636873]
 [ 0.07627388 -0.10445668 -0.19655567  0.05526714  0.00841037  0.05729796
   0.14576767 -0.00922617 -0.07250977  0.08594272]
 [-0.01539724  0.02600394  0.14505415 -0.21120894  0.08997108 -0.02507154
  -0.20426574 -0.03417045  0.02913053  0.04167689]
 [-0.13477395  0.03784465 -0.04190243  0.06679723 -0.08380907  0.03549338
  -0.10429384 -0.04235392 -0.06545649  0.06203035]
 [-0.01520247  0.06322748 -0.02717593  0.10577042 -0.08934407  0.13340895
  -0.06694274  0.07790654  0.15772752 -0.08606138]
 [ 0.13771196 -0.03893316  0.09555899 -0.10907248  0.22869189  0.08444282
  -0.11630614 -0.01715399  0.11124019  0.05581671]
 [ 0.02318042  0.0491408   0.04073886 -0.01362692  0.03864672 -0.01784851
   0.05256071  0.057432    0.01192309  0.06991638]
 [-0.06752428 -0.18556671  0.0698674  -0.09629197  0.1041009   0.08418275
  -0.03974605  0.01502864  0.10517917 -0.12387698]
 [-0.05097677 -0.10296293  0.1389722   0.01616095  0.17478848  0.09598125
   0.00337336  0.01580151  0.08944456  0.13253215]
 [ 0.11115616 -0.03581337 -0.04415177  0.13999195  0.01341672  0.02916329
   0.05563686 -0.04357588  0.14718859 -0.09360173]
 [-0.01141151  0.08047473 -0.0194285   0.04375742 -0.02928001  0.11269438
  -0.11942928  0.06446697 -0.0262676   0.02010798]
 [-0.02110908 -0.05911261 -0.0299795  -0.03652868  0.05614835  0.08486909
   0.12053895  0.18322214 -0.16420381  0.07145307]
 [-0.0520086   0.07247394  0.00361702 -0.00466773  0.07734955 -0.00691409
  -0.03108574 -0.06864142  0.05541432  0.04619449]
 [-0.02917957  0.07254754  0.09539921 -0.11823853  0.03007822  0.02398601
   0.01181262  0.05066303 -0.1214831   0.09213602]
 [-0.06303219 -0.03416814 -0.03927903 -0.07963245  0.03906895 -0.07984941
   0.01301688 -0.07605833  0.14376888 -0.04283169]
 [ 0.05589327 -0.15078023  0.06063286 -0.12721972  0.08248843 -0.14382856
   0.22102697  0.14954473 -0.18759373  0.13302787]
 [ 0.06332023 -0.11568054 -0.02070065  0.07735877 -0.05974412  0.10465699
  -0.14033262 -0.05395801 -0.13904929  0.0048588 ]
 [ 0.09571788 -0.04597072 -0.01256935  0.01861855  0.09564674  0.09694823
  -0.07667101  0.04807002  0.09816338 -0.09562198]
 [-0.17228687  0.10938295  0.14253569 -0.1373981   0.00421754  0.04475646
  -0.04775868  0.04729833 -0.0072472  -0.00374391]
 [-0.00608668  0.04844389 -0.0063687  -0.05984299 -0.00213451 -0.08960104
  -0.09198343  0.00219602 -0.3350025   0.04175424]
 [ 0.07889625  0.2276784  -0.00401376 -0.06291915 -0.02915447 -0.06123902
   0.00573019  0.02820551  0.0482216  -0.00693697]
 [ 0.01944908  0.01603936  0.04431839 -0.14320418 -0.10901594 -0.1018842
  -0.0446508  -0.04220401 -0.02180715 -0.05412034]
 [ 0.07857123  0.18805066 -0.03117218 -0.12203024  0.18000863 -0.02656288
  -0.09388108 -0.137687    0.08339486  0.01052785]
 [-0.06604805  0.2300118  -0.05341608  0.02218451  0.05565351 -0.00836315
  -0.21916209  0.08890318  0.10264275 -0.18188737]
 [ 0.05138162 -0.07517473 -0.10497113  0.04876937 -0.11965551  0.02447515
  -0.11408855  0.02555941 -0.02582449  0.11913829]
 [ 0.0037367  -0.07608893 -0.13847487  0.06217074 -0.07733459  0.00052748
  -0.0487      0.09613001 -0.12380526  0.02300518]
 [ 0.0942712   0.03593878  0.09206768 -0.06084156 -0.06844398 -0.02049623
  -0.09457595  0.1684249   0.09671821 -0.11438966]
 [-0.00181217  0.06930971  0.01792804  0.04249619  0.0351561   0.09433752
   0.0223323  -0.134383    0.13773248  0.12379538]
 [ 0.10546904  0.06137449 -0.16849193  0.02342757  0.03454392  0.18881677
  -0.12101024 -0.14752436  0.08132339 -0.03527768]
 [-0.16264322 -0.00356217 -0.09669649  0.19627011  0.07306573  0.08998913
   0.08337928  0.04933012 -0.0533657   0.14623941]
 [-0.04446464 -0.05203635  0.03725342  0.03635382 -0.03536726  0.04792584
  -0.1946393   0.03206408  0.01375626 -0.03251344]
 [ 0.02582219  0.10333522 -0.11492932  0.03045924 -0.01818568  0.17325851
  -0.15499239  0.12000813 -0.05944663 -0.14836498]
 [ 0.04596066  0.0128294   0.0174811   0.05024982 -0.1146142   0.1057535
  -0.02238237 -0.0618038  -0.09638359 -0.07038381]
 [ 0.0393918  -0.13542332 -0.13554133  0.05524479  0.11744507 -0.17657267
  -0.3572292   0.05662061 -0.02502131  0.02385784]
 [-0.01191728  0.07410618  0.10353533 -0.12775977 -0.08344968 -0.20627566
   0.03055162 -0.2531399   0.06424784 -0.2540563 ]
 [-0.12929112 -0.05778876 -0.06816619  0.14720741  0.05988366  0.09381496
  -0.06949525  0.01338745  0.05417525 -0.01927914]
 [ 0.03814688  0.05842521  0.23079336  0.09515471  0.01299544 -0.00962321
   0.1845673   0.03700238  0.02648126  0.20643435]
 [ 0.0439014   0.1171781  -0.07987692  0.00776481  0.1477199  -0.0238453
  -0.02411449 -0.00861329  0.06050406 -0.16784124]
 [-0.03312733 -0.02537761  0.17515804 -0.07902877 -0.09029373  0.13462338
   0.05478735 -0.2686347   0.0239914   0.05687802]
 [ 0.1299402  -0.00157288  0.16225028 -0.24884208 -0.10698414  0.11825564
   0.03818217  0.03308394 -0.0179772   0.02209864]
 [ 0.06132974  0.07616385 -0.11375862  0.09031381 -0.0539978  -0.20062868
   0.01352663 -0.17316805 -0.00645355 -0.09873784]
 [-0.07022066  0.12566659  0.05413652  0.0010164   0.02166105 -0.01125935
  -0.14575155  0.10367312 -0.07453714 -0.03179363]
 [-0.03896092 -0.02477795  0.01187953 -0.17990516  0.22351868  0.09174335
  -0.00092522  0.07099035  0.05918494  0.07889834]
 [-0.01340098 -0.07259639 -0.07184954 -0.1035766  -0.23883048 -0.12404158
  -0.00922974 -0.06172262  0.07655571  0.0876456 ]
 [ 0.01141114 -0.10071959 -0.03266696 -0.01715789  0.10170761 -0.0559626
   0.03768417 -0.06022604 -0.09160742  0.04697186]
 [-0.02846042 -0.00852901 -0.2501967  -0.05317876 -0.09467992 -0.10123458
   0.00811642  0.16064642 -0.1881735   0.11989781]
 [ 0.05722167  0.03973878  0.0634537   0.13714556 -0.01700791  0.2718727
   0.06413379  0.12866478 -0.12206056  0.08494338]
 [ 0.05402689  0.04509706  0.02337814  0.00097541 -0.153304   -0.1497247
  -0.05749773 -0.10814909  0.17488232 -0.28812405]
 [-0.01688593  0.07658058  0.05892738 -0.10706019  0.09498686  0.04986588
  -0.07303438 -0.01251316  0.1739136   0.06577886]
 [-0.03651108 -0.02523041 -0.10774553  0.02928465 -0.0563775  -0.11629521
   0.02144114  0.02853841  0.00297037 -0.04066731]
 [ 0.04002729  0.25335142 -0.00341383  0.0515403  -0.10899053 -0.20619152
   0.03403791 -0.1578267   0.10092679  0.04938571]
 [ 0.06303491 -0.04483519 -0.2822279  -0.03592922  0.18736885  0.18105768
  -0.08053339 -0.12927845 -0.03326786 -0.07763435]
 [-0.02901611 -0.11261743  0.07380396 -0.07093417 -0.12733108 -0.00638017
   0.03735101  0.08349801 -0.1528777  -0.03819375]
 [ 0.01164396  0.22715083 -0.34797743 -0.05177425 -0.02318132  0.11601072
   0.2747918   0.13776904 -0.0845752   0.0832465 ]
 [-0.16300182  0.04154098  0.0180457  -0.03609191  0.09938779 -0.00438686
  -0.06604096  0.05121655 -0.03646341  0.00379396]
 [-0.04490812  0.09799521  0.09461592  0.00127969  0.0176342   0.01759467
  -0.00220237  0.05393163 -0.00485239 -0.05162807]
 [-0.04251143 -0.01566659  0.04190166  0.01948249  0.03623819 -0.08538552
   0.08043897 -0.0381114   0.09781533  0.00214613]
 [-0.06476146  0.0612688  -0.04668091  0.08969084 -0.04684159 -0.16191332
   0.0038851  -0.01748667 -0.0834763   0.12294823]
 [ 0.04442764  0.02862175  0.17881617  0.13255018 -0.07817779  0.12089881
  -0.06015992  0.1674435  -0.04940784  0.02237297]
 [ 0.2389235   0.06056263  0.05984903  0.05242487  0.05345017  0.10258909
  -0.08285063  0.05593221  0.15222223 -0.00334464]
 [-0.10342695  0.15848269 -0.18244967  0.03205742 -0.09495255  0.07655428
  -0.15690722  0.05200779 -0.08812543 -0.05775915]
 [ 0.033994   -0.07681455 -0.08039913  0.01902493  0.18485533 -0.06912046
   0.02656973  0.08853243  0.04530105  0.10991555]
 [-0.11718898  0.02047487  0.21087277 -0.13302644 -0.12593813  0.06677636
  -0.04854352 -0.0127445   0.06115413  0.10822623]
 [-0.03142548  0.12483932 -0.08039576 -0.02713864 -0.14228676  0.00909573
  -0.01669626 -0.13567086 -0.03100993  0.02038926]
 [-0.01047283  0.00119802 -0.12370356 -0.09375338  0.03326524 -0.04765219
  -0.10312145 -0.12922314 -0.0329324  -0.05947158]
 [ 0.12899809  0.0588578  -0.07124547  0.03687583  0.03391943  0.00064438
   0.04038726 -0.09146464  0.06740204  0.00909399]
 [-0.05557325  0.03541126 -0.12453981  0.04707076  0.1048555   0.07448929
   0.08573258 -0.05583478  0.04864627  0.06697535]
 [-0.2181698  -0.07158015 -0.0851066  -0.06745013  0.07867561  0.02017589
  -0.10213732  0.1509932   0.15546635 -0.18273425]
 [ 0.10465908 -0.06083709  0.04968518  0.06107561  0.14974433 -0.11799411
   0.090221   -0.04536236 -0.0256848   0.12576428]
 [ 0.01879141  0.12756737  0.12672432 -0.00880938 -0.10760689  0.06547951
   0.21417344 -0.05006703 -0.07264963  0.11832064]
 [-0.03905973 -0.14510028  0.01438703  0.1279663   0.15617391  0.00923868
   0.09246884 -0.10409365  0.19765137  0.00961754]
 [ 0.15132198  0.04164406  0.01307142  0.1632299   0.02525914 -0.03036151
   0.30672523 -0.0421212  -0.01527125 -0.14109838]
 [-0.01128896  0.17036729 -0.02292348 -0.06724244  0.2309799  -0.08282844
   0.00954173  0.08088777 -0.02538391 -0.16905117]
 [-0.0016289   0.05189582  0.12092131  0.08867456 -0.01618732 -0.13918431
  -0.06292676  0.18424632  0.08134666 -0.00977302]
 [-0.18280627 -0.07216901  0.07499527  0.1857709   0.08222368 -0.06045664
  -0.003694   -0.02652303  0.03825574  0.12955351]
 [-0.03842093  0.0088635  -0.05778194 -0.1328634   0.03741076  0.21773194
  -0.1235318   0.1379995  -0.01664142  0.07356202]
 [ 0.15584223 -0.08678532  0.10574578  0.03740591 -0.17687252 -0.12495375
   0.11345482  0.06956294 -0.1103057   0.10742015]
 [ 0.00725257 -0.04312808  0.05284145  0.01725401  0.09158678  0.09298825
  -0.00741555  0.11623599 -0.05667768  0.04909966]
 [-0.14166634  0.05693943 -0.09894484 -0.15677974 -0.10342407 -0.08344238
   0.07227879 -0.02657854 -0.03265823 -0.02377818]
 [-0.02662066 -0.16411899  0.03236808 -0.1347159   0.14267303 -0.00724455
  -0.04873278 -0.14136313  0.131344    0.05517287]
 [-0.10949506 -0.10598244 -0.10880273 -0.03299326  0.02290929  0.0366791
   0.18567501  0.1007733  -0.08588038 -0.03813238]
 [ 0.14157642 -0.08323961  0.06324457  0.0581631   0.00187391 -0.04687782
  -0.05591735 -0.14450465 -0.09285747  0.00696607]
 [ 0.0510858  -0.07151638  0.11432943 -0.05031964 -0.14170952 -0.16961494
  -0.09741516 -0.07262577  0.15339844 -0.09697744]]
(84, 10)
[[-2.9809659 -2.9495575 -2.8739886 -3.0650556 -2.9858124 -2.96969
  -3.1149688 -2.963462  -2.9880803 -3.036125 ]
 [-3.0155606 -2.9847343 -2.6765623 -3.0171206 -2.8987284 -2.8903704
  -3.101328  -3.075653  -2.9502711 -2.8261566]
 [-2.9556477 -2.7351246 -2.999253  -3.0515819 -3.1814797 -2.9713285
  -3.1974766 -2.8797407 -3.0630553 -2.822352 ]
 [-2.912451  -2.9201555 -3.0110717 -3.044252  -2.7806292 -2.9777775
  -2.9228601 -3.0540907 -3.1617732 -2.731279 ]
 [-2.9656982 -2.889194  -3.0174472 -2.9319139 -2.9892073 -2.9480543
  -3.0941358 -2.774504  -3.0392673 -3.0195825]
 [-3.0867004 -3.1210098 -2.9793882 -2.8538215 -2.930204  -3.0727732
  -3.0574203 -2.9510458 -2.940026  -2.823218 ]
 [-3.108255  -3.0673249 -2.9987257 -3.0382555 -3.105197  -2.9892023
  -2.9636548 -3.053048  -2.8582606 -3.0301967]
 [-3.067715  -3.0661964 -3.0999074 -3.1806674 -3.0426805 -2.9435349
  -3.1065142 -2.8818808 -2.8913002 -3.0920346]
 [-3.0501606 -3.256176  -2.9150383 -3.0171828 -2.9798346 -3.0803006
  -2.9570496 -3.0546634 -2.847865  -2.8835478]
 [-3.071104  -3.0957613 -2.9034228 -2.9624271 -3.0135481 -2.8749053
  -2.9614763 -3.0258121 -2.9992776 -3.007492 ]
 [-2.9852178 -3.0097716 -3.0242743 -3.0674925 -3.0729206 -3.116723
  -2.9255726 -2.9527667 -3.129806  -2.977125 ]
 [-2.8930705 -2.9993076 -2.965001  -2.9206054 -2.9879262 -2.9206405
  -3.0161915 -2.830081  -2.940529  -3.1486297]
 [-2.997466  -3.0096247 -2.9292908 -3.1578138 -2.9770796 -3.113071
  -3.0835948 -2.9733193 -2.8709607 -2.8735564]
 [-3.0863426 -3.0720043 -2.849615  -3.0241868 -2.935867  -3.0096874
  -3.017609  -3.0741727 -3.0189557 -2.8015842]
 [-3.0431387 -3.1849566 -3.0240195 -2.8724055 -2.9348764 -3.0614133
  -3.0533488 -3.1325905 -2.9574616 -2.9106698]
 [-2.946951  -3.0266137 -2.9086075 -2.9338934 -2.9496133 -2.94576
  -3.0505931 -2.8754041 -3.0535064 -2.9826756]
 [-2.9893641 -2.9409478 -3.1430047 -2.8965347 -3.0584667 -2.7564979
  -3.0836709 -2.877421  -3.0705261 -2.898755 ]
 [-2.8453078 -2.8655286 -2.7923112 -3.0674639 -3.0551345 -3.0742533
  -3.0802832 -2.9266574 -3.03574   -2.9638808]
 [-2.9185932 -2.9842894 -3.0232296 -3.0540264 -3.0806618 -3.0836914
  -3.120367  -2.9506693 -3.1129575 -2.9513693]
 [-2.9221194 -3.0298026 -3.0664277 -3.0771067 -2.8621018 -2.951554
  -3.234726  -3.0933776 -3.0709293 -3.0612638]
 [-3.0753245 -3.0022907 -2.8727043 -2.9366548 -2.9853053 -2.9689763
  -3.0502656 -3.0736501 -3.0625823 -3.0053988]
 [-3.1495428 -2.9324186 -2.9431205 -3.098782  -2.957669  -2.8414593
  -3.0355387 -2.8432102 -2.9652605 -2.9831986]
 [-2.88911   -3.1130664 -2.9195247 -2.9271939 -2.965114  -3.1233757
  -3.062584  -3.0478873 -3.028659  -2.9581914]
 [-3.2107458 -3.0085864 -3.0746877 -3.0226357 -3.0398946 -2.861795
  -2.9434106 -3.0704181 -2.8972774 -3.038889 ]
 [-3.0457313 -3.0656192 -3.1670885 -2.8783586 -2.9391239 -3.0580714
  -2.8828912 -2.9001408 -3.2248387 -2.9729533]
 [-3.2581656 -2.8578727 -3.037069  -3.042197  -2.8778982 -2.930883
  -2.9378197 -2.9170089 -3.1566129 -3.2466638]
 [-2.9472086 -2.9936957 -2.9401932 -3.1153357 -2.9443176 -3.081238
  -3.0625753 -3.029231  -2.974746  -2.8763175]
 [-2.9718626 -2.919784  -3.1618936 -3.0157628 -2.8704712 -2.9140077
  -2.9914804 -3.0263238 -3.0834498 -2.9782422]
 [-3.0376363 -2.6638403 -2.9823606 -2.9594417 -2.8442545 -2.9249403
  -2.92854   -2.8668137 -3.0202363 -2.8622975]
 [-3.0921    -3.0722466 -3.0253742 -2.980535  -2.9113264 -2.972506
  -3.0565958 -2.99482   -3.0962236 -3.0121825]
 [-2.8970127 -3.0334444 -2.859504  -2.9882162 -2.9214005 -2.9772308
  -3.0053208 -3.1083343 -3.1476119 -2.957789 ]
 [-2.949807  -3.1045973 -2.9216325 -2.9304438 -3.0202832 -3.1078496
  -2.9101462 -3.2553737 -2.9041846 -3.098113 ]
 [-3.1257925 -2.921333  -3.0281234 -3.0746915 -2.9109652 -2.8653436
  -2.875843  -2.8278258 -2.87989   -2.9039283]
 [-3.0489771 -2.9724174 -2.890336  -2.9327266 -3.049711  -3.0325832
  -3.0386522 -2.9300206 -2.9345605 -3.0375056]
 [-2.8511198 -3.12369   -2.9838536 -2.9541242 -3.0755305 -3.1104796
  -2.9465744 -3.0956876 -2.9690804 -3.112714 ]
 [-2.9376352 -3.1007566 -2.8916936 -2.8506947 -2.9253302 -3.0638072
  -2.8335578 -3.0063999 -2.986179  -3.1415465]
 [-3.0028393 -3.0011098 -2.9907286 -3.0282295 -3.0079837 -2.9594643
  -3.0666595 -2.9638932 -3.0975103 -2.991376 ]
 [-2.902315  -3.044988  -2.9759104 -3.1440282 -3.1663232 -3.0595818
  -3.0342817 -3.186903  -3.025645  -3.2045596]
 [-2.8501692 -3.1662228 -2.853834  -3.2542145 -2.9257734 -2.9709268
  -2.9273465 -2.9800725 -3.1183245 -2.9551396]
 [-2.9251957 -2.9220178 -2.8719103 -2.9449341 -2.9118545 -2.9340017
  -3.0607734 -2.973909  -2.9763067 -2.8809955]
 [-2.9422784 -3.0119514 -2.8759468 -2.935379  -3.0796032 -3.0769556
  -3.0855083 -3.00817   -3.1194272 -3.1867085]
 [-3.1336446 -3.039254  -2.9918628 -2.9441972 -2.9275935 -3.0920713
  -2.9057643 -3.074692  -2.9760711 -2.9135404]
 [-2.774993  -2.983498  -3.0504522 -3.0357058 -3.038053  -3.0845902
  -2.8433785 -3.0348558 -2.9611764 -2.8736877]
 [-2.9176347 -2.9747305 -3.0513067 -3.1375275 -3.1080482 -3.2494025
  -2.9729362 -2.9619358 -2.9997292 -3.0198011]
 [-3.0559144 -3.0601525 -2.9538984 -3.091317  -3.033042  -2.988146
  -3.005881  -3.0367155 -3.1271234 -2.9220312]
 [-3.000942  -2.9899957 -2.8918338 -2.8739219 -2.9269447 -3.0726635
  -3.0514307 -3.20442   -3.101712  -2.947262 ]
 [-2.9301794 -2.865697  -2.967501  -3.0596442 -3.0502648 -3.227481
  -2.9658117 -3.0221908 -2.8895147 -2.884741 ]
 [-3.1428115 -3.1195738 -3.153844  -2.9460526 -3.1415484 -3.1084719
  -2.9184287 -2.8563251 -2.9262307 -2.847379 ]
 [-2.9132855 -2.9582927 -3.1180444 -2.9864905 -3.0646968 -3.0655954
  -3.0514271 -2.9543955 -2.9440079 -2.990666 ]
 [-3.0434015 -2.8257134 -2.845004  -3.055109  -2.8706758 -2.8507087
  -3.028543  -2.9006827 -3.095633  -3.0715353]
 [-3.1590004 -2.886465  -2.8048744 -3.125919  -2.9739318 -3.0498197
  -3.0094826 -2.9796975 -2.9966557 -3.1068583]
 [-2.898307  -2.9293528 -3.050741  -3.033329  -3.1529293 -2.998167
  -2.972789  -2.9313598 -2.972745  -3.126656 ]
 [-2.9626007 -2.990316  -3.0783322 -3.0096555 -2.874704  -2.9490259
  -3.017062  -3.048319  -2.9096375 -3.095037 ]
 [-3.0208    -2.7792144 -3.0454457 -2.9796472 -3.1469226 -2.9666364
  -3.029193  -2.9579582 -3.0519803 -2.843156 ]
 [-3.018107  -3.08736   -3.0309362 -3.0745625 -3.0512338 -3.0547736
  -3.0870745 -2.8390937 -2.889202  -3.09845  ]
 [-3.112617  -2.9589705 -3.0280137 -2.9845793 -3.1467447 -2.905856
  -2.8806305 -3.0161455 -3.0257804 -2.9147112]
 [-3.0628543 -2.9077446 -3.144716  -3.0276377 -2.8732815 -3.006525
  -3.062554  -3.1142437 -2.9561317 -2.8385012]
 [-3.011973  -2.7448893 -3.0376327 -2.8861372 -3.053705  -2.9836197
  -2.9819236 -2.8611999 -2.8762324 -2.9197335]
 [-2.8170993 -2.934023  -3.0283742 -2.9970872 -3.055221  -3.015863
  -3.2039797 -3.2569613 -3.0907054 -2.9271543]
 [-3.0423324 -3.112463  -2.8455195 -2.8673794 -2.9993343 -2.9610066
  -2.9458046 -2.8485396 -3.0444949 -2.8453965]
 [-3.0263648 -3.0135727 -2.9914625 -2.9358187 -3.0733435 -3.1599119
  -3.0514574 -2.9541926 -2.9076817 -3.0099618]
 [-3.179873  -3.2337334 -3.0718489 -2.9442668 -2.8885815 -2.946642
  -2.8853784 -2.7977042 -2.8308113 -2.7684243]
 [-2.9020727 -3.021     -3.0332403 -3.023036  -2.9608617 -2.8885176
  -2.95337   -2.9780624 -3.1031888 -3.0516977]
 [-2.8517687 -2.8749075 -3.024021  -2.9747396 -2.981224  -2.9814274
  -2.963887  -3.00662   -3.1218762 -3.1249843]
 [-3.1082497 -2.8473868 -2.9718122 -3.0208774 -3.0459554 -2.9511442
  -2.9769557 -3.0126276 -2.8454242 -3.0217285]
 [-3.0156465 -2.991653  -3.089465  -3.044306  -2.9270988 -2.9312139
  -3.0611084 -2.910222  -2.8270793 -2.876731 ]
 [-2.9029698 -3.0361254 -2.9109366 -2.8972044 -2.833255  -2.955186
  -3.0457654 -2.9706414 -2.8796499 -2.9203362]
 [-3.2373004 -3.165121  -3.0285008 -2.919587  -3.0730765 -3.0956466
  -3.1208823 -3.110494  -2.8734295 -2.9085948]
 [-3.0938158 -3.0739822 -2.8758683 -2.826255  -2.9321918 -2.907616
  -3.0474255 -2.922425  -3.0628426 -2.8166912]
 [-3.0772865 -2.9824333 -3.1188867 -3.12102   -3.0722766 -3.0574403
  -2.9833174 -2.9909127 -2.8811426 -2.9698956]
 [-2.9735234 -2.987479  -2.8555174 -2.9859693 -3.016591  -3.0736516
  -2.9737322 -3.0024302 -3.1687884 -2.9343948]
 [-3.1295478 -2.8583407 -2.9857404 -3.0577493 -2.9519582 -3.1576834
  -2.9554863 -2.989401  -3.020349  -3.148777 ]
 [-2.9420702 -2.9467704 -3.0512488 -3.2527606 -2.911144  -2.9853563
  -2.9479558 -2.8350947 -3.0145054 -2.975475 ]
 [-2.874139  -2.9320748 -3.2290187 -3.1005707 -3.1886492 -2.9506238
  -2.9216843 -2.969473  -2.8532856 -2.8897278]
 [-3.0301924 -3.0131934 -3.0425584 -2.796764  -3.1260712 -2.8988237
  -2.9883268 -2.9654772 -3.0428696 -2.8507876]
 [-3.1825192 -3.0555222 -3.0307453 -2.8559995 -2.777393  -2.9475067
  -2.846506  -3.0230749 -3.116557  -2.9973674]
 [-2.9763937 -3.0200617 -2.887566  -2.9932442 -3.0371473 -3.1024933
  -3.1191237 -3.0827727 -2.9195766 -3.0539777]
 [-2.996389  -2.8969646 -2.9954484 -3.0933926 -3.0322583 -2.9049795
  -2.929093  -3.020806  -2.8663197 -3.0744312]
 [-2.8636432 -3.0072315 -2.9666395 -3.0856311 -3.2272096 -2.8667216
  -3.1155152 -2.9556725 -2.9562783 -3.019929 ]
 [-3.1577065 -2.962748  -3.0126543 -2.9803662 -3.0230358 -2.9811811
  -2.985874  -3.172118  -3.0427477 -3.0111992]
 [-3.0447857 -2.8578777 -2.8979502 -2.9851794 -3.0368128 -2.951772
  -3.0095356 -2.9663763 -3.048059  -3.0948968]
 [-3.012631  -2.9520833 -2.968208  -2.9657242 -3.1470928 -2.9732735
  -2.8851092 -2.8314388 -2.9908204 -3.0836022]
 [-2.80857   -3.1733654 -2.9214885 -3.0248537 -3.1645005 -3.113926
  -2.900888  -3.0064037 -2.9898753 -3.1157918]
 [-2.9797277 -3.1412046 -2.8750234 -2.8255346 -3.1058843 -3.0744002
  -2.983912  -3.087126  -3.0684571 -2.8995872]]
(10,)
[ 0.07347891 -0.04335614  0.1283652  -0.32012317  0.0324101   0.06094498
  0.01478563 -0.03953359  0.03500957  0.05533712]
