---BNN 0 weights---
(5, 5, 1, 6)
[[[[-0.03296397 -0.12391843 -0.06380667 -0.06234832  0.06085095
    -0.03071433]]

  [[-0.10474878 -0.09103699 -0.21525958  0.0177895   0.10042872
    -0.07993978]]

  [[ 0.06737784 -0.00967108 -0.10564419 -0.05690079  0.03997952
     0.04574427]]

  [[ 0.11068486  0.01132013 -0.0709605   0.04111039  0.03593602
    -0.21659243]]

  [[-0.02170901 -0.12335397  0.05056761 -0.01844785  0.09915709
     0.14735074]]]


 [[[-0.09280252 -0.01017138 -0.0335429   0.2680967   0.07978506
     0.19330378]]

  [[ 0.09612706  0.1156137  -0.01281761 -0.09528863  0.00507027
     0.06785946]]

  [[-0.09690588  0.16468494  0.00361836  0.23743872  0.02495651
     0.00073226]]

  [[ 0.20634346 -0.08986523  0.05578433 -0.01193503  0.04864055
    -0.12684882]]

  [[-0.07346471  0.19013014  0.0646716  -0.00550741  0.04229937
    -0.09001173]]]


 [[[ 0.0065632  -0.05641655 -0.13189794  0.01347779 -0.11437836
     0.00563749]]

  [[-0.06134446  0.08519958  0.08808657  0.24804123 -0.09610973
     0.03664083]]

  [[-0.0478215  -0.10792809  0.10077132 -0.02909047 -0.02825071
    -0.23456585]]

  [[ 0.05094931  0.1817902   0.1408347   0.06434913  0.12829177
    -0.04927664]]

  [[ 0.01057362 -0.04934142  0.00655168 -0.05923319  0.00539375
    -0.0229244 ]]]


 [[[ 0.08815552 -0.02703029  0.09386608 -0.16191266  0.02851446
    -0.0088179 ]]

  [[ 0.13072972  0.00123537 -0.03797693  0.14208177 -0.0749925
     0.09219564]]

  [[-0.01618484  0.12453114  0.00172252 -0.00177193 -0.11751457
     0.16127594]]

  [[-0.04438828 -0.05181661  0.01697345 -0.10405654  0.06742615
     0.1515484 ]]

  [[ 0.02113884  0.13983679  0.19281997 -0.07911419  0.13669744
    -0.04857321]]]


 [[[-0.0776821   0.19043213  0.08481055  0.2031103  -0.12064431
     0.05437152]]

  [[-0.00836062  0.09815489  0.06604135  0.05895576 -0.07069828
    -0.21386257]]

  [[-0.16309963 -0.1736704   0.04879081  0.08517361 -0.07482308
    -0.05038346]]

  [[ 0.07253321  0.18155016 -0.22102742  0.03323378 -0.01470582
    -0.16673513]]

  [[ 0.06217711  0.04937812 -0.04867284  0.1929383  -0.12826471
     0.08332522]]]]
(5, 5, 1, 6)
[[[[-2.979731  -3.0389333 -2.9517972 -2.931775  -2.900152  -2.9825652]]

  [[-2.9558578 -2.9880931 -3.0457397 -3.1047416 -3.013632  -2.8738987]]

  [[-3.00144   -3.1759453 -3.022332  -3.0944467 -3.0135798 -3.1522539]]

  [[-3.1891644 -3.0536382 -3.0513875 -3.0149548 -3.05922   -3.1554549]]

  [[-3.0048192 -3.0629244 -3.033545  -3.0315568 -2.931194  -3.2364004]]]


 [[[-2.9776592 -3.1682634 -3.1340165 -3.1470304 -3.0606894 -2.9302404]]

  [[-2.876343  -2.910571  -3.0149734 -3.048352  -3.1512132 -2.8856905]]

  [[-2.9516678 -2.9876444 -2.8785763 -2.976296  -3.1291788 -3.0029144]]

  [[-3.1733387 -3.055985  -2.9852936 -3.1085799 -3.0509965 -3.0047216]]

  [[-2.9795897 -3.1051512 -2.968758  -3.0193295 -3.008203  -3.0826776]]]


 [[[-3.1964715 -2.9459062 -3.1291137 -3.10325   -3.0646484 -3.1215973]]

  [[-3.0123734 -3.0598707 -2.9092155 -3.0281003 -3.0127275 -2.8389068]]

  [[-3.102233  -3.1131465 -3.1174068 -2.946461  -2.8263834 -2.9996123]]

  [[-3.0385134 -3.1190276 -3.0329823 -3.0724895 -2.9379616 -2.9694989]]

  [[-2.6499834 -2.760983  -2.794338  -3.0081632 -2.9697442 -2.8612905]]]


 [[[-3.094656  -3.1030438 -2.863676  -3.0997639 -2.9588609 -2.9565485]]

  [[-2.9285686 -2.8338504 -2.9600027 -2.9130094 -3.0464032 -3.1558716]]

  [[-2.9756796 -3.1555748 -3.085311  -2.9543455 -3.0511878 -3.0710292]]

  [[-3.165515  -3.1618333 -3.0202339 -3.028455  -2.9488137 -3.1353786]]

  [[-3.0493255 -3.1617045 -2.9499838 -2.9702446 -2.9034638 -2.8978121]]]


 [[[-3.0560062 -3.1145315 -3.0722506 -3.0511374 -2.8651857 -3.111467 ]]

  [[-3.0059547 -3.0229247 -3.0929089 -3.0429082 -3.1832108 -2.950669 ]]

  [[-3.0272512 -2.9355361 -2.9448717 -3.010026  -2.7676332 -2.9179077]]

  [[-2.9181824 -3.0399451 -2.9684796 -3.166629  -2.92119   -2.9888823]]

  [[-3.0746412 -2.9020455 -2.8697166 -2.9889588 -3.0553477 -2.943987 ]]]]
(6,)
[ 0.10791159 -0.02704788 -0.117842   -0.11811419 -0.09194869 -0.08088992]
---BNN 1 weights---
---BNN 2 weights---
(5, 5, 6, 16)
[[[[-4.90421914e-02  2.42245793e-01  1.45581260e-01 ...  1.47762196e-02
     1.95418194e-01  2.33993810e-02]
   [ 4.60155396e-04  1.36348829e-02 -7.12347850e-02 ...  1.35640679e-02
     3.35039645e-02  1.50992319e-01]
   [-4.50299233e-02 -8.83305818e-03 -6.72574937e-02 ... -4.43847291e-03
     4.41102944e-02  1.98494159e-02]
   [-4.67823595e-02 -6.42560720e-02 -1.43757407e-02 ... -1.26721159e-01
    -1.03370547e-01  1.16674021e-01]
   [ 2.93158621e-01  6.42537102e-02 -9.53180045e-02 ...  2.47789815e-01
     7.92206526e-02 -6.61311969e-02]
   [-2.50523631e-02  9.70792547e-02 -7.74957389e-02 ... -9.10008512e-03
    -1.65833801e-01  1.98805824e-01]]

  [[ 1.05064034e-01 -1.94874272e-01 -4.81427945e-02 ... -2.88935914e-03
     5.71153760e-02 -4.90090623e-02]
   [ 4.81510274e-02  1.16962828e-01  1.75915822e-01 ...  1.25157163e-01
    -6.52635023e-02 -1.38128608e-01]
   [ 2.84861606e-02 -1.33134648e-01 -1.22087196e-01 ... -2.27267314e-02
    -5.20798042e-02  4.12863232e-02]
   [-4.17742096e-02  5.67699969e-02 -2.93896589e-02 ...  4.87798378e-02
     9.67123732e-02 -1.90545723e-01]
   [-1.80907279e-01  4.22038585e-02  5.64185865e-02 ... -9.70086381e-02
     1.44259214e-01  3.52997556e-02]
   [-5.74629009e-02  3.58303599e-02  6.82837889e-02 ...  2.56899390e-02
    -2.03241616e-01  4.60849479e-02]]

  [[-3.96893658e-02  6.11557253e-02  9.18141231e-02 ...  2.88786716e-03
    -3.64531465e-02 -1.00494079e-01]
   [ 8.17929283e-02 -9.12259072e-02  4.12917733e-02 ...  4.93107084e-03
    -3.29783224e-02 -2.49028187e-02]
   [-7.61351502e-03 -3.61685976e-02  8.94080698e-02 ... -7.86501989e-02
    -2.21849922e-02  2.31058300e-02]
   [-1.40702039e-01 -1.76232997e-02  6.11464642e-02 ... -1.44249974e-02
    -9.92243178e-03 -1.22211268e-02]
   [ 1.05540149e-01 -1.63616613e-03 -1.33776188e-01 ...  2.44379923e-01
    -5.62369600e-02 -6.03932925e-02]
   [-4.90469001e-02 -3.41008715e-02 -4.54904586e-02 ... -9.09421146e-02
    -1.62985235e-01 -7.11876079e-02]]

  [[ 1.01035507e-02  5.32217585e-02  2.22684015e-02 ... -1.35764619e-02
     1.54321700e-01 -7.85349458e-02]
   [-1.71921384e-02 -3.56993725e-04 -1.32928416e-01 ... -6.36652112e-02
    -1.54816953e-03  1.77348536e-02]
   [ 8.76952037e-02  2.03286558e-01  9.08347219e-02 ...  1.77498177e-01
    -1.09513901e-01  2.92490274e-02]
   [ 9.15693268e-02  1.89941563e-02  8.21158811e-02 ...  6.51487038e-02
     7.94091001e-02  2.33258288e-02]
   [-3.43633369e-02  6.88145831e-02  2.74751186e-02 ... -8.88218731e-02
     8.26118961e-02  1.33601651e-01]
   [-1.63742658e-02  1.14278890e-01  6.64500222e-02 ...  1.01271451e-01
     9.30506214e-02  2.17499677e-02]]

  [[-7.38548338e-02  4.74458858e-02  1.72356457e-01 ... -5.64974658e-02
     2.65051611e-02 -4.57935594e-02]
   [-5.54193035e-02  8.73889998e-02  6.72633201e-03 ... -1.84318367e-02
     1.76394045e-01  1.13138102e-01]
   [-1.57989170e-02  1.25039384e-01 -1.43070742e-01 ...  1.12585679e-01
    -1.19737424e-01  1.13957994e-01]
   [ 6.04426637e-02 -1.26429619e-02 -2.31805090e-02 ... -2.81734504e-02
     7.13447947e-03  5.73694073e-02]
   [ 7.81568058e-04  1.61851138e-01 -7.41382316e-03 ...  6.26456738e-02
     1.43658832e-01  9.33464617e-04]
   [-5.57442382e-02  1.57918394e-01  1.30303189e-01 ... -6.09026030e-02
    -5.54375723e-02  7.29415417e-02]]]


 [[[ 1.15276044e-02 -2.41085291e-02  1.24005497e-01 ...  1.84862301e-01
     2.97029167e-02 -4.87434939e-02]
   [ 2.88467705e-02 -8.65401775e-02 -6.29776716e-03 ...  1.49613246e-01
    -1.84100851e-01 -1.71462774e-01]
   [-3.56013291e-02 -1.27350584e-01 -1.49577022e-01 ... -1.85960159e-02
    -5.16260043e-02 -1.14552073e-01]
   [-1.02112807e-01 -1.27064809e-01  8.09458494e-02 ... -1.53882980e-01
     7.37108812e-02 -2.23716572e-01]
   [-4.53152396e-02  1.86757907e-01 -1.31853493e-02 ... -5.50267659e-02
    -8.45283195e-02  1.32436529e-01]
   [ 6.67142645e-02  1.04621112e-01  8.13609436e-02 ... -2.65214533e-01
    -2.37916131e-02 -4.45330366e-02]]

  [[ 7.63801932e-02 -9.18982401e-02  6.47147745e-02 ... -1.36129111e-01
     1.64549246e-01 -6.67726845e-02]
   [-9.47193280e-02 -8.13510548e-03 -9.24975127e-02 ... -1.62998259e-01
     3.55523005e-02 -8.97898376e-02]
   [-1.02418356e-01  6.72907615e-03 -1.35199979e-01 ... -6.15976416e-02
     2.50791281e-01 -1.65852934e-01]
   [ 2.06604321e-02 -6.59083650e-02 -9.86321177e-03 ...  8.91277939e-02
     1.28674969e-01 -8.97541642e-02]
   [-3.83549333e-02  8.10169950e-02 -1.03982188e-01 ... -3.51314782e-03
     8.30180570e-02  3.66937034e-02]
   [ 4.37276065e-02  2.74601042e-01  6.56736717e-02 ... -1.68018878e-01
    -7.92738870e-02 -9.21617076e-02]]

  [[ 8.85934159e-02  9.58725438e-02  5.06520784e-03 ... -4.42419462e-02
    -1.22465212e-02 -6.56720921e-02]
   [ 5.86118475e-02 -7.67752528e-02  5.67014217e-02 ... -8.85230973e-02
     3.18588205e-02 -2.73129046e-02]
   [ 3.63408625e-02  7.59913474e-02  7.73630962e-02 ...  8.07585418e-02
     2.00000599e-01  1.48102880e-01]
   [ 2.00419381e-01  3.43954675e-02 -2.47872353e-01 ...  5.20356111e-02
     4.39546891e-02  5.20591997e-02]
   [-1.02390699e-01  6.52325526e-02 -6.60015866e-02 ...  2.13885903e-02
     1.49818853e-01 -2.76545119e-02]
   [ 9.06896889e-02 -5.61909974e-02 -2.10191272e-02 ... -8.47196057e-02
    -1.04728099e-02  1.22537784e-01]]

  [[ 1.32007062e-01 -4.56765257e-02  1.26047999e-01 ... -7.02275932e-02
     1.26585709e-02 -1.79685116e-01]
   [ 5.85876703e-02 -5.91650270e-02 -5.22950552e-02 ... -8.69575590e-02
     2.05681548e-01 -2.39776298e-01]
   [-6.23707250e-02  4.56500240e-02 -7.13954493e-02 ...  1.34278566e-01
     2.82020867e-02  1.28924549e-01]
   [ 8.74627382e-03 -1.53491244e-01  6.54199719e-02 ... -1.14552438e-01
    -1.55297861e-01 -2.24728778e-01]
   [ 1.38464317e-01 -1.10813141e-01 -1.67717516e-01 ... -1.49130628e-01
     1.23349996e-02 -3.17813233e-02]
   [-1.67250574e-01  8.77124891e-02  2.00236201e-01 ... -1.23308159e-01
    -1.41257420e-02  3.66847217e-02]]

  [[ 5.37791615e-03 -1.26022935e-01 -5.90684675e-02 ...  5.41870557e-02
    -5.66746071e-02 -1.75134778e-01]
   [ 6.99511543e-02 -3.01548969e-02  3.41846943e-02 ...  6.40327856e-02
     5.17703779e-02  1.15660146e-01]
   [-1.33870710e-02  1.65272102e-01  1.16816118e-01 ... -8.86100605e-02
    -4.69672568e-02 -3.37086320e-02]
   [ 5.51717170e-02  4.19673137e-02  1.98128652e-02 ...  6.13861084e-02
     6.54645190e-02 -7.25168213e-02]
   [-1.61587819e-02  9.79007855e-02 -4.26606797e-02 ... -6.44968599e-02
    -9.80524868e-02  1.25172436e-01]
   [ 8.66078362e-02  2.12376744e-01  1.20849170e-01 ...  1.34317264e-01
    -7.35389888e-02 -1.95284709e-02]]]


 [[[ 6.01209104e-02 -1.22138895e-01 -1.50214508e-01 ...  1.59496248e-01
    -5.36156595e-02 -9.90533158e-02]
   [ 1.82634275e-02 -9.44180116e-02 -5.15926778e-02 ...  9.68718827e-02
     3.01402714e-02  6.77046925e-02]
   [-5.17898202e-02 -4.72377352e-02  9.72845033e-03 ... -2.50653457e-02
    -1.08377598e-01 -9.19126645e-02]
   [-1.13767618e-02 -3.09713874e-02  3.44890915e-02 ... -5.95226362e-02
     9.01983529e-02  5.91291068e-03]
   [ 1.19323745e-01  2.32601687e-01 -6.88078180e-02 ...  8.97001922e-02
    -1.46922857e-01  2.13593274e-01]
   [-9.76694282e-03 -7.50655457e-02  3.64069790e-02 ...  2.75862552e-02
    -6.81016669e-02  4.33431612e-03]]

  [[ 3.49576026e-02 -2.50752062e-01  1.31387701e-02 ...  8.24496672e-02
     1.38530329e-01 -3.78109887e-02]
   [-2.80363318e-02  6.26790151e-02 -2.19805054e-02 ... -7.79896975e-02
    -1.24012582e-01  1.10022567e-01]
   [ 1.61925167e-01 -3.59784923e-02 -5.40078357e-02 ... -8.63579810e-02
    -5.31526469e-02  6.91094026e-02]
   [ 1.33333489e-01 -5.10528870e-02 -4.43216749e-02 ... -7.08395764e-02
    -9.66541991e-02  7.68191144e-02]
   [-2.17177086e-02 -1.07577287e-01 -5.41769573e-03 ...  6.34879991e-02
    -6.40351698e-02 -4.49462906e-02]
   [ 1.49670560e-02  3.70384678e-02 -1.36748180e-01 ... -8.97530988e-02
     1.84305057e-01  4.34622876e-02]]

  [[ 6.00497909e-02 -3.76787706e-04 -6.27735779e-02 ...  7.44017139e-02
     8.18330571e-02 -2.57858615e-02]
   [ 6.80817887e-02  1.66206419e-01 -8.32544416e-02 ... -1.05811797e-01
    -8.88951346e-02  1.52788922e-01]
   [-3.68079916e-02  1.51158333e-01 -5.54623716e-02 ...  5.18311262e-02
    -2.12716684e-01  6.97112549e-03]
   [ 7.71035859e-03  2.05298271e-02 -2.18770765e-02 ...  1.00770079e-01
     1.94577053e-02  2.48063486e-02]
   [ 3.98345999e-02  1.12613790e-01  7.62092322e-02 ...  6.16411632e-03
     1.91676952e-02 -4.50004004e-02]
   [ 8.39594007e-02 -3.48755158e-02  2.28141263e-01 ...  1.31078502e-02
     1.01438962e-01 -1.43467113e-02]]

  [[ 9.76175964e-02 -9.67761502e-03 -1.77762434e-01 ... -3.09948483e-03
    -1.09529570e-01  5.79972938e-02]
   [ 1.09614007e-01 -1.63277432e-01  1.81136638e-01 ...  1.74507245e-01
     9.05494094e-02  2.70631649e-02]
   [-1.40076146e-01  2.28751138e-01 -1.13387898e-01 ... -1.75327882e-02
     2.03469656e-02 -4.33525257e-02]
   [-7.31317773e-02 -1.27842352e-01 -5.62387798e-03 ...  2.01075748e-02
     1.17459133e-01 -4.70311707e-03]
   [-8.01912472e-02  9.75887775e-02 -1.15739644e-01 ...  2.79377098e-03
    -1.01125814e-01 -3.21292244e-02]
   [-1.05757311e-01  8.42794627e-02  9.19864476e-02 ...  6.84383065e-02
    -1.10805202e-02 -5.24480827e-02]]

  [[-1.94406714e-02 -3.89829390e-02 -3.71131599e-02 ...  6.08078130e-02
     7.77288079e-02 -1.79713145e-01]
   [ 6.79446384e-02 -2.74080839e-02 -5.42202406e-02 ... -1.96150512e-01
     3.21855815e-03  4.84705679e-02]
   [-2.51808669e-03  3.85559462e-02  6.42684428e-03 ... -1.99894258e-03
    -1.04576200e-02  1.16610505e-01]
   [ 1.22957313e-02 -1.10541128e-01 -7.75723979e-02 ... -5.63801043e-02
    -1.13909081e-01  1.27722204e-01]
   [ 5.73352091e-02 -3.47916298e-02 -1.82553455e-02 ...  2.50280678e-01
    -9.59671438e-02 -2.63945702e-02]
   [-1.09084405e-01  1.10598542e-02  3.75475804e-03 ... -1.21103458e-01
     7.13965818e-02 -1.60329381e-03]]]


 [[[ 1.65911108e-01 -9.06250402e-02  2.04475727e-02 ...  1.76937923e-01
    -7.49188522e-03 -1.22382581e-01]
   [-1.51433587e-01  4.40091677e-02  5.26259840e-02 ... -1.00427186e-02
    -4.87911366e-02 -5.71885817e-02]
   [ 6.46975711e-02 -1.77577868e-01 -7.27860257e-02 ...  1.07639015e-01
    -6.12256490e-02  5.20339981e-02]
   [-1.81615219e-01  2.82708686e-02 -6.23869188e-02 ... -1.40165612e-01
    -5.71651049e-02 -4.76785330e-03]
   [-5.61716855e-02  1.62023061e-03 -1.18209362e-01 ...  7.74992183e-02
    -2.49457583e-02 -1.96312182e-02]
   [ 6.51817694e-02 -3.45441625e-02  1.41039848e-01 ...  4.45253216e-02
     1.34052441e-01 -4.30124886e-02]]

  [[-2.67561674e-01 -3.81390378e-02 -2.00857803e-01 ... -4.14331108e-02
    -1.90151688e-02  1.20269813e-01]
   [-2.11133971e-03 -1.10256471e-01  2.81875185e-03 ... -1.83104441e-01
     2.35368498e-02  3.29433940e-02]
   [ 1.23237215e-01  3.44914161e-02 -2.79695895e-02 ...  4.37105410e-02
    -3.44656371e-02  1.23235062e-01]
   [-2.95158718e-02  7.13849589e-02  2.65745949e-02 ...  3.71451315e-04
    -7.21057281e-02 -2.54992694e-02]
   [-2.52941828e-02  7.53413737e-02  5.19801639e-02 ...  4.43114303e-02
    -1.51034417e-02 -2.27918655e-01]
   [-1.27989829e-01  2.03976892e-02  1.29931765e-02 ...  1.11757599e-01
     4.55574738e-03 -7.30824992e-02]]

  [[-7.00262114e-02 -1.26564637e-01  9.69310552e-02 ... -1.92266330e-01
    -3.19795795e-02 -2.67399073e-01]
   [-4.24917899e-02 -3.28987353e-02  6.92107305e-02 ... -2.28807516e-02
     8.66165832e-02  1.20957807e-01]
   [-2.28869006e-01  1.77177310e-01 -1.46946967e-01 ...  2.02827379e-01
    -1.05550386e-01  1.41191259e-01]
   [ 8.76055583e-02 -1.87404118e-02 -3.36676948e-02 ...  6.79314137e-02
    -1.14872232e-01 -7.14725330e-02]
   [ 2.23931700e-01 -1.77172229e-01  3.77813540e-02 ... -2.12755930e-02
    -7.55233988e-02  2.39811349e-03]
   [-1.55671522e-01  9.18132216e-02 -1.19028613e-02 ... -3.12046567e-03
    -7.93358684e-02 -9.12428722e-02]]

  [[-6.79996833e-02 -6.72711059e-02 -1.70592681e-01 ...  6.44200444e-02
     2.50438720e-01  3.36259119e-02]
   [-6.41047582e-02  4.60441150e-02 -8.94275680e-02 ... -1.11979499e-01
    -1.37787819e-01 -1.61716565e-01]
   [-1.37819022e-01 -4.55566533e-02 -1.29266351e-01 ...  1.11913398e-01
     1.57604992e-01  6.04499467e-02]
   [-1.52368858e-01  9.54647288e-02 -4.37570475e-02 ...  1.10159375e-01
     1.50006846e-01 -5.49200736e-02]
   [ 3.23723704e-02  3.46313752e-02  1.52713805e-01 ... -1.12641685e-01
     1.83672190e-01 -1.50407767e-02]
   [-7.62476912e-03  1.97414961e-02  2.43662274e-03 ...  2.12422252e-01
     5.96735366e-02 -2.71335840e-02]]

  [[ 4.39614244e-02 -8.02551582e-02 -1.65230613e-02 ...  3.13140526e-02
     2.26396210e-02  1.27501354e-01]
   [ 4.69240695e-02  1.27262875e-01  8.48332271e-02 ...  2.50258930e-02
     8.96750018e-02  4.17860262e-02]
   [ 1.40147790e-01  8.39626864e-02  1.28908798e-01 ...  8.45570341e-02
    -7.36470474e-03  3.08458004e-02]
   [ 5.58408462e-02 -6.61083385e-02 -1.02547996e-01 ... -1.77233860e-01
    -6.48917928e-02  1.00902371e-01]
   [-9.79734808e-02  2.85971742e-02 -7.10563676e-04 ...  1.39296517e-01
    -3.45160477e-02  7.28228986e-02]
   [ 1.12100698e-01  1.05655305e-02 -2.81587522e-02 ... -7.96123073e-02
     1.67811006e-01 -3.33425850e-02]]]


 [[[-1.12085238e-01 -2.12955713e-01 -1.10697865e-01 ...  1.32478625e-01
    -4.75403592e-02  1.00864306e-01]
   [-2.19253212e-01 -2.55328114e-03  2.01108232e-02 ...  2.18179710e-02
     6.29817098e-02  5.31177483e-02]
   [ 1.34052141e-02  5.46045564e-02 -1.29989609e-01 ...  1.40921967e-02
    -2.85615455e-02  1.44923404e-01]
   [ 1.14402048e-01 -2.32211590e-01 -5.15195495e-03 ...  1.79529369e-01
     1.86536223e-01 -2.50297915e-02]
   [-1.67507622e-02 -1.68160871e-01 -3.85940634e-02 ...  1.03586189e-01
     5.34455776e-02 -1.67303607e-01]
   [ 3.67737859e-02  1.63966760e-01  1.61891267e-01 ...  4.74623591e-03
     5.50070815e-02  2.01882645e-01]]

  [[ 9.19247419e-02 -3.17117455e-03 -2.60680299e-02 ...  6.18702285e-02
     5.78939989e-02 -3.66131701e-02]
   [-8.61294121e-02  2.50094324e-01 -2.32197554e-03 ...  1.76926628e-01
     8.91320780e-02  1.41192064e-01]
   [ 5.37361503e-02 -9.04109329e-02 -1.97820533e-02 ... -2.30043065e-02
    -1.20895885e-01 -1.44108683e-01]
   [ 1.50481611e-01 -5.73602505e-02  7.58724008e-03 ...  4.22110744e-02
    -1.48349768e-03  2.20056131e-01]
   [-7.63269812e-02 -7.27454498e-02 -3.86204235e-02 ... -1.33987650e-01
     5.32350503e-02 -4.75107832e-03]
   [-3.97534907e-01 -4.09534425e-02  4.06050868e-02 ... -2.40592241e-01
    -1.50139913e-01 -6.86670169e-02]]

  [[ 3.93897258e-02 -1.61669061e-01 -7.09553659e-02 ... -1.25643507e-01
    -3.43331572e-04  1.39629290e-01]
   [-1.14215985e-01 -9.56765339e-02 -2.45244838e-02 ... -1.50399089e-01
    -6.77582845e-02  1.71783268e-01]
   [-4.94006164e-02 -5.47620654e-02  9.19456780e-02 ...  2.26147790e-02
    -4.07551602e-02 -1.49697736e-02]
   [ 7.11503923e-02 -2.06793454e-02 -7.17705190e-02 ...  3.89866047e-02
    -6.61256611e-02 -4.84919362e-02]
   [ 7.71864727e-02 -1.26565367e-01 -1.80363312e-01 ...  1.11244820e-01
    -2.57173367e-02  2.96707656e-02]
   [-5.62852807e-02 -1.12344243e-01 -1.29330426e-01 ...  2.74498370e-02
    -1.35615319e-02  1.15485720e-01]]

  [[ 1.79176018e-01  6.64008185e-02  8.50931332e-02 ... -5.57167195e-02
    -4.32446897e-02  5.83673678e-02]
   [ 1.33595392e-01  8.21867362e-02 -9.76081192e-02 ...  7.60959312e-02
    -2.12639924e-02  3.02560870e-02]
   [ 1.93380877e-01 -1.99732348e-01  2.78615691e-02 ...  1.52180061e-01
    -1.98064800e-02  6.19122796e-02]
   [ 7.47980401e-02 -6.07427321e-02 -1.73924834e-01 ... -4.70465161e-02
     1.66546822e-01 -2.64459406e-03]
   [-1.07572004e-02  1.11584783e-01 -1.34128913e-01 ...  6.26224056e-02
     1.33820577e-02 -1.25149116e-01]
   [ 1.70131437e-02 -8.69887620e-02  1.10207617e-01 ...  1.68191716e-02
     5.94862588e-02 -7.74352327e-02]]

  [[-1.48510352e-01 -9.31372691e-04 -2.77262982e-02 ...  1.07815385e-01
     2.67557930e-02 -3.30887660e-02]
   [-6.12249449e-02 -1.33099928e-01 -1.85738191e-01 ... -7.24163130e-02
     4.79976758e-02  8.00187960e-02]
   [-1.92084573e-02 -7.16106445e-02  5.04830899e-03 ...  5.62535934e-02
    -4.15112870e-03 -6.41940627e-03]
   [-8.11799150e-03  9.15423185e-02 -7.13208392e-02 ... -1.83427054e-02
    -4.56551276e-02 -1.29220724e-01]
   [ 5.48053198e-02  1.07319273e-01 -4.32869121e-02 ... -3.74814682e-03
    -3.30971996e-03 -1.54338196e-01]
   [ 1.32918745e-01 -7.88893700e-02  1.51007414e-01 ... -1.15505131e-02
    -6.46323338e-02 -9.14682969e-02]]]]
(5, 5, 6, 16)
[[[[-2.9102807 -2.862373  -2.866686  ... -3.1561518 -3.0182579
    -2.9814792]
   [-2.95836   -2.9942758 -3.104599  ... -2.977101  -3.089094
    -2.964857 ]
   [-2.8265069 -2.9378552 -2.906095  ... -3.067412  -3.149412
    -2.9314158]
   [-2.910062  -3.0932028 -2.9691815 ... -3.0552726 -3.0808163
    -3.1634097]
   [-3.088651  -3.0681696 -3.0890222 ... -3.0880313 -2.9751992
    -3.2224557]
   [-3.0583775 -2.9871764 -3.1333659 ... -2.8798776 -3.01058
    -3.0007064]]

  [[-3.0705242 -3.037724  -3.0404336 ... -2.8234978 -2.969585
    -3.0650296]
   [-3.0477002 -2.8727171 -3.060525  ... -3.0523608 -2.9762075
    -2.9204574]
   [-2.9828446 -2.932524  -2.9500515 ... -3.2289116 -2.8476658
    -3.0023897]
   [-3.0199878 -3.0254908 -2.9384754 ... -3.06804   -3.1143193
    -3.0788832]
   [-2.9690878 -2.8092256 -3.1101682 ... -2.971357  -3.139322
    -2.9934196]
   [-2.987976  -2.804174  -3.0071867 ... -2.8094926 -3.099706
    -2.9470232]]

  [[-2.7386913 -2.9349387 -3.0576403 ... -2.9595404 -3.0422058
    -3.203163 ]
   [-3.1208951 -2.8187191 -3.1248262 ... -3.1281078 -2.950905
    -3.2720404]
   [-2.9636223 -2.9977086 -3.0882905 ... -2.9027016 -3.0822093
    -3.0931437]
   [-3.0440438 -2.8319476 -2.8597615 ... -2.8945103 -3.034371
    -3.0331318]
   [-2.8368568 -3.0232227 -3.0051062 ... -2.9488604 -2.9090154
    -3.117631 ]
   [-2.9224327 -2.9639015 -3.1785896 ... -2.7707098 -2.967091
    -3.0656726]]

  [[-2.9373877 -2.9366124 -2.9662836 ... -2.9958048 -2.9702432
    -2.8827193]
   [-2.8767142 -3.0526388 -2.8619435 ... -3.0822363 -3.0958686
    -2.9122632]
   [-3.0144072 -2.9849105 -3.096515  ... -3.1015487 -2.9537878
    -2.9882858]
   [-3.0514998 -3.0366108 -3.1481528 ... -3.0701244 -3.0651584
    -2.9165716]
   [-2.9697556 -3.0502267 -2.9639897 ... -3.1073403 -3.07106
    -2.9795275]
   [-3.0958147 -3.0023515 -2.841332  ... -3.0691638 -3.0583596
    -2.94337  ]]

  [[-2.8148198 -2.945059  -2.9160957 ... -2.885079  -2.998128
    -2.8583443]
   [-2.9797227 -3.0706568 -2.9723089 ... -2.9217474 -3.023423
    -2.9588444]
   [-3.0314386 -3.0546427 -2.9353712 ... -2.752742  -2.8681521
    -2.9703608]
   [-3.0019562 -2.9912534 -3.1188817 ... -3.1192265 -2.9224396
    -2.9786348]
   [-3.03198   -3.183675  -3.0378656 ... -2.8340852 -2.9163623
    -3.0472317]
   [-3.1600947 -3.0321875 -3.092734  ... -2.957877  -3.1184762
    -3.0854435]]]


 [[[-2.9605465 -3.152196  -2.9789681 ... -2.9217029 -2.9062948
    -3.1905224]
   [-2.9817483 -2.9907684 -2.9345179 ... -2.9739728 -2.9756002
    -3.0540016]
   [-3.0219631 -3.1737995 -3.142485  ... -2.945273  -3.0386682
    -2.8500535]
   [-3.0263522 -3.1136215 -2.8872755 ... -2.9165292 -2.9043984
    -2.9361224]
   [-3.0117104 -2.9122174 -3.0531247 ... -3.0098865 -3.019243
    -2.9587379]
   [-2.9451983 -3.0047736 -3.1671157 ... -2.9295456 -3.1910357
    -3.0247467]]

  [[-3.089227  -2.9016423 -2.9109926 ... -2.999584  -2.8477924
    -2.9662204]
   [-3.0570157 -3.0133488 -2.8679116 ... -2.8490224 -3.0329156
    -2.9018874]
   [-2.8778265 -2.879331  -2.9321566 ... -3.045577  -3.009794
    -3.0205986]
   [-2.8559525 -2.8358305 -2.8718424 ... -2.7533453 -2.9021604
    -2.9288728]
   [-3.0344188 -2.8212438 -2.9678497 ... -2.8187091 -2.9289958
    -3.008526 ]
   [-3.0696726 -3.0430176 -2.953088  ... -2.98299   -2.9251864
    -3.1325307]]

  [[-3.1257896 -2.949808  -2.830513  ... -2.8539155 -2.8408875
    -3.100658 ]
   [-3.090226  -2.855296  -3.1143272 ... -3.045192  -2.923776
    -3.064633 ]
   [-2.9975321 -3.0604053 -3.0320086 ... -2.693304  -3.1908488
    -3.1406558]
   [-3.0474374 -3.0631344 -2.9391189 ... -2.844865  -3.0144389
    -2.8966184]
   [-2.9828663 -3.0106943 -2.8068612 ... -3.2021039 -3.0806146
    -2.981566 ]
   [-2.9464438 -3.0120096 -3.0168617 ... -2.967466  -2.7390585
    -3.0326462]]

  [[-2.948151  -2.937733  -2.868932  ... -3.1488702 -2.9387167
    -2.961583 ]
   [-2.9587233 -3.030373  -3.1098788 ... -2.992023  -3.3150392
    -2.9680898]
   [-2.9845586 -2.83375   -2.918242  ... -3.039106  -3.109813
    -2.9658608]
   [-3.004557  -2.9665496 -2.9269867 ... -2.915896  -2.9234927
    -2.9441624]
   [-3.0810401 -2.856916  -2.9534628 ... -2.9015954 -3.0770304
    -3.156025 ]
   [-3.105955  -3.0343263 -2.8231695 ... -3.0882118 -2.96742
    -2.944559 ]]

  [[-2.9647324 -3.195916  -2.8785257 ... -3.10132   -3.1934073
    -3.108836 ]
   [-2.961485  -2.9548373 -2.999316  ... -2.9743729 -3.0548244
    -3.0071287]
   [-3.0463884 -3.0556064 -3.087729  ... -2.9857483 -3.060135
    -3.3083093]
   [-2.9936879 -2.9169679 -3.0010607 ... -3.047586  -2.8828418
    -2.8636672]
   [-2.8680553 -2.8987942 -2.9708748 ... -3.0955899 -3.1313958
    -3.0575528]
   [-3.1082027 -3.0618446 -2.8970718 ... -2.9319086 -3.1157312
    -3.2392554]]]


 [[[-3.1888359 -2.941     -3.0314376 ... -3.1153774 -3.120052
    -2.9246123]
   [-3.044969  -3.1130624 -2.9579508 ... -3.0749683 -3.0393481
    -3.0062454]
   [-2.821135  -3.0792537 -3.045093  ... -3.3621817 -3.187005
    -3.021062 ]
   [-2.8386903 -3.077496  -3.0809848 ... -2.9923317 -2.8466377
    -2.882599 ]
   [-3.0307517 -3.0346622 -3.1508467 ... -3.0613985 -3.0216937
    -3.1011286]
   [-3.1259136 -2.9478488 -3.1516204 ... -3.1818485 -3.1140332
    -3.0781739]]

  [[-3.2442489 -2.9558215 -2.9153128 ... -2.9347522 -2.9142973
    -3.0675445]
   [-3.0045495 -2.9367833 -2.770983  ... -3.200407  -3.1835685
    -2.9653683]
   [-3.0122068 -2.8985543 -2.963999  ... -2.7789469 -2.9059653
    -2.9317656]
   [-2.765956  -2.9661086 -2.9570673 ... -2.907012  -2.9857075
    -2.891919 ]
   [-3.058663  -2.9524312 -3.1033394 ... -3.1726599 -2.9479458
    -3.1497312]
   [-2.985659  -3.108196  -3.0332613 ... -2.8020504 -3.1049395
    -2.9567   ]]

  [[-3.2052004 -2.983869  -3.1283808 ... -2.7492452 -2.9666436
    -2.8077335]
   [-3.2112134 -2.994717  -3.0620072 ... -3.124845  -2.9355285
    -3.1615658]
   [-3.1133673 -2.9295583 -2.9686248 ... -3.0163383 -2.9078705
    -3.0401976]
   [-2.9332066 -2.9752421 -3.049053  ... -2.8839989 -2.8574646
    -2.9669802]
   [-2.9726868 -2.9032145 -2.894122  ... -2.9916582 -3.029515
    -2.848683 ]
   [-2.9761844 -3.0230434 -3.0399134 ... -3.06745   -2.9522102
    -2.8452735]]

  [[-2.9563801 -2.9301598 -2.9553552 ... -3.0896826 -3.0208309
    -3.0672734]
   [-3.0430803 -3.0082698 -2.8730364 ... -2.9619763 -3.0291152
    -2.8566363]
   [-3.097381  -2.9541657 -2.9322972 ... -3.202237  -2.9391272
    -3.077492 ]
   [-2.9815767 -2.9317155 -3.0039597 ... -3.0935855 -3.052485
    -3.0051787]
   [-2.9582675 -2.817635  -3.0588765 ... -2.8185318 -2.8962567
    -3.0571454]
   [-3.060409  -3.1332853 -3.0845165 ... -2.920359  -2.999061
    -2.9481807]]

  [[-3.0887485 -2.9351754 -3.252521  ... -2.8430257 -2.9837475
    -2.9950137]
   [-3.0197825 -3.041679  -2.9500172 ... -3.07363   -3.1634202
    -3.3387945]
   [-3.092607  -2.841719  -2.9670212 ... -2.9516435 -3.00367
    -3.002689 ]
   [-3.1494274 -3.0933018 -2.925833  ... -2.9493654 -2.8877351
    -2.9885163]
   [-2.9725401 -2.9214928 -2.9586556 ... -3.1974742 -3.0838528
    -2.7422879]
   [-2.7452304 -3.0184038 -2.87882   ... -2.9880652 -3.129788
    -2.9982476]]]


 [[[-3.028208  -3.109799  -3.1234055 ... -3.0296173 -2.8577874
    -2.9797826]
   [-2.9828908 -3.072202  -3.1155481 ... -3.0619912 -2.9579377
    -2.9014509]
   [-2.9272237 -2.865746  -2.9743779 ... -3.0477788 -2.854019
    -2.9083846]
   [-2.933457  -3.1063228 -2.936466  ... -2.890094  -2.969824
    -2.980288 ]
   [-3.0599988 -3.156723  -2.9598162 ... -2.9859805 -2.8824916
    -2.9193013]
   [-3.117825  -3.0990262 -2.939195  ... -2.954729  -3.01547
    -2.889111 ]]

  [[-3.0467196 -3.016264  -3.122304  ... -3.092728  -2.9427648
    -2.9403434]
   [-3.0133173 -3.051545  -3.0234663 ... -2.7927372 -3.0363245
    -3.0801609]
   [-3.0097666 -3.1170707 -3.067503  ... -3.1005955 -2.7737498
    -2.9770205]
   [-3.1667356 -3.308873  -2.9389458 ... -2.922379  -3.046681
    -2.996839 ]
   [-2.8888028 -3.066795  -3.037624  ... -3.180083  -2.9013088
    -3.0308855]
   [-3.1174977 -2.7600188 -3.0320961 ... -2.7970214 -2.932611
    -2.927978 ]]

  [[-2.7828271 -3.0392637 -2.8918056 ... -2.9751794 -3.0104485
    -2.8823285]
   [-2.9734612 -2.9037805 -3.1777256 ... -2.7967901 -2.928206
    -2.942199 ]
   [-2.949759  -3.155607  -2.927341  ... -3.2028322 -3.016955
    -3.1468945]
   [-2.918714  -2.899063  -2.8656352 ... -3.205483  -3.0369081
    -3.065741 ]
   [-3.0659335 -2.8620305 -3.0167067 ... -3.1094558 -2.9018223
    -3.0294309]
   [-3.081393  -3.0735853 -3.0994937 ... -2.995023  -2.893496
    -3.1497355]]

  [[-3.102772  -3.1385195 -2.8095622 ... -3.1304948 -3.0412722
    -3.0042326]
   [-2.95094   -2.894604  -2.9505956 ... -2.8677416 -2.9074125
    -3.2371016]
   [-3.0159574 -3.076888  -3.091696  ... -2.895553  -2.9210687
    -3.184338 ]
   [-2.9415364 -2.9975786 -3.0542943 ... -3.0170422 -3.0010328
    -2.6824746]
   [-2.9888194 -2.9324424 -2.8792946 ... -3.0843403 -2.8953378
    -2.8294628]
   [-3.0319893 -3.0342243 -3.0990407 ... -3.0675566 -3.0446525
    -2.9994526]]

  [[-3.0360208 -3.1629286 -3.2204635 ... -2.9822845 -2.9684806
    -3.010623 ]
   [-2.9878802 -2.7761042 -2.9929647 ... -2.792113  -3.1801696
    -2.9245415]
   [-3.1624954 -2.981143  -2.9953916 ... -2.8916779 -3.048925
    -2.9197445]
   [-3.0427947 -2.9464023 -3.0159981 ... -3.0261667 -2.9348788
    -2.9384785]
   [-3.1131334 -2.9309914 -2.9746902 ... -2.81224   -3.0622087
    -2.9476867]
   [-2.9432893 -3.027625  -2.8747902 ... -2.9381785 -2.8435233
    -3.0753186]]]


 [[[-2.9958248 -2.9711494 -2.9762092 ... -3.0158267 -3.0754888
    -2.8483405]
   [-2.9945023 -2.972868  -3.0021334 ... -2.9154387 -2.9537773
    -3.280136 ]
   [-3.0332966 -2.862424  -2.873741  ... -3.0067225 -2.9428976
    -2.938243 ]
   [-2.7692583 -2.8013573 -2.86888   ... -2.8657897 -2.8963668
    -2.891331 ]
   [-3.2146204 -3.0313349 -2.9955404 ... -2.9991326 -3.0453317
    -3.042705 ]
   [-3.2007332 -2.977607  -2.8462265 ... -3.0228333 -3.024809
    -3.0509274]]

  [[-3.202868  -3.0665944 -3.022222  ... -3.045455  -3.0082493
    -3.0295892]
   [-3.00426   -2.8880956 -3.0505893 ... -3.1560938 -2.950449
    -3.0920012]
   [-2.9056134 -3.2011747 -3.0900745 ... -2.964638  -3.0517564
    -3.1061265]
   [-3.0204601 -2.991482  -2.97339   ... -2.9472823 -2.991466
    -3.018215 ]
   [-3.0298882 -3.045201  -2.977757  ... -3.1282399 -3.171059
    -3.0465167]
   [-2.9062245 -3.094971  -3.0175238 ... -3.1673334 -3.1341481
    -2.9234512]]

  [[-3.049924  -2.9761539 -3.0619223 ... -2.9848638 -3.0905688
    -3.007154 ]
   [-2.9254754 -3.0236917 -2.9722505 ... -3.0784953 -2.9170582
    -2.9572396]
   [-2.8761227 -3.0368156 -2.8674874 ... -3.0474033 -3.1100974
    -2.8758192]
   [-3.1484015 -2.9715436 -2.9114316 ... -3.0963817 -2.8925614
    -2.9634466]
   [-3.0331511 -2.9271617 -3.1394553 ... -3.0992403 -2.953226
    -2.7898526]
   [-3.157312  -2.9944394 -2.9948719 ... -2.9627585 -2.862009
    -2.9755068]]

  [[-3.1895878 -3.0264266 -3.1010084 ... -2.9374528 -3.2789452
    -3.1691988]
   [-3.2014205 -2.9222262 -3.1067362 ... -2.886526  -3.0038722
    -2.9685297]
   [-2.9651315 -2.835906  -2.8712318 ... -2.810367  -3.0782034
    -3.0206804]
   [-2.94059   -2.93695   -3.0999758 ... -2.9310813 -3.0581326
    -3.2232783]
   [-2.9842646 -2.8359158 -3.171056  ... -2.917491  -2.8437903
    -3.0812337]
   [-3.0625036 -3.1073947 -3.1404011 ... -3.1072035 -3.1822226
    -3.1337433]]

  [[-2.8945358 -3.043571  -3.0144641 ... -3.0563316 -2.9845908
    -2.856177 ]
   [-3.0375173 -2.8763037 -2.8768198 ... -3.0608015 -2.9552436
    -3.118706 ]
   [-2.9237287 -3.0061436 -3.011948  ... -3.1706393 -2.8544624
    -3.0651643]
   [-3.1013806 -2.8885183 -3.1209617 ... -3.1259058 -3.0126584
    -3.0346975]
   [-3.1076028 -3.180382  -2.8602023 ... -3.1909482 -3.046755
    -3.0129514]
   [-3.1213655 -3.0218062 -3.0274584 ... -2.7908292 -3.1144207
    -2.9591463]]]]
(16,)
[-5.6250221e-03  1.7172616e-04 -1.6065000e-01 -6.3631825e-02
 -2.8013596e-02 -5.0780226e-02  6.1534192e-02  1.8960720e-02
  2.8572127e-02 -1.6683052e-01 -2.2952224e-03  3.0329883e-02
  3.9339084e-02  2.4581711e-01 -1.2679292e-01  2.2490890e-01]
---BNN 3 weights---
---BNN 4 weights---
(5, 5, 16, 120)
[[[[-2.36064605e-02 -7.71321952e-02  2.87462268e-02 ...  2.80555096e-02
     2.67113894e-01  9.57292840e-02]
   [ 1.18465750e-02 -1.56599253e-01  2.38609955e-01 ...  1.09468393e-01
     1.47597538e-02 -5.39198406e-02]
   [ 8.87438189e-03  1.47178723e-02  6.66304901e-02 ...  5.54092787e-02
    -9.09066200e-02  1.16682388e-01]
   ...
   [ 9.82530192e-02  8.19734558e-02 -9.42149106e-03 ...  1.47104889e-01
     6.97250292e-02  1.57289412e-02]
   [-1.11573793e-01  3.76340374e-02 -3.92875485e-02 ... -3.83707695e-02
     8.87335837e-02 -1.13717191e-01]
   [ 9.78978425e-02 -2.19091818e-01 -1.08560503e-01 ...  9.61737856e-02
     9.52887684e-02  8.33333656e-02]]

  [[ 1.52509138e-02  1.35566935e-01 -1.66347399e-01 ...  7.35520348e-02
    -1.06554344e-01 -5.60687855e-02]
   [ 9.49363485e-02  1.32757530e-01  2.30828337e-02 ... -6.78287223e-02
    -8.87315124e-02  1.98781356e-01]
   [ 3.89898904e-02 -5.89213446e-02 -5.02529517e-02 ...  2.12362215e-01
     7.52647668e-02 -1.74952269e-01]
   ...
   [-1.05945721e-01  6.62903115e-02  3.24308686e-02 ... -4.47788686e-02
     3.19645345e-01 -1.08610526e-01]
   [-5.08492766e-03  3.68459872e-03 -8.35312530e-02 ... -3.86370276e-03
     6.38010427e-02  4.52481955e-02]
   [-1.35500371e-01 -1.13307193e-01  1.97797008e-02 ...  5.42060249e-02
     6.78631887e-02  1.02211669e-01]]

  [[-1.63585573e-01  1.20354429e-01 -4.82239537e-02 ... -1.36322128e-02
    -9.85973887e-03 -4.38252389e-02]
   [-7.20905736e-02 -2.33105309e-02  1.99603006e-01 ... -4.23779339e-03
    -1.89013943e-01  1.89629376e-01]
   [-3.34778242e-03 -1.61512531e-02  1.31673396e-01 ...  8.37195590e-02
     1.08194433e-01 -1.03001548e-02]
   ...
   [ 3.98428105e-02  1.35709569e-01  2.91769649e-03 ...  1.94839686e-01
    -6.02556542e-02  1.68783098e-01]
   [ 1.27969190e-01  5.98800182e-02  1.71228126e-01 ... -2.00604483e-01
    -1.34351715e-01  1.02120839e-01]
   [-6.06317297e-02  6.09286316e-03  1.01962484e-01 ... -3.87920253e-02
     8.87718797e-02  2.41471961e-01]]

  [[-6.15971647e-02  2.10413963e-01  2.49544648e-03 ...  6.71673566e-02
    -9.02636126e-02  8.02591816e-02]
   [-5.47343194e-02 -1.54281020e-01 -8.81487504e-02 ...  1.50327593e-01
    -1.78401783e-01  1.51929215e-01]
   [ 3.56621668e-02  6.18326925e-02 -8.12186375e-02 ... -1.43694088e-01
     3.97199355e-02  1.30483672e-01]
   ...
   [-3.02102808e-02 -5.14357165e-02 -1.14241615e-01 ...  6.35058507e-02
     3.71832214e-02  5.08351922e-02]
   [ 6.44221902e-02 -2.30749082e-02 -4.18794043e-02 ... -2.30190560e-01
    -7.88913965e-02 -3.63768861e-02]
   [ 6.71674684e-03 -1.43798232e-01 -3.64898331e-02 ...  2.16935277e-02
     2.89153121e-03  1.58483386e-01]]

  [[ 1.20640568e-01 -1.45888731e-01 -4.43757586e-02 ...  4.68213148e-02
     2.66349223e-02  9.59888771e-02]
   [-8.46440271e-02 -2.04434525e-02  5.94162457e-02 ... -1.48461133e-01
    -4.48405705e-02  7.07582161e-02]
   [ 1.23044647e-01  1.07741453e-01  2.48528346e-02 ... -2.33796798e-03
    -1.86244577e-01  7.92569444e-02]
   ...
   [-1.86734602e-01  7.89742842e-02  1.42979130e-01 ... -1.31631047e-01
     1.26743808e-01 -1.83480397e-01]
   [-2.79596038e-02  9.00694281e-02  1.42574802e-01 ...  2.92328335e-02
     1.23933703e-02 -1.09008841e-01]
   [-1.44593060e-01  1.66089892e-01 -1.07828140e-01 ...  5.62968925e-02
    -1.56635150e-01 -1.17011666e-01]]]


 [[[-5.73132820e-02  3.78639735e-02 -7.67923519e-02 ... -5.89874759e-03
    -2.89431605e-02 -1.32641673e-01]
   [-3.01964115e-02 -5.38322888e-02  1.45802841e-01 ... -2.03541681e-01
     2.23935679e-01 -1.70088589e-01]
   [-9.38989595e-02 -1.00065796e-02 -1.71161653e-03 ... -2.67779715e-02
     1.21278107e-01  2.92473026e-02]
   ...
   [ 9.86227617e-02  3.11142784e-02  8.68283883e-02 ... -9.26322266e-02
     8.19016900e-03 -2.01159567e-02]
   [-7.12597324e-03 -7.22402409e-02  1.19174197e-02 ...  1.18485771e-01
     3.19816247e-02  1.29968477e-02]
   [ 6.64114356e-02 -6.97485581e-02  8.66692290e-02 ... -6.79860648e-04
     5.67710660e-02 -1.07045226e-01]]

  [[ 2.30271951e-03  7.91518763e-02 -4.33069319e-02 ... -1.22684412e-01
    -8.59911069e-02 -2.07866341e-01]
   [ 3.15308236e-02 -7.36578777e-02 -3.77802514e-02 ... -8.74514431e-02
    -1.07423039e-02  1.25392899e-01]
   [ 3.17603424e-02 -2.39722338e-02 -1.38296336e-01 ...  1.86370030e-01
    -2.08501577e-01 -1.44851968e-01]
   ...
   [-2.89761629e-02 -1.08258817e-02  6.00404032e-02 ...  7.50160664e-02
    -3.96643355e-02 -2.85412278e-02]
   [ 8.91401395e-02 -7.30515644e-02 -1.09498359e-01 ...  6.90274825e-03
     5.86710647e-02  5.00665680e-02]
   [-1.00900665e-01  1.56980440e-01  1.81713477e-02 ...  1.46667033e-01
     8.15220848e-02  3.00657786e-02]]

  [[-2.42723059e-02 -2.73005082e-03 -8.92697051e-02 ... -2.14687455e-02
    -2.95908097e-02 -7.72373304e-02]
   [-1.56295210e-01 -6.86158836e-02  2.07773577e-02 ... -4.50726449e-02
     1.16468213e-01  4.75615077e-02]
   [ 3.73083018e-02  5.87379634e-02 -3.71012166e-02 ...  5.72777502e-02
     1.23071350e-01 -1.61267333e-02]
   ...
   [-8.15507323e-02  8.82739052e-02 -9.24906209e-02 ...  5.22505008e-02
     8.45014229e-02 -1.86067134e-01]
   [ 5.48473708e-02 -2.36252770e-02 -3.23534827e-03 ... -4.90914658e-02
     9.07642841e-02 -4.34513278e-02]
   [ 5.58942035e-02  2.57018786e-02  3.45731378e-02 ...  7.00516328e-02
     2.63437815e-02  2.59975623e-02]]

  [[ 1.43329427e-01 -1.57168396e-02 -1.37676880e-01 ... -5.47384620e-02
    -7.61673003e-02  7.03045726e-02]
   [-9.95429978e-02 -1.36214662e-02  5.56062395e-03 ...  1.28783196e-01
     2.92874314e-02 -6.61658272e-02]
   [-1.09875858e-01  2.19441429e-02  1.06243961e-01 ... -1.76923960e-01
     4.08429233e-03 -3.30972187e-02]
   ...
   [ 7.55005796e-03  6.67370483e-02 -5.61812241e-03 ... -2.17208117e-02
    -4.62862253e-02  2.99286395e-02]
   [ 1.55550405e-01  1.09886482e-01 -4.11124602e-02 ...  2.81081107e-02
     4.08924930e-02 -3.32124941e-02]
   [ 4.25646491e-02 -6.32109866e-02  6.51964694e-02 ... -6.88518211e-02
     1.40607655e-01 -1.74896583e-01]]

  [[-2.22920608e-02  6.91241249e-02 -2.13965401e-01 ...  1.54351413e-01
    -5.71862236e-02 -1.23472445e-01]
   [-1.13824107e-01  3.29190008e-02 -1.68472111e-01 ... -7.75932595e-02
    -9.50216427e-02  1.41067028e-01]
   [ 1.93362758e-01 -5.16330963e-03  1.64854750e-01 ... -6.19052313e-02
     1.38747664e-02  4.53263102e-03]
   ...
   [-2.87264019e-01 -8.88198167e-02  4.86749485e-02 ...  4.09942046e-02
    -1.86747253e-01 -2.25855950e-02]
   [-4.73086797e-02 -3.28697227e-02  2.84799673e-02 ...  4.63726074e-02
    -1.66467622e-01  5.44289909e-02]
   [ 2.72816811e-02 -2.22557858e-01  1.56181054e-02 ...  9.58370566e-02
    -1.62934735e-01  5.79214795e-03]]]


 [[[-3.45651396e-02 -1.79168627e-01 -9.62772965e-02 ... -3.40065849e-03
    -1.41400933e-01  9.91879329e-02]
   [-1.63977534e-01 -1.00919455e-02  1.47962973e-01 ...  4.83595543e-02
     1.74920447e-02 -1.10069979e-02]
   [ 4.57938500e-02  2.47065499e-02  2.04064623e-02 ... -7.99572095e-02
    -1.13844335e-01 -9.96570513e-02]
   ...
   [ 2.65422883e-03  2.35478446e-01 -1.10295355e-01 ... -8.24553147e-02
    -1.75319344e-01 -3.93188111e-02]
   [-8.07245001e-02  4.60322723e-02  1.46190554e-01 ...  4.21163701e-02
    -1.41755745e-01  7.09858462e-02]
   [-5.51865883e-02 -1.46171540e-01 -5.29197641e-02 ... -4.15144749e-02
    -9.70113948e-02 -7.30149075e-02]]

  [[-1.71283949e-02  1.78631976e-01 -6.32104427e-02 ... -1.83187667e-02
    -1.66381508e-01  1.32425278e-02]
   [ 3.38226184e-02  1.19571619e-01  1.03341095e-01 ... -1.20761834e-01
    -5.48728108e-02  7.13583007e-02]
   [ 2.84744962e-03  2.03106865e-01 -4.81529720e-02 ...  6.12427965e-02
    -6.60072044e-02  1.30367219e-01]
   ...
   [-7.48885199e-02  3.17934826e-02  1.15098633e-01 ... -3.16008292e-02
    -2.59428114e-01 -8.44386127e-03]
   [-7.55088031e-02 -5.20502739e-02  3.07910349e-02 ...  2.12107256e-01
    -3.96309532e-02  4.76892404e-02]
   [-5.62539399e-02  2.01355778e-02 -2.04763204e-01 ... -5.45745678e-02
     6.37507513e-02 -1.50545361e-02]]

  [[-1.59310982e-01  1.04618348e-01 -4.02110852e-02 ... -3.38971950e-02
    -9.15242061e-02 -6.27666339e-02]
   [-5.86105231e-03  1.82611302e-01 -1.05277359e-01 ...  4.75403666e-02
     2.04353798e-02  2.11013958e-01]
   [ 1.71788082e-01 -1.27881229e-01 -8.46667439e-02 ... -1.21158205e-01
    -1.41464859e-01 -2.09350372e-03]
   ...
   [ 1.75034821e-01  6.42457977e-02 -4.05083559e-02 ...  6.31436929e-02
    -3.15685458e-02 -7.91717470e-02]
   [-1.59585718e-02 -9.44686234e-02 -3.95145267e-02 ... -1.07577384e-01
     2.26887222e-02 -6.53921962e-02]
   [-1.08329849e-02 -1.71975672e-01 -1.38805002e-01 ...  4.97830361e-02
     7.93477222e-02 -7.47360438e-02]]

  [[-8.59839395e-02 -1.84197479e-03 -3.04266401e-02 ...  9.08471569e-02
    -7.73083270e-02  6.18750043e-02]
   [-1.92315355e-01  4.34450842e-02 -3.92288864e-02 ... -9.91173163e-02
     2.87002295e-01 -8.67099017e-02]
   [ 4.55064289e-02 -1.17115639e-01  9.13894996e-02 ... -1.17330931e-01
     1.54320702e-01  4.74890582e-02]
   ...
   [-1.70079812e-01 -3.59943286e-02 -3.12722707e-03 ... -1.45273775e-01
    -7.75128379e-02 -1.13797583e-01]
   [-1.30185708e-01  7.61024579e-02  1.09041177e-01 ...  3.36883888e-02
     1.17483707e-02 -9.91959590e-03]
   [ 1.62122458e-01  1.75237507e-02 -1.14473961e-01 ... -1.18356444e-01
     1.26753658e-01 -6.89970180e-02]]

  [[ 6.98920339e-02 -4.75405529e-02  8.56578872e-02 ...  1.75521791e-01
    -3.72069925e-02 -2.39735898e-02]
   [ 1.71059847e-01  6.21077009e-02  9.59255844e-02 ...  5.32035306e-02
     9.74564906e-03 -1.02005769e-02]
   [ 7.85984397e-02 -1.70574021e-02  2.22197518e-01 ... -1.19750358e-01
     2.30818914e-04  6.90173656e-02]
   ...
   [-1.00005202e-01 -7.93242902e-02  1.15227513e-01 ... -1.58265885e-02
     1.47012798e-02 -9.22083184e-02]
   [ 1.55606372e-02 -3.19491513e-02  1.94706134e-02 ... -1.05087414e-01
     1.01635214e-02 -8.29951391e-02]
   [-7.75540769e-02  1.36972651e-01 -6.82680085e-02 ... -5.92152588e-02
     1.26094535e-01  8.03323016e-02]]]


 [[[-1.28963679e-01 -6.78034052e-02 -1.04917064e-02 ... -7.52858892e-02
    -4.29969979e-03  1.42290937e-02]
   [ 7.08460435e-02 -5.78870773e-02 -1.46909237e-01 ...  1.69809073e-01
     6.02865517e-02 -2.06752703e-01]
   [-5.62095828e-02  6.67382926e-02 -2.39028484e-01 ...  2.58923143e-01
    -3.63546461e-02  2.29060892e-02]
   ...
   [-5.33394516e-02  1.12686388e-01 -1.02064326e-01 ... -1.12382762e-01
     5.92262521e-02  8.18192363e-02]
   [-2.77327567e-01 -8.17680731e-02 -1.48405746e-01 ...  6.72156364e-02
     7.65132755e-02  4.03194204e-02]
   [ 6.18262365e-02  1.14307158e-01 -5.75284138e-02 ... -5.99513836e-02
    -7.93981180e-02  1.42407686e-01]]

  [[-1.45944908e-01  4.83707301e-02  9.71977338e-02 ... -1.16272978e-01
     1.30564440e-02 -2.37512663e-01]
   [-6.37388751e-02  9.66556594e-02  6.82459101e-02 ... -1.60662699e-02
    -9.64760333e-02  1.13328742e-02]
   [ 4.38141217e-03 -2.84278095e-02 -2.12097503e-02 ...  2.37227660e-02
     1.83399825e-03 -6.09910153e-02]
   ...
   [ 1.66085720e-01  1.26221120e-01 -3.72336470e-02 ... -6.62536621e-02
     1.58441782e-01 -4.05459572e-03]
   [-1.32061094e-01  1.30684868e-01  2.23550852e-02 ...  4.68357429e-02
     7.38874376e-02  2.03212146e-02]
   [-3.73184658e-03  1.94118265e-02  2.91148543e-01 ...  2.80706324e-02
     2.30603050e-02  2.41199359e-02]]

  [[-7.12667778e-02 -1.22488275e-01 -1.22907162e-01 ... -9.86584350e-02
     7.60643417e-03 -6.46244213e-02]
   [-2.15353757e-01 -6.07030001e-03 -8.79305154e-02 ... -1.13921752e-02
    -2.97690034e-01 -1.76559146e-02]
   [ 1.18110918e-01 -1.54179737e-01 -1.32289574e-01 ... -1.09422855e-01
    -1.80507943e-01 -4.71327715e-02]
   ...
   [ 2.59510726e-02  3.08218598e-02 -3.98888551e-02 ...  1.05058841e-01
     8.81697536e-02 -1.02291107e-01]
   [-1.25248373e-01  1.07525671e-02  2.52480116e-02 ... -1.33637890e-01
    -2.76516136e-02  6.62363023e-02]
   [-1.31795357e-03  1.01428702e-01  1.21063247e-01 ...  2.05334231e-01
     1.90293547e-02  7.82955065e-02]]

  [[ 4.31963988e-02  8.00190866e-02 -1.94614023e-01 ... -1.05630413e-01
     6.12683073e-02  6.13279045e-02]
   [ 1.71667486e-01 -1.03615098e-01  9.33064446e-02 ... -3.05903442e-02
     1.22464902e-03  4.00349051e-02]
   [ 1.13296263e-01 -1.36508211e-01  1.26869664e-01 ...  1.33592099e-01
    -1.45222887e-01 -5.25547639e-02]
   ...
   [ 3.58923641e-03  4.82956693e-02  9.79875922e-02 ... -3.01115535e-04
     8.31181258e-02 -3.24079096e-02]
   [-9.09035280e-03  2.46856317e-01 -6.15692995e-02 ...  6.23535216e-02
    -1.78886615e-02  3.22444141e-02]
   [-1.26292363e-01 -4.95836139e-02 -1.61629423e-01 ... -8.21391994e-04
    -1.62492084e-04  1.16836905e-01]]

  [[-2.88746711e-02 -4.08135988e-02 -2.40407921e-02 ... -3.92848160e-03
     5.46793602e-02  1.18444478e-02]
   [-1.51879296e-01  3.14362422e-02 -1.05867624e-01 ...  4.05612998e-02
     1.01575017e-01  3.74172442e-02]
   [-4.05820366e-03  1.44857541e-01 -8.82011745e-03 ...  2.01366376e-02
    -1.39982417e-01  1.52656725e-02]
   ...
   [-1.00405633e-01  1.43187895e-01 -1.19035378e-01 ...  1.56940203e-02
     2.62015432e-01 -1.40915841e-01]
   [ 1.11395918e-01  7.13269785e-02  2.14226525e-02 ...  5.51152341e-02
    -8.05287734e-02 -2.55204290e-02]
   [-2.51796972e-02  6.19310737e-02  2.86483672e-02 ... -5.64989746e-02
    -3.74569856e-02  1.39219752e-02]]]


 [[[-1.21512771e-01  1.07965782e-01 -3.41125391e-02 ... -4.97288406e-02
    -4.73132245e-02  2.58062482e-02]
   [ 1.21515396e-03 -1.20869081e-03  1.13064170e-01 ... -1.30130677e-02
     8.44317488e-03  3.10733505e-02]
   [-1.70515120e-01 -8.09552670e-02  3.33347842e-02 ... -9.57155749e-02
     1.01092137e-01 -2.71551162e-01]
   ...
   [ 6.15656190e-02  3.22058983e-02  1.50795490e-01 ... -1.13845341e-01
    -8.34100228e-03 -3.19205895e-02]
   [ 1.69411153e-02 -1.24870099e-01 -5.74664734e-02 ...  1.99129313e-01
    -3.51142250e-02 -9.73540079e-03]
   [-4.38405946e-02  8.96830298e-03  1.31725207e-01 ...  2.45288983e-02
     9.90902409e-02  4.47255895e-02]]

  [[-8.55306387e-02 -1.55113026e-01 -2.90611591e-02 ... -4.95033488e-02
    -2.53642630e-02 -6.99490383e-02]
   [-2.50446051e-02  2.23179206e-01  9.62451287e-03 ...  1.41792763e-02
    -3.74521688e-02  5.11901975e-02]
   [ 2.24669557e-02  1.38007402e-01  1.69439659e-01 ... -1.98707562e-02
     1.39573319e-02  7.92260375e-03]
   ...
   [ 8.77462253e-02  3.62009183e-02 -5.14161289e-02 ...  2.28545237e-02
     9.31190476e-02 -3.43389064e-02]
   [-1.30616231e-02  5.95045602e-03  1.49085119e-01 ... -1.08094834e-01
    -1.28336176e-01  4.89540137e-02]
   [ 2.07950994e-02  4.03379537e-02  2.42044434e-01 ... -1.07181191e-01
     8.39431211e-02  2.58837640e-02]]

  [[-4.73483987e-02 -1.31545350e-01  5.21174632e-02 ... -7.32421502e-02
    -6.12184405e-02 -3.87753248e-02]
   [ 1.65614009e-01  1.36809886e-01  9.02511030e-02 ... -5.18395985e-03
     2.86168586e-02 -9.01070312e-02]
   [-1.28922179e-01  2.11620349e-02 -8.75164866e-02 ... -5.45347333e-02
     5.89874201e-02 -1.78658012e-02]
   ...
   [ 2.09381841e-02  5.86791139e-04 -9.41182002e-02 ...  6.54120073e-02
    -1.78865686e-01 -2.23548021e-02]
   [ 2.77406652e-03 -5.71946613e-02 -7.06864074e-02 ... -6.78769127e-02
    -5.15753701e-02 -1.55496508e-01]
   [-1.45502985e-01  5.25666177e-02 -1.21462392e-02 ...  5.84559143e-02
    -1.38795644e-01 -1.84740499e-03]]

  [[-1.70606207e-02  1.54025771e-03 -6.74758479e-02 ... -5.22830943e-03
    -2.19748840e-01  4.86831143e-02]
   [-3.07636112e-02  3.33431400e-02 -1.31281808e-01 ...  1.87978774e-01
     7.49555454e-02 -2.30696723e-01]
   [ 2.76967939e-02  4.22784053e-02  1.83426198e-02 ... -9.34279989e-03
    -1.26925707e-01 -6.10512495e-02]
   ...
   [ 5.10974899e-02  4.19355221e-02  1.38465897e-03 ... -1.58648029e-01
    -1.49938479e-01  2.89524416e-03]
   [-9.06192139e-02 -1.84124149e-02  3.73675348e-03 ...  1.01397172e-01
     9.62898433e-02 -1.13261342e-02]
   [-1.05776064e-01 -8.38468671e-02  7.86753967e-02 ... -1.29528478e-01
     4.77395058e-02 -3.60968560e-02]]

  [[-6.94093928e-02  1.60478577e-01  4.91490327e-02 ...  8.36422145e-02
    -8.88048410e-02 -2.29616165e-02]
   [ 8.09332356e-02 -6.44452125e-02  1.27434894e-01 ... -2.29288395e-02
    -4.17100117e-02  7.38101602e-02]
   [-5.63593879e-02  8.41499269e-02 -8.04952905e-02 ... -2.01371443e-02
    -9.53090116e-02  2.60868281e-01]
   ...
   [ 4.92251329e-02 -5.11746518e-02  2.02018749e-02 ... -1.37536436e-01
    -4.68535982e-02  2.73502385e-03]
   [-8.86554942e-02 -1.35612398e-01 -8.27147290e-02 ... -1.43508360e-01
    -5.85137270e-02 -1.24077611e-01]
   [-8.43447149e-02 -1.87457148e-02 -1.36788667e-03 ...  5.24778925e-02
    -1.13163196e-01  2.58660205e-02]]]]
(5, 5, 16, 120)
[[[[-3.1062884 -3.04263   -2.9183223 ... -3.0941775 -3.0229137
    -2.9674492]
   [-3.0582027 -3.0811174 -3.1106598 ... -2.83626   -3.2253795
    -2.9922118]
   [-3.1443996 -2.9693737 -2.984395  ... -3.0944493 -2.9783137
    -3.0519578]
   ...
   [-3.0137439 -2.97802   -3.1380925 ... -2.996067  -3.169093
    -3.0419056]
   [-2.8959649 -2.9392889 -2.9928532 ... -2.9967928 -2.963481
    -2.9468389]
   [-2.951367  -2.9088225 -3.1939185 ... -3.0056455 -3.1684597
    -3.0978577]]

  [[-2.922971  -3.0098577 -2.955434  ... -3.1122396 -3.0246332
    -2.8659484]
   [-3.070438  -3.0795846 -3.0193162 ... -2.8846824 -2.889691
    -3.2149727]
   [-2.9842024 -2.9586017 -3.0060773 ... -3.1343026 -3.1802173
    -2.9038517]
   ...
   [-2.9358082 -2.9997542 -3.1155553 ... -2.963738  -2.875352
    -3.0525756]
   [-2.8703122 -3.0659478 -2.9603329 ... -2.9063973 -2.9546008
    -2.983871 ]
   [-2.8787699 -2.9811835 -2.9637141 ... -3.0732024 -3.0170069
    -3.089549 ]]

  [[-2.9719188 -2.949962  -3.0034685 ... -3.021277  -2.8406796
    -3.102008 ]
   [-3.0596833 -3.0270493 -2.953844  ... -3.0072608 -2.904318
    -2.8912683]
   [-2.9505837 -2.88828   -3.1942239 ... -3.0423253 -2.9288955
    -3.0428104]
   ...
   [-2.9920154 -2.884667  -2.9983914 ... -2.8814626 -3.0820112
    -3.109644 ]
   [-2.9783998 -3.0847204 -2.8934999 ... -2.9986684 -2.9725466
    -3.0611916]
   [-3.0261643 -2.9000309 -2.9319036 ... -2.9419794 -2.9154167
    -3.0601811]]

  [[-3.0303693 -2.877506  -3.0864916 ... -2.892216  -3.081036
    -2.9292448]
   [-2.880614  -2.9652057 -3.0481908 ... -3.1256127 -2.9856813
    -3.0681188]
   [-3.0247521 -3.0069547 -2.9539115 ... -2.9352348 -2.902928
    -3.1262653]
   ...
   [-2.9239302 -2.9484792 -2.983477  ... -3.0140567 -2.9312336
    -2.966389 ]
   [-3.0680263 -2.9571083 -3.0996125 ... -2.790328  -3.2195368
    -2.9592023]
   [-2.9123967 -2.8640828 -2.9278817 ... -3.001903  -3.1812692
    -2.9457512]]

  [[-3.1854365 -3.0355484 -2.931197  ... -2.9644866 -2.9758437
    -2.8565562]
   [-2.9513655 -3.1033435 -3.0277557 ... -3.0872872 -3.061391
    -3.0434673]
   [-2.9127002 -2.9702134 -3.0900574 ... -3.1574926 -3.1324103
    -2.8520339]
   ...
   [-2.9681525 -3.0079107 -3.0855732 ... -3.071179  -3.049578
    -2.8539414]
   [-3.040943  -2.9358273 -3.0991063 ... -3.3164234 -3.0217378
    -3.0457242]
   [-2.868095  -3.1022217 -3.096388  ... -3.0276897 -3.0712478
    -2.8311553]]]


 [[[-3.2317932 -2.8506937 -3.0823374 ... -3.0080373 -3.0625534
    -2.931425 ]
   [-3.0432816 -2.9263647 -3.127801  ... -3.047843  -3.0496464
    -2.973547 ]
   [-3.188057  -2.9689436 -2.9975579 ... -2.9316273 -3.0316472
    -2.935209 ]
   ...
   [-3.0913546 -2.9620984 -3.0820148 ... -3.015458  -3.0120459
    -2.914717 ]
   [-2.9838958 -3.1314259 -2.961267  ... -2.903821  -2.9144626
    -3.027735 ]
   [-2.917664  -3.040929  -3.0852637 ... -3.1381826 -3.0428276
    -2.9786952]]

  [[-3.032266  -3.0584784 -3.1581438 ... -3.0667772 -2.937393
    -2.945139 ]
   [-2.9868605 -3.0438507 -2.955353  ... -2.8548505 -3.0431247
    -2.985877 ]
   [-2.8613126 -3.1250093 -2.7936542 ... -2.915593  -2.9929667
    -2.9904802]
   ...
   [-3.0298717 -3.1122084 -3.0429518 ... -2.9465227 -3.1172647
    -3.109354 ]
   [-3.0298076 -2.8953784 -2.806002  ... -3.0934584 -2.9815624
    -2.7686543]
   [-2.963522  -3.0613945 -3.0576649 ... -3.1086462 -2.810212
    -3.029586 ]]

  [[-2.7333596 -3.0044131 -3.0323617 ... -3.1395855 -2.9817848
    -3.0378597]
   [-2.6759682 -3.0193658 -3.1177738 ... -2.8495734 -2.9580789
    -3.0351353]
   [-3.0036988 -2.9224272 -3.1209116 ... -3.0927038 -2.852281
    -3.152879 ]
   ...
   [-2.8050306 -2.9981432 -2.9085624 ... -2.9601264 -2.9789784
    -3.0292816]
   [-3.061438  -2.926342  -3.060001  ... -2.892848  -3.148734
    -3.0205739]
   [-2.9845243 -3.2066362 -2.8752909 ... -3.0416796 -3.073203
    -3.1083612]]

  [[-3.2337008 -2.9107249 -3.0440042 ... -3.0530508 -3.0034094
    -2.8992379]
   [-2.9841452 -3.1210566 -2.9417393 ... -2.9833117 -2.9536424
    -2.824142 ]
   [-2.8474932 -3.1536772 -3.14826   ... -3.0452394 -3.0115106
    -3.0145547]
   ...
   [-2.950199  -2.95093   -2.971062  ... -3.1054811 -2.9992216
    -2.9104824]
   [-3.07017   -2.9183357 -2.8941224 ... -2.6929395 -2.9301164
    -3.0421991]
   [-2.9026904 -3.0885966 -2.9587278 ... -3.0966544 -2.9856067
    -2.968814 ]]

  [[-2.8985484 -2.9245844 -3.1899667 ... -2.9575734 -2.8616347
    -2.9148743]
   [-3.1298554 -2.9382823 -3.0766008 ... -2.8123062 -3.0427516
    -3.0660193]
   [-2.995732  -3.0997329 -3.0797677 ... -3.046915  -2.7858977
    -3.0873127]
   ...
   [-2.9920092 -2.927046  -3.062954  ... -3.0077257 -2.9734285
    -2.9543993]
   [-3.0144296 -2.9446392 -2.9901712 ... -2.8719876 -3.0137124
    -3.1313522]
   [-3.2621324 -2.9918022 -3.0660887 ... -2.8774648 -2.909897
    -3.1564734]]]


 [[[-3.0348575 -2.9804807 -3.0618138 ... -3.098787  -2.8446386
    -3.3008113]
   [-3.0316234 -3.2411337 -2.8587515 ... -3.1366274 -2.9974797
    -3.0616167]
   [-2.8447337 -2.7851129 -2.9506168 ... -2.8802857 -2.8746185
    -2.945634 ]
   ...
   [-2.9192276 -3.1837294 -2.961093  ... -2.949294  -3.2007625
    -3.1398778]
   [-3.0723035 -2.902016  -2.8209367 ... -2.9129157 -3.0038304
    -2.8642716]
   [-3.1300802 -2.9684403 -2.9476388 ... -2.9007812 -3.0733342
    -2.9400988]]

  [[-2.9660952 -3.2150667 -3.014003  ... -2.8492873 -3.0083983
    -2.9875927]
   [-3.0183465 -3.0074506 -3.0891685 ... -2.9280694 -2.9059803
    -2.9587028]
   [-2.9872866 -3.0101488 -2.9364595 ... -3.1820226 -2.9631565
    -2.8913143]
   ...
   [-3.1083148 -2.9873395 -3.0178545 ... -3.0181546 -2.8793428
    -3.0128353]
   [-2.9099424 -2.7081866 -2.8481984 ... -2.9394197 -3.254213
    -2.8787382]
   [-2.9754043 -3.1157057 -2.9064386 ... -3.0860035 -2.9456534
    -2.884491 ]]

  [[-2.91446   -3.1251006 -3.2419877 ... -2.9771924 -2.9811833
    -2.8783507]
   [-2.9294195 -2.9380581 -2.8717966 ... -3.129669  -3.0583422
    -3.0502257]
   [-2.7887046 -2.9009337 -2.958688  ... -3.104728  -3.1208627
    -3.1379719]
   ...
   [-2.8578134 -2.8840234 -2.847549  ... -3.1782103 -3.0448787
    -3.0163758]
   [-3.1243966 -2.9256706 -3.2004645 ... -2.8446903 -3.1515152
    -2.9854126]
   [-3.0639238 -2.881719  -3.0852296 ... -2.7859879 -2.961463
    -3.0263085]]

  [[-3.0654776 -2.9037235 -2.8793051 ... -3.0629423 -2.9801185
    -2.928136 ]
   [-2.869379  -2.8525138 -2.9245532 ... -3.155677  -3.0987113
    -2.9966078]
   [-3.086326  -2.7977164 -2.8424833 ... -2.953889  -3.1782944
    -2.980808 ]
   ...
   [-3.0186894 -3.0932055 -2.807574  ... -2.9067957 -3.1547763
    -3.2612107]
   [-2.9444952 -2.8651664 -3.0106833 ... -2.8202167 -3.0175543
    -3.018586 ]
   [-3.1035674 -2.8520174 -2.955084  ... -3.0470634 -2.913192
    -3.1127124]]

  [[-3.1096115 -3.001913  -2.9253051 ... -2.9039366 -3.0709426
    -3.1365361]
   [-2.8930783 -3.1542132 -2.9519818 ... -3.0381427 -2.8655722
    -2.8798378]
   [-2.884953  -3.1437993 -2.7906907 ... -2.9863286 -2.8758137
    -3.0504785]
   ...
   [-3.0811841 -3.0879564 -2.9158926 ... -2.896831  -3.0118444
    -3.0167258]
   [-3.0504603 -2.9347353 -2.904051  ... -2.9652293 -2.9347017
    -2.8299704]
   [-2.9769928 -2.976279  -3.0572445 ... -2.9814723 -3.193903
    -2.8964646]]]


 [[[-2.9884157 -3.1748562 -2.922474  ... -3.0887275 -3.0131478
    -2.9382489]
   [-2.987697  -2.9289877 -3.0865376 ... -3.0077884 -2.8930883
    -3.0781186]
   [-2.9408264 -2.9118862 -2.9997551 ... -3.1001189 -3.0764768
    -3.1055155]
   ...
   [-2.8341374 -3.1790597 -2.8927326 ... -2.9693289 -3.0395331
    -3.0825493]
   [-3.0358636 -2.9641862 -3.0343459 ... -2.8791335 -3.0636117
    -3.0677938]
   [-2.8911784 -2.9203446 -2.8250115 ... -3.1080353 -3.064613
    -2.92919  ]]

  [[-3.0373065 -3.0188062 -3.0104535 ... -3.24748   -3.0088894
    -2.7843375]
   [-2.8882697 -2.9478493 -3.0673785 ... -3.0215254 -3.002706
    -2.8935707]
   [-2.9797955 -2.980065  -2.8850942 ... -3.0360017 -3.1914415
    -2.743609 ]
   ...
   [-3.066223  -3.140861  -3.1506653 ... -3.0156448 -2.9547312
    -2.9370146]
   [-3.0362978 -3.0563488 -2.9892108 ... -3.0550194 -2.774526
    -3.2314038]
   [-2.9792554 -2.997457  -3.122251  ... -3.0218737 -2.986938
    -2.8193953]]

  [[-2.9214985 -2.8644238 -2.8759794 ... -3.0147347 -2.9227126
    -3.0646536]
   [-3.0313616 -2.8949203 -2.9780946 ... -2.881692  -2.970075
    -3.0690665]
   [-3.2325654 -2.9733105 -3.026424  ... -3.0460691 -3.0894954
    -2.9229243]
   ...
   [-2.7849367 -2.8797328 -2.9367638 ... -2.7449477 -3.1746922
    -3.1271594]
   [-2.961534  -2.8743386 -3.05552   ... -2.9214144 -2.9939635
    -3.0954278]
   [-3.031168  -2.8279297 -3.0701728 ... -2.8907435 -2.889176
    -3.1608336]]

  [[-2.9014933 -2.9149513 -2.876429  ... -2.7993395 -2.9002416
    -3.0655715]
   [-2.9022343 -2.9792652 -2.7882457 ... -3.0667238 -3.0848854
    -3.1457257]
   [-2.9187775 -3.1262841 -3.158805  ... -3.0378585 -2.8895173
    -2.9506364]
   ...
   [-3.0902297 -3.0200179 -2.9179077 ... -2.8031535 -2.900977
    -2.8826106]
   [-2.8276732 -2.8920739 -3.1173182 ... -2.9844875 -3.187403
    -3.1104677]
   [-3.0733905 -3.0449183 -2.9859595 ... -2.9822812 -2.9892628
    -3.0593228]]

  [[-3.0295782 -2.9041574 -3.0433955 ... -2.990596  -3.2178469
    -2.969016 ]
   [-2.8823035 -2.8552277 -2.9625409 ... -2.8828716 -2.9826734
    -3.0800502]
   [-3.0873373 -3.1100676 -2.8870876 ... -2.9675457 -2.9503605
    -2.9381971]
   ...
   [-2.8657002 -2.9230533 -3.051633  ... -2.9176252 -3.2174535
    -3.0886376]
   [-3.1054406 -2.9641774 -3.1843352 ... -2.96351   -2.949089
    -3.048586 ]
   [-2.9388795 -3.0524058 -2.8747284 ... -3.1680226 -2.9607165
    -2.9695966]]]


 [[[-3.090166  -3.0225434 -3.1438653 ... -2.8898559 -2.8828921
    -2.9250503]
   [-3.0564435 -2.8802886 -3.0426393 ... -3.088118  -2.9847813
    -2.995973 ]
   [-2.8773246 -2.9900227 -3.0837536 ... -3.0254695 -2.9732828
    -3.026527 ]
   ...
   [-2.9487593 -3.0223587 -3.009623  ... -3.0793486 -3.161444
    -3.0839753]
   [-2.918513  -2.9288406 -3.003955  ... -2.9954646 -3.1298501
    -3.0735087]
   [-3.051654  -2.8592281 -3.0330715 ... -2.9768248 -3.0207086
    -2.9698346]]

  [[-3.1886826 -2.8344543 -3.0583556 ... -2.994543  -2.9424555
    -3.1108215]
   [-2.9118483 -3.0244558 -2.9925733 ... -2.9538906 -2.9397051
    -3.0924578]
   [-3.0789466 -2.9144313 -3.0588655 ... -3.0093029 -3.08839
    -3.007299 ]
   ...
   [-3.0150857 -3.094309  -3.1287136 ... -3.1936347 -2.9738483
    -3.1461914]
   [-2.9761784 -3.0071769 -3.0313902 ... -3.0057905 -2.9996958
    -2.9485874]
   [-3.0691323 -2.9682136 -2.901695  ... -3.0301673 -2.8723617
    -2.9910517]]

  [[-2.9985096 -2.8972874 -2.9853609 ... -3.1928318 -3.1064093
    -3.0535238]
   [-2.999847  -2.8997812 -2.9199426 ... -2.9976223 -3.0825386
    -3.0085182]
   [-2.9543037 -3.0640955 -3.0619888 ... -2.8341372 -3.0467794
    -2.974863 ]
   ...
   [-3.1330934 -3.1628678 -2.9668665 ... -3.0441608 -2.9722686
    -2.9857686]
   [-2.958154  -3.2024257 -3.1871166 ... -2.8804512 -2.924455
    -3.0614002]
   [-3.1912966 -2.9531538 -2.7732995 ... -3.101715  -3.0481536
    -2.9521344]]

  [[-2.9030309 -3.1931853 -2.7814019 ... -2.9972441 -3.0742083
    -2.939594 ]
   [-3.0494215 -2.946116  -2.9611406 ... -3.0278823 -2.986326
    -2.949864 ]
   [-2.984065  -3.1134174 -2.8913183 ... -2.9960296 -3.0321147
    -3.0004997]
   ...
   [-2.9968603 -3.1289701 -2.9198406 ... -2.9850192 -3.0980358
    -2.9232955]
   [-3.0453248 -3.050954  -2.9253066 ... -2.9985685 -2.9816947
    -2.8162892]
   [-2.9484034 -2.9992259 -2.9248471 ... -2.980739  -2.9446912
    -3.0310931]]

  [[-3.0848126 -3.0592577 -2.7921588 ... -3.0116427 -3.0395913
    -2.903238 ]
   [-2.9584866 -3.0949528 -3.2645597 ... -3.0437996 -3.0613434
    -3.0242958]
   [-3.1270149 -2.9590929 -2.9188776 ... -3.0013878 -2.946886
    -2.9461071]
   ...
   [-3.1678188 -3.1258824 -2.9090319 ... -2.99128   -2.9768703
    -2.9465659]
   [-2.9834607 -3.0632167 -3.089478  ... -2.9972181 -2.904397
    -2.8164117]
   [-3.1486359 -2.9804382 -2.852138  ... -2.94288   -2.963802
    -2.8814392]]]]
(120,)
[-0.00753183  0.10599531  0.03936776 -0.1631856   0.13953808 -0.06426232
  0.03536311 -0.00777884  0.01009956 -0.16300234 -0.03998619 -0.07815789
 -0.03738657 -0.15803705 -0.01268025  0.17715022  0.03540925 -0.01385101
 -0.03772674  0.00154798  0.07692581  0.04478917 -0.05716999  0.02157852
  0.03605608 -0.01492672  0.05191157 -0.06775858 -0.10215195 -0.07954004
  0.03973048 -0.23624694 -0.18407188  0.03800818  0.1256822  -0.05040826
 -0.09655783  0.10547928  0.00648957 -0.24505368 -0.20576413 -0.10472953
  0.06215397  0.00627538 -0.03171409 -0.08850868  0.05223649  0.07458385
  0.00385352 -0.04273657  0.14398253  0.08267378 -0.08985735  0.08958112
  0.11260355  0.25078073 -0.08557524  0.00256964  0.00055276 -0.00371348
  0.02647066  0.09972513 -0.07776889  0.0573068  -0.02680873 -0.1469953
 -0.00374286  0.07707327 -0.17599231  0.05512192 -0.07122489  0.06945106
  0.08030113  0.00506426  0.12063415 -0.08249579 -0.03039175 -0.02397544
 -0.00936083  0.20661996 -0.05017148 -0.00207694 -0.02197534 -0.03362597
 -0.02673569  0.00397925 -0.0570537   0.09366719  0.05215606  0.0362168
  0.11046745  0.0702882   0.21240698 -0.13371728 -0.08895509 -0.01256763
  0.14507769 -0.05155859 -0.12966725  0.08954114 -0.05618615  0.102202
  0.07822605 -0.04236554 -0.05300579 -0.08474209  0.14556667  0.06965471
  0.05231888 -0.00698223  0.05669804  0.06157168 -0.02199125  0.06464805
 -0.14490585 -0.15187512  0.14915061  0.01923957  0.10885034  0.05974453]
---BNN 5 weights---
---BNN 6 weights---
(5880, 84)
[[ 0.04962809  0.1383643   0.03709538 ...  0.12516245 -0.01012631
   0.14338161]
 [ 0.04379781  0.04845164  0.07074232 ...  0.02252414  0.10998769
  -0.06559218]
 [ 0.03310729  0.05967557  0.02878077 ... -0.11300512  0.00070575
  -0.02545956]
 ...
 [ 0.05956809  0.08891965 -0.07552349 ... -0.00446783 -0.13153265
  -0.16136281]
 [ 0.04926267  0.15850967  0.0380876  ...  0.00734681  0.01755824
   0.05433118]
 [-0.12903135 -0.2146715  -0.09819433 ... -0.03890512 -0.05728465
   0.01828009]]
(5880, 84)
[[-3.1291165 -2.9089057 -2.8773131 ... -2.9726858 -3.178672  -2.8339846]
 [-2.9394588 -2.971713  -2.901606  ... -2.9455159 -3.0386589 -2.969218 ]
 [-2.9837012 -2.9671555 -3.0139952 ... -2.960349  -3.2625375 -3.0015023]
 ...
 [-3.048204  -2.992446  -3.0562015 ... -3.0836625 -3.0203001 -3.1340857]
 [-2.9597862 -3.1062517 -2.9908543 ... -2.7401283 -3.0591364 -3.0510387]
 [-3.0838687 -3.0498333 -2.90729   ... -3.1217093 -3.0709372 -2.8781893]]
(84,)
[-0.15838817 -0.04427313  0.18502821  0.1886159  -0.22099076  0.13223344
 -0.07025041 -0.08952605 -0.08701767 -0.09081155 -0.03710553  0.06400842
 -0.11787166 -0.21665709 -0.03678111  0.07012068 -0.10596076 -0.05213873
  0.0298705   0.01434093 -0.07603205  0.15491194 -0.01012425  0.08678507
 -0.15694052 -0.01749526 -0.07840466 -0.03758087  0.14940743 -0.0214564
 -0.17030077  0.00310102 -0.06040383  0.04056533 -0.09626868  0.00358455
 -0.00838615 -0.04675541 -0.08393409 -0.08121543  0.0008956   0.14163642
 -0.00045636  0.12338604  0.00730669 -0.18450138 -0.05237419  0.141061
 -0.07928323 -0.09198302  0.03935244 -0.00475464 -0.17741118 -0.16372627
  0.09395851 -0.12831935 -0.01684136 -0.16444954 -0.0153222  -0.10292949
 -0.02797532  0.23418768 -0.16574638 -0.10814996  0.13854128  0.02836279
  0.30956522  0.10358828  0.10575689  0.05082154  0.07017162  0.03512777
 -0.24817033  0.02772879  0.21105377  0.11955316  0.09767719  0.05117255
 -0.140187   -0.01052145 -0.01139305  0.01243387 -0.18975595 -0.11717929]
---BNN 7 weights---
(84, 10)
[[ 5.67581020e-02 -1.87470272e-01 -8.09038654e-02 -4.88250367e-02
  -9.36671123e-02 -2.32128128e-01 -2.03844070e-01  7.26852566e-02
  -4.92862752e-03  4.83776070e-02]
 [-1.33518621e-01  1.61985293e-01 -1.37886688e-01  2.07831319e-02
   1.95577666e-01  5.49589805e-02 -6.61304817e-02  4.78302091e-02
  -4.20285054e-02 -4.80536185e-02]
 [ 5.39770834e-02  7.60657489e-02 -1.18645445e-01 -1.22604765e-01
   1.44164950e-01 -4.79290970e-02  1.38263553e-02  1.20065689e-01
   7.17440322e-02  1.53953478e-01]
 [-1.61934420e-01 -2.97077578e-02  2.47262232e-02 -7.66721219e-02
   8.35320950e-02 -6.79356083e-02  1.76549908e-02 -3.13379206e-02
   1.05931878e-01  1.32092431e-01]
 [ 7.96941072e-02  5.12727499e-02 -2.00844213e-01  1.52364239e-01
  -9.68479738e-02 -1.37981549e-01 -5.30595370e-02  1.42793745e-01
  -1.75622344e-01  1.01950280e-01]
 [-2.95090508e-02 -3.20423208e-02 -4.87958677e-02 -7.16109723e-02
  -1.10100739e-01  5.37983775e-02 -3.74766998e-02  4.53999154e-02
  -2.43902989e-02  4.58887480e-02]
 [-8.95105302e-02 -1.56205609e-01  1.31528899e-01  6.48508295e-02
  -2.43528709e-02  5.63868582e-02 -6.75457418e-02  7.26910159e-02
   6.09665811e-02 -2.83912029e-02]
 [ 1.15458183e-01  4.09906507e-02  1.04118608e-01  8.77821892e-02
  -2.55532891e-01  1.08027115e-01 -1.29679158e-01  5.95863834e-02
  -2.75138170e-02 -6.23695552e-02]
 [-5.41474530e-03  1.78610608e-01  4.32308130e-02 -8.61240700e-02
   3.00034489e-02  3.85096925e-03  1.06492475e-01  9.07070041e-02
   1.84762888e-02 -9.20374095e-02]
 [-3.76695953e-02 -1.15695773e-02 -1.27169881e-02  7.31460238e-03
  -1.80927798e-01  8.77228081e-02  1.09519912e-02  1.84496447e-01
   1.28798097e-01  7.53640980e-02]
 [-9.27119553e-02 -6.77799210e-02 -5.49551323e-02 -3.21305245e-02
   7.64541477e-02  5.43178916e-02  6.61008358e-02  1.12983899e-03
   2.02072978e-01 -9.01902989e-02]
 [ 9.66751575e-02  5.91132753e-02  2.35730931e-02 -4.37418791e-03
  -8.28019008e-02 -2.19668031e-01  1.34072050e-01  1.32963985e-01
  -3.07704192e-02  1.14882231e-01]
 [-1.44298717e-01 -2.21880507e-02 -5.55728078e-02  2.46166885e-02
   2.17619374e-01  1.70058738e-02  2.58795973e-02  5.42748682e-02
  -8.92000347e-02  4.96359430e-02]
 [-1.07404672e-01 -4.23854403e-02  1.70060098e-01  2.29679704e-01
   4.70829047e-02  6.95291087e-02 -1.35857789e-02 -8.93849954e-02
   7.39073455e-02  9.83742997e-02]
 [-1.23553708e-01 -9.66097116e-02 -6.06644014e-03  2.39522770e-01
   9.31617245e-02  9.78568345e-02  2.31110603e-01  2.26500276e-02
   3.32903415e-01 -3.88009921e-02]
 [ 2.34078779e-03 -7.46331811e-02 -1.86953798e-01 -8.43944550e-02
  -1.00391924e-01 -8.34897608e-02 -2.32865419e-02  5.12447953e-02
   2.53917258e-02  1.09833114e-01]
 [-6.94925478e-03 -4.64317687e-02  6.37996942e-03  1.29009560e-01
   2.46460475e-02 -3.31468821e-01  6.37594685e-02 -5.82207739e-02
  -1.24484375e-01 -7.23257586e-02]
 [ 2.92208232e-02 -4.70472267e-03  2.35563263e-01 -8.87418613e-02
  -3.91675010e-02  1.29599348e-01 -2.54341122e-02 -7.44900927e-02
  -2.24937759e-02 -6.29800782e-02]
 [-6.86542243e-02 -8.16534087e-02 -4.67198715e-02 -6.20666109e-02
  -4.15193662e-02 -1.98385511e-02 -4.45283018e-02  9.31470320e-02
  -1.04040466e-01 -1.69132352e-02]
 [ 9.94704887e-02 -1.73568055e-01  6.90466240e-02  1.12895086e-01
  -6.52327463e-02 -4.70013432e-02 -2.51626167e-02 -9.05591808e-03
   3.91821116e-02  1.69871926e-01]
 [-7.72991031e-02 -7.45056346e-02 -1.97150439e-01  9.01983678e-03
   1.23908892e-01  9.07492861e-02  1.20937467e-01 -2.08598189e-02
  -1.49573982e-01  4.30916175e-02]
 [-1.15921371e-01 -6.82656839e-02 -4.64545144e-03 -4.68124636e-03
   1.01422824e-01  1.80954158e-01 -3.56959715e-03  3.05223167e-02
  -8.33727941e-02 -1.66945085e-02]
 [-7.51529215e-03  1.64101094e-01 -1.01226710e-01 -1.36135623e-01
  -1.26850083e-01  2.87693050e-02 -1.65097177e-01  6.14602352e-03
   8.07874426e-02  1.86302170e-01]
 [-2.88573094e-02  9.67636928e-02  4.53464054e-02  8.18273202e-02
   3.73566113e-02 -1.05196200e-01  1.13447741e-01  1.58375680e-01
  -1.26925796e-01  1.87345758e-01]
 [ 6.46429509e-03 -6.38274774e-02 -4.06874493e-02 -6.21160977e-02
  -3.14465426e-02  4.77665365e-02 -2.71983389e-02  1.89265665e-02
  -9.65566933e-03 -6.89876676e-02]
 [ 1.00130498e-01  9.56852362e-02 -2.64863912e-02 -2.74712183e-02
   3.06933513e-03 -1.84038863e-01 -9.66508016e-02  6.80209696e-02
   1.00493826e-01  7.10359514e-02]
 [ 1.90530583e-01  2.65594330e-02  1.32190242e-01 -8.94718617e-02
  -4.70246468e-03  1.74056813e-01 -1.25732660e-01  5.18040173e-02
  -3.95358168e-02  8.87226537e-02]
 [-5.19229732e-02  1.22935072e-01 -1.54267892e-01 -4.43497635e-02
   8.06254074e-02 -8.72643963e-02 -3.15497443e-02 -6.40614852e-02
   1.78568028e-02 -1.97160970e-02]
 [ 4.59155701e-02 -1.16090260e-01  1.04555026e-01 -3.45698409e-02
  -9.20403376e-02 -6.68223435e-03 -1.65050700e-01  1.21191859e-01
   1.51798269e-02 -1.14452027e-01]
 [-5.74706681e-02 -6.47835582e-02 -3.74077372e-02  2.11210608e-01
  -1.88371353e-03  9.66452807e-03 -1.34010151e-01  1.85730562e-01
  -1.21742003e-02  4.59624752e-02]
 [ 1.19157687e-01  7.06446022e-02 -6.72232583e-02 -4.91727702e-02
   5.18536530e-02 -2.11423542e-02 -1.32512590e-02  2.06569195e-01
   3.00698038e-02 -1.06363453e-01]
 [-2.81174332e-01  2.22515732e-01 -8.15797504e-03  1.71972260e-01
  -1.53500810e-02 -1.26133889e-01  3.14352475e-02  6.00616522e-02
  -9.79063194e-03 -2.13253766e-01]
 [ 8.12568069e-02 -7.45719969e-02  3.59168276e-02  7.11209998e-02
  -4.54078279e-02 -1.13659672e-01 -2.26999354e-02 -1.17974952e-01
  -4.17066291e-02 -1.65784389e-01]
 [-2.30723284e-02 -1.45001695e-01  7.56569356e-02 -1.68543458e-01
   6.48487210e-02  4.66504544e-02  3.07633765e-02  1.53840557e-01
  -2.00283155e-01 -1.74747840e-01]
 [-8.61287490e-02 -2.42845770e-02 -6.56308159e-02  1.71289161e-01
  -1.50390612e-02 -3.45895104e-02 -1.79098532e-01 -1.22162644e-02
   1.48394465e-01  1.91282019e-01]
 [-1.14884458e-01  1.38463363e-01  9.41991732e-02  1.56456992e-01
   8.41680393e-02 -1.38635440e-02 -7.58351907e-02  6.91693276e-02
  -1.77625415e-03 -1.74702127e-02]
 [ 1.01876341e-01 -3.22779715e-02  8.70814845e-02  2.26970077e-01
   9.08823460e-02  3.85394506e-02 -3.95543538e-02  4.50937590e-03
   6.37727827e-02  7.07545597e-03]
 [ 3.00613679e-02 -2.43394807e-01 -8.08510557e-03  1.27579361e-01
  -2.49619372e-02  4.54667881e-02  5.16766272e-02  1.32512614e-01
  -4.94879447e-02 -5.45936637e-02]
 [-1.85551494e-02  4.64917384e-02 -1.17684744e-01 -4.61392328e-02
  -2.05884099e-01 -6.31457195e-02  1.27913520e-01 -1.63219997e-03
   4.38347161e-02 -3.77161019e-02]
 [-3.00951153e-02  1.38400067e-02 -1.63016152e-02 -7.38538206e-02
   9.87749472e-02 -5.16014993e-02  6.62030801e-02  4.42151837e-02
   4.10811938e-02  3.15840915e-02]
 [-2.16230422e-01 -1.71052530e-01 -1.02876937e-02  5.62919639e-02
   1.54412107e-03  1.23705663e-01 -1.00230932e-01  1.62096173e-01
  -4.18907516e-02  1.19849242e-01]
 [-3.35933305e-02  9.37448964e-02  1.80989616e-02 -1.25845596e-01
   2.59296328e-01 -1.07502379e-01 -1.97364558e-02 -8.44838545e-02
  -1.48100436e-01 -4.84625809e-02]
 [-8.89664143e-02 -5.82804568e-02 -2.46688221e-02 -1.01555601e-01
  -6.35730550e-02 -2.44667195e-02  1.49870455e-01  1.63310096e-01
   4.53393422e-02  1.16406856e-02]
 [ 1.64303388e-02 -7.81160370e-02  7.05342218e-02  1.22945085e-01
  -1.02207819e-02 -1.94358170e-01  2.34810591e-01 -3.24546173e-02
  -4.60319929e-02  1.19214272e-02]
 [-1.86947081e-02 -1.31087527e-02 -4.64479215e-02 -1.05838478e-01
  -2.93409955e-02  4.50405553e-02  1.04805887e-01  6.92647789e-03
   6.76090419e-02 -1.12423658e-01]
 [-1.85416117e-02 -1.23900570e-01 -3.74243744e-02 -2.30160163e-06
  -5.17965518e-02 -1.77334353e-01  2.09987789e-01  1.21821105e-01
  -1.72527190e-02  8.13127160e-02]
 [ 1.95142310e-02 -9.85343233e-02 -4.14405726e-02 -8.42583850e-02
  -1.25510082e-01 -7.78536722e-02  3.85111086e-02 -8.57849047e-02
  -1.01508729e-01 -3.91296670e-02]
 [ 8.67563933e-02 -3.23343053e-02  3.83783923e-03 -4.66402508e-02
  -4.19932120e-02  1.21048383e-01  9.16637704e-02  9.74827260e-02
   1.42235294e-01  1.19560055e-01]
 [ 6.73931763e-02 -1.40487030e-01 -2.63902843e-02  1.76430255e-01
   2.63118930e-02  9.67478007e-02 -2.67146174e-02  1.18897192e-01
  -4.79012094e-02  2.80094445e-02]
 [-5.88006265e-02 -5.42902239e-02 -2.93019295e-01  7.69221336e-02
  -6.90378621e-02  4.33040261e-02 -4.14164327e-02 -4.33068760e-02
   4.38428931e-02 -3.73757668e-02]
 [ 9.82815325e-02 -2.61539161e-01  1.52577266e-01  3.04222882e-01
  -4.50713299e-02 -8.65885839e-02  1.56238809e-01  1.82802009e-03
  -8.18574652e-02  2.60178387e-01]
 [-4.67523932e-02  3.63500975e-02 -7.13507682e-02  4.13112193e-02
  -7.76441693e-02  1.09846972e-01 -4.68310080e-02 -1.09857380e-01
  -2.35007051e-02  1.62418887e-01]
 [ 1.33347986e-02  4.66157822e-03  1.82359204e-01  3.77289169e-02
   1.40272275e-01  1.63071360e-02  2.18521863e-01  6.84841275e-02
   3.93354595e-02 -1.93120148e-02]
 [-2.32371744e-02  4.64027934e-02  6.03724271e-03  3.45439534e-03
   5.03838956e-02  4.51331139e-02 -2.11521797e-02 -1.46217167e-01
   1.13975536e-02  1.51065424e-01]
 [-2.09630933e-02  4.38857882e-04 -2.45249972e-01  1.26933500e-01
   6.88933060e-02  2.68399596e-01 -2.87301522e-02  1.12032972e-01
  -1.07773654e-01  1.42374754e-01]
 [-1.13508753e-01  5.56402886e-03 -3.42127047e-02 -1.30948145e-02
   1.48630559e-01  1.89551096e-02  1.74965616e-02  9.36677828e-02
   1.96035989e-02 -4.26365202e-03]
 [-1.80127859e-01 -4.14760932e-02  1.58080056e-01 -1.03936970e-01
  -7.11740032e-02  2.17403155e-02 -3.76996654e-03 -1.14959352e-01
   2.02234909e-01  7.74652138e-02]
 [-5.53903580e-02  6.37354553e-02  1.93708599e-01  2.76199430e-02
  -2.62062680e-02 -1.62968919e-01  1.88700706e-01 -4.93797287e-03
  -1.85150821e-02  2.23178472e-02]
 [-5.91132157e-02 -1.81069877e-02  8.57386068e-02 -1.60164405e-02
  -2.55246516e-02 -1.42181665e-01 -1.27981111e-01 -4.56155352e-02
   6.17737658e-02  6.38216287e-02]
 [ 1.43141514e-02  1.65329218e-01 -1.75105557e-01  6.11983724e-02
   4.70608473e-02  7.64234960e-02  3.42996530e-02  1.29637331e-01
   5.20918369e-02 -5.50098531e-02]
 [ 1.05063878e-01  5.12320772e-02  1.54024661e-01  5.14967851e-02
  -2.26812828e-02 -1.22617565e-01 -1.30155042e-01 -8.32321271e-02
  -6.54292181e-02  6.73177838e-02]
 [-4.31838073e-02 -2.57824156e-02  9.83924419e-02 -1.47634491e-01
   8.26519355e-02 -2.98253242e-02  2.25558311e-01 -5.16873561e-02
   1.37395829e-01 -1.16044335e-01]
 [-1.69035420e-01  5.63771315e-02  5.51684387e-03  1.19346775e-01
  -4.59267758e-02 -1.39179418e-03  8.10795948e-02  6.17401898e-02
  -3.32157575e-02  2.30005346e-02]
 [-4.31617126e-02 -2.31131271e-01 -1.08414982e-02  1.09766915e-01
   1.21702086e-02 -2.98740771e-02 -1.14174843e-01  1.36200734e-03
   1.96892560e-01 -3.99224274e-02]
 [ 2.42036488e-02 -8.91364291e-02  4.72602993e-02 -6.96978765e-04
  -2.51892775e-01  2.53017545e-01  1.99821159e-01 -9.03805941e-02
  -2.83526834e-02  3.19252945e-02]
 [-7.88763165e-02  1.17819898e-01  1.35893971e-01  1.79162338e-01
   2.89283134e-02  9.49742272e-02  1.69855788e-01  2.43497472e-02
  -4.38105091e-02  1.25250772e-01]
 [-1.06638305e-01  8.34334642e-02 -1.02164224e-01  7.50196204e-02
  -4.91934875e-03 -3.16029205e-03 -1.11758105e-01 -4.80183363e-02
  -2.07092389e-01 -5.29676341e-02]
 [ 9.89035666e-02  3.82370427e-02 -2.29573041e-01  1.84592888e-01
  -9.29613635e-02 -3.64828925e-03 -1.43899694e-01 -1.20070234e-01
  -8.87042508e-02 -1.18304724e-02]
 [-7.41337240e-02  1.15198968e-02 -1.67271122e-01  7.33182430e-02
   1.44551277e-01 -1.67663395e-01 -2.73920987e-02  2.67544971e-03
   4.14669216e-02 -4.93212370e-04]
 [-1.09060191e-01  7.64808282e-02 -7.21973777e-02  4.76133674e-02
   2.88646203e-02  7.14105815e-02  6.31545335e-02  6.25355169e-02
   1.02944672e-01  5.28104082e-02]
 [ 1.20787852e-01 -1.91861451e-01 -7.89889619e-02  5.58309965e-02
   7.47247189e-02  2.22573876e-02 -2.79459655e-02 -2.05567867e-01
  -5.60514105e-04 -1.25749037e-02]
 [ 1.25479504e-01  1.02540432e-02 -1.38176223e-02  2.06873342e-01
   1.25514165e-01  7.19943792e-02 -1.16764836e-01 -1.82892904e-01
   1.02436364e-01  7.94720575e-02]
 [ 1.03271842e-01  3.86508517e-02  9.30465665e-03  5.35195842e-02
   7.29376301e-02  6.12116568e-02  1.15054265e-01  1.22660927e-01
  -7.70706460e-02 -1.68133110e-01]
 [ 2.31485274e-02 -1.29597140e-02  3.04191709e-02  5.35688177e-02
   5.18403240e-02  1.16364792e-01 -6.40016124e-02  1.33906351e-02
  -9.71253142e-02 -4.26844060e-02]
 [-6.15759492e-02  1.29911900e-01  1.04163013e-01 -1.51498601e-01
  -1.09072052e-01 -1.15659229e-01  8.06080922e-02  1.26622934e-02
  -7.34207854e-02 -4.79711853e-02]
 [-1.23695843e-01  2.15283465e-02  4.33453433e-02  2.12320462e-02
   9.67564881e-02  3.35496403e-02  1.14020504e-01 -1.43137097e-01
  -3.23411152e-02 -1.53974164e-02]
 [ 2.88458411e-02  1.37395874e-01 -2.02803854e-02  1.62944213e-01
   3.39348502e-02 -7.28558898e-02 -1.61349848e-01 -1.36516422e-01
  -1.93585418e-02  5.34819476e-02]
 [-1.29160648e-02 -1.28553346e-01  2.20628139e-02 -5.80386296e-02
   1.96538880e-01 -5.07951975e-02  1.68950275e-01  2.06572279e-01
  -1.07460178e-01 -4.10597660e-02]
 [ 7.49665871e-02 -1.38393730e-01  1.17030870e-02 -3.46999727e-02
   1.62296649e-02  1.12660661e-01  3.49807106e-02  4.78842063e-03
  -1.89807937e-01  1.00092543e-02]
 [-2.64956038e-02  2.16490682e-02 -1.04046799e-01  1.30088225e-01
  -1.28330454e-01 -1.41166553e-01  5.88138662e-02 -3.73534858e-02
  -1.85078278e-01  1.10875547e-01]
 [-1.06808916e-01 -4.69227508e-02  1.05974816e-01 -9.85827595e-02
   5.32581992e-02 -1.07016610e-02 -1.12793006e-01 -2.80878432e-02
  -2.31452376e-01  1.38140589e-01]
 [-7.12313429e-02 -7.54968449e-02  1.26212522e-01  6.16065450e-02
   2.22874917e-02  2.78790458e-03 -1.06335007e-01 -5.57859913e-02
   1.12010293e-01  1.29771829e-01]
 [ 5.06527089e-02  6.53880835e-02 -1.14770792e-01  5.08856252e-02
   4.83827405e-02  4.52462249e-02  2.86155473e-02  1.16140805e-01
   7.97409937e-02 -1.04436897e-01]
 [-1.22303031e-01 -5.98897040e-02 -1.08369507e-01 -6.41107187e-02
   1.64511185e-02 -9.71374288e-03 -7.19567835e-02 -1.70164749e-01
  -1.69733867e-01 -1.03514120e-02]]
(84, 10)
[[-3.0453746 -3.0652921 -2.9809835 -2.8868728 -3.0241094 -3.0310817
  -3.1577353 -2.989215  -3.0340526 -2.9065013]
 [-2.7300029 -2.8734946 -3.0082998 -2.9703548 -3.0326614 -2.9243665
  -2.8227327 -3.1091578 -3.067034  -2.9811976]
 [-3.1634798 -2.8684735 -2.962796  -2.9278123 -3.016289  -2.907446
  -3.0922818 -3.0097442 -2.9249675 -3.0447288]
 [-2.7963214 -2.9619906 -3.0819623 -3.016201  -3.0118163 -3.1187563
  -2.9763615 -3.029451  -3.093278  -3.0485806]
 [-2.8409986 -2.9958174 -3.0383074 -2.947974  -2.8284187 -2.8961887
  -3.0693116 -2.9935968 -3.0949037 -2.8729317]
 [-2.919057  -3.107734  -3.0123541 -2.9530144 -3.0947807 -2.9893107
  -2.9216006 -3.3372233 -3.0342708 -3.0089908]
 [-3.0961547 -2.8035092 -3.0359533 -2.9231493 -2.9798584 -3.072229
  -3.17191   -3.188824  -2.949878  -2.94283  ]
 [-2.9846392 -3.1146173 -2.8452752 -2.9481752 -3.0088067 -3.1379647
  -3.1081493 -2.8282712 -2.9376702 -2.9503913]
 [-3.1327376 -2.9089105 -3.0619884 -2.9947557 -3.031328  -2.9934123
  -2.9887433 -3.0201423 -3.0519166 -3.045959 ]
 [-2.8527057 -2.923445  -3.0208263 -2.8023915 -3.1635904 -2.7671576
  -3.0090485 -3.067885  -2.8259354 -2.971231 ]
 [-3.169005  -3.0827081 -3.034569  -2.858587  -3.0471325 -2.9920564
  -3.0610945 -2.9641187 -3.0365362 -3.0441034]
 [-2.946768  -2.9045086 -3.067684  -3.0350535 -3.097857  -3.025617
  -2.9775436 -2.9013357 -3.0439162 -2.944151 ]
 [-3.2083416 -3.0904708 -3.0058842 -2.9239848 -3.0225163 -2.9531496
  -3.1524649 -2.8947904 -2.8131602 -3.0652204]
 [-3.0274699 -2.9450226 -2.9125702 -2.81688   -2.9778929 -2.8828387
  -3.0451102 -2.9746978 -2.905637  -2.8843482]
 [-3.1254072 -2.8794    -2.927619  -3.0548863 -3.0138774 -3.0975232
  -3.1148465 -3.0361433 -2.8901088 -2.7915711]
 [-3.0252044 -2.90163   -3.1242723 -3.0410628 -3.0151205 -3.1207626
  -3.122543  -2.8891823 -2.9493723 -2.9582233]
 [-2.9263897 -3.1946366 -2.9266222 -3.0535645 -3.1447392 -2.8782244
  -2.923794  -3.0299737 -3.1526113 -3.1176515]
 [-2.842699  -3.0269408 -2.9363656 -3.2118652 -2.9962852 -2.8423612
  -3.0028384 -3.1533318 -2.924825  -3.0317814]
 [-3.023015  -3.0982497 -3.0714166 -3.0636168 -3.0763912 -3.1464982
  -2.886862  -2.878642  -3.0752373 -3.0638943]
 [-3.06942   -3.1738138 -3.2382267 -2.8380158 -2.9205782 -2.8554773
  -2.9709647 -2.9943666 -2.9295943 -3.0590715]
 [-3.1129985 -3.0132225 -2.898896  -3.0364223 -3.0599527 -2.9614105
  -2.9981556 -2.8711212 -3.0557568 -3.1252944]
 [-2.9827728 -2.7130814 -3.00394   -3.051115  -2.8523064 -3.074533
  -3.2227366 -2.8478837 -2.930845  -3.0593195]
 [-2.8728604 -3.0460954 -3.1327791 -2.8713968 -2.894798  -2.7896311
  -2.8996415 -3.1462197 -3.0293543 -2.9994035]
 [-3.077264  -3.0448203 -2.9414854 -3.0534594 -2.9718535 -2.9523392
  -2.9728181 -2.9400773 -3.0574584 -2.9889383]
 [-2.8973608 -2.9540017 -3.152227  -3.13557   -3.075198  -2.9562454
  -3.0557582 -3.0247264 -3.042403  -3.046747 ]
 [-3.0434124 -2.8906336 -2.9441974 -3.0016677 -2.8588662 -2.894193
  -3.0246003 -2.876732  -2.8898406 -3.026003 ]
 [-2.86809   -3.0098014 -3.007808  -2.8985066 -2.9202304 -3.0943134
  -2.9309816 -3.0332325 -2.9261494 -2.9449868]
 [-3.185429  -2.8791306 -2.8448272 -2.83953   -2.9080045 -3.0964384
  -3.2064707 -3.0248013 -2.8812642 -3.0590088]
 [-2.8871021 -3.111536  -3.0134556 -3.0855725 -2.8730407 -2.9717107
  -2.9558556 -3.0785902 -3.1101985 -2.9972475]
 [-2.9230502 -2.9094007 -2.984866  -2.826435  -2.9726434 -3.1164951
  -3.0902297 -2.9755619 -3.056553  -2.988648 ]
 [-3.0365546 -2.9457862 -2.9066534 -3.033706  -3.2039325 -2.9526994
  -3.1806762 -3.042023  -2.9115078 -3.0770032]
 [-3.060487  -3.1212966 -3.0602555 -2.882154  -3.086353  -2.7777834
  -2.8501606 -3.1062672 -3.0268872 -2.8991308]
 [-3.0018234 -3.0140836 -2.9146476 -3.0979533 -2.8332    -3.0829923
  -3.0304964 -3.0470805 -2.9035683 -3.004973 ]
 [-3.0120947 -2.9577901 -2.8633122 -3.0115314 -3.2168283 -3.0932264
  -3.0250711 -3.0345545 -2.8953674 -2.9002492]
 [-3.099638  -2.992257  -3.013193  -3.0151896 -3.0374765 -3.0291033
  -2.9589698 -3.062846  -2.9749842 -2.981522 ]
 [-2.8968208 -3.1715262 -3.1173825 -2.951807  -3.1031682 -3.0450017
  -2.9549346 -2.882026  -3.0409024 -3.0119402]
 [-2.840453  -3.0126257 -2.8540373 -3.0673077 -2.9870923 -3.053883
  -3.0266597 -3.0884886 -2.8175654 -3.0905995]
 [-3.1286452 -2.941115  -3.0510898 -3.0213077 -2.8870153 -2.9525905
  -2.9970381 -3.0039935 -2.9385576 -3.083497 ]
 [-3.060861  -2.975273  -2.876387  -2.936484  -2.959126  -2.9635642
  -3.121634  -2.7566247 -3.0698483 -3.0798573]
 [-2.8497152 -3.053022  -2.9923513 -2.9808903 -3.0859783 -3.0560052
  -3.101625  -2.937271  -3.0688915 -3.0609694]
 [-2.946751  -2.841293  -2.9556172 -2.988855  -2.9811318 -2.9398842
  -2.8189251 -2.8512049 -2.9212136 -2.9456134]
 [-3.0968144 -3.0344925 -3.0862117 -3.077799  -2.96602   -2.8833487
  -2.9974637 -3.0658286 -2.923924  -2.892382 ]
 [-2.8530087 -3.0149364 -3.0082655 -2.9698913 -2.864324  -3.0393944
  -2.9385178 -3.0904489 -2.9952393 -2.8700407]
 [-2.8188987 -3.0741286 -3.0006394 -2.8535697 -3.0678592 -2.9338162
  -3.0939395 -2.9841168 -3.0385165 -3.0582082]
 [-2.9799414 -2.881189  -2.9883404 -2.8300931 -3.1226058 -2.8938742
  -3.037082  -2.8919952 -2.8001115 -2.8362894]
 [-3.1134596 -2.89005   -3.0519793 -3.0475821 -2.9523745 -2.9718773
  -2.933694  -3.0416396 -2.9185872 -3.2193277]
 [-2.7971597 -2.9882758 -3.015711  -3.0252037 -2.8134382 -3.0012398
  -3.07583   -3.0362508 -2.779977  -2.97985  ]
 [-3.0091598 -3.004106  -3.0239687 -2.859685  -3.1472447 -3.097462
  -3.1539397 -2.8836455 -2.8962653 -2.8376074]
 [-2.9472532 -2.8714452 -2.8979163 -3.0077999 -3.2406979 -2.9554107
  -2.9540396 -3.1197145 -2.9653034 -2.8837273]
 [-2.9793205 -3.0881364 -3.1078355 -3.0049531 -2.776706  -2.8989995
  -3.1042402 -3.0829742 -2.982188  -3.0160422]
 [-2.8111823 -2.892478  -3.1202564 -2.9475105 -2.9662611 -3.0547597
  -2.905701  -3.125681  -2.909303  -2.862598 ]
 [-2.8147073 -3.1061945 -2.9746444 -2.9432466 -2.9796126 -3.0477798
  -2.9755619 -3.0656023 -2.8268738 -2.9633024]
 [-2.8389742 -3.0312603 -2.9120245 -2.9829257 -2.9296484 -3.16194
  -2.8278904 -3.1515822 -2.983173  -2.8923345]
 [-3.0102746 -2.876408  -3.180633  -3.075858  -2.884247  -2.8943963
  -2.7702448 -2.8808908 -2.795558  -2.9848025]
 [-2.9514272 -3.1451712 -2.9911983 -3.1240258 -3.111755  -3.1481216
  -2.8926394 -2.987108  -2.9263382 -3.0999439]
 [-2.9147475 -2.931797  -2.9753258 -3.022202  -2.7768614 -2.976105
  -3.0139034 -3.0564637 -3.0351965 -3.0257316]
 [-3.0796702 -2.8873255 -3.0145261 -3.1489675 -2.88662   -2.9609113
  -2.9063778 -2.9458618 -2.9050698 -3.0792847]
 [-3.0924137 -3.099665  -2.9713433 -3.0841124 -3.0263994 -3.0582528
  -3.1109867 -3.00845   -2.880856  -2.9232519]
 [-2.9948466 -3.0859895 -2.9947596 -2.9563596 -3.1039405 -2.8388262
  -2.9597776 -2.9162736 -3.0169547 -3.0607374]
 [-2.913753  -3.104966  -3.076443  -3.062473  -3.0559697 -2.9263878
  -3.1540122 -3.0285218 -2.9714713 -3.2875073]
 [-2.835022  -3.0435185 -2.846375  -2.9168608 -2.8565195 -2.8624418
  -3.0582988 -3.0005953 -3.083599  -3.041067 ]
 [-3.0450156 -2.8824503 -2.9105225 -2.9737542 -2.8792346 -2.9763641
  -3.0218647 -3.3051028 -2.9005492 -3.084654 ]
 [-3.1275911 -3.087707  -3.1157591 -2.9111998 -2.9148371 -2.9093137
  -3.118049  -3.1075935 -2.9687598 -2.975051 ]
 [-2.9930162 -2.924255  -2.8405704 -3.166144  -3.0444572 -3.0019424
  -3.0984526 -2.988299  -2.9382596 -2.8631856]
 [-3.1246548 -3.067623  -3.0215273 -3.0426588 -2.8411727 -3.0325615
  -3.087519  -2.990318  -3.009014  -3.0966208]
 [-3.1690795 -2.9978464 -3.0302858 -2.910522  -2.9060953 -3.0724528
  -3.0571837 -2.9687705 -2.971539  -3.0504236]
 [-2.9747627 -3.0017965 -2.8534734 -2.8995142 -3.00373   -2.9752598
  -2.9857786 -2.8048816 -3.016049  -3.0899038]
 [-2.877608  -2.9572225 -3.1179998 -3.1600006 -3.0046842 -2.9798057
  -2.929306  -2.959759  -3.1758058 -2.9671006]
 [-2.986663  -3.0594826 -3.0502613 -3.042853  -2.9979656 -2.967101
  -2.9696782 -2.905687  -3.064858  -3.0784585]
 [-2.8733594 -3.021401  -2.975302  -2.9101915 -2.8430102 -2.9298496
  -3.0415356 -3.1072676 -3.0514197 -3.0730073]
 [-3.0798855 -2.9799893 -2.9772985 -3.1284091 -3.104856  -2.9601521
  -3.0718467 -2.9336104 -2.9781258 -2.8798146]
 [-3.0493386 -2.8632746 -2.8140311 -2.9130974 -2.850139  -3.159669
  -3.209356  -3.0585    -3.0106146 -2.8610077]
 [-3.2301624 -2.9990952 -2.8523016 -2.8890574 -3.0320392 -2.9735944
  -2.9820702 -3.1437664 -3.1878307 -3.033957 ]
 [-2.9763992 -2.88019   -2.9250274 -3.137084  -2.936242  -3.0005426
  -2.9760067 -3.0110664 -2.8026457 -2.996118 ]
 [-2.979602  -3.0351834 -3.065574  -2.936706  -2.9992082 -2.9321508
  -2.8121324 -2.9766855 -3.0327692 -2.9614425]
 [-2.8989894 -3.0668924 -3.0988944 -2.989302  -2.8879952 -2.817092
  -3.1215982 -2.8876946 -2.959277  -3.1462092]
 [-2.9589648 -2.9463618 -3.092261  -2.904248  -2.9882562 -2.9530818
  -2.8897185 -3.1207936 -2.9723182 -3.1387749]
 [-3.0814917 -2.8372548 -3.141056  -2.8357813 -2.855689  -3.2284331
  -3.068309  -3.0168269 -3.0373602 -2.9074259]
 [-2.9328585 -3.189845  -3.0029206 -3.1574585 -3.145197  -2.9531786
  -2.955994  -2.977676  -3.0714858 -2.8234932]
 [-3.0742428 -2.981375  -2.8850033 -2.8657348 -2.865434  -3.1115339
  -3.1459296 -2.9571514 -3.1232905 -3.0324109]
 [-2.9739764 -3.1927366 -2.9648836 -2.9205933 -3.083244  -3.0884616
  -2.90176   -3.0282629 -3.2040782 -3.1039908]
 [-3.016158  -2.9542189 -3.0142596 -2.9977915 -2.9237096 -2.7747483
  -2.9314392 -3.0966163 -3.1284263 -2.9330378]
 [-2.8965404 -2.9371755 -2.968187  -2.8956027 -2.814952  -2.9926279
  -2.9585958 -2.8372567 -3.0632763 -2.985089 ]
 [-3.107775  -3.1033778 -2.9625828 -2.9391959 -3.1543887 -2.9535482
  -3.079042  -2.9953554 -2.9120352 -2.909338 ]]
(10,)
[ 0.00463354  0.05022248  0.1733462   0.06645998  0.01321447 -0.07853722
  0.05931311 -0.26101288 -0.15894164  0.02052761]
